{"format":"ghq-gradient-boosted-value-v1","generated_at":"2026-07-17T19:29:13.728066+00:00","feature_names":["turn_progress","board_fill","surviving_unit_fraction","own_to_move","own_board_hq","own_board_infantry","own_board_armored_infantry","own_board_airborne_infantry","own_board_artillery","own_board_armored_artillery","own_board_heavy_artillery","own_reserve_infantry","own_reserve_armored_infantry","own_reserve_airborne_infantry","own_reserve_artillery","own_reserve_armored_artillery","own_reserve_heavy_artillery","own_material_board","own_material_total","own_pieces_board","own_pieces_reserve","own_infantry_board","own_artillery_board","own_home_rank_occupancy","own_relocation_options","own_mean_relocation_options","own_immobile_count","own_home_rank_immobile_count","own_connected_components","own_largest_component_ratio","own_max_rank_occupancy","own_advancement_mean","own_advancement_max","own_unsupported_count","own_unsupported_value","own_support_distance_mean","own_overextended_count","own_overextended_value","own_artillery_adjacent_pairs","own_heavy_artillery_centered","own_artillery_diagonal_count","own_artillery_cardinal_count","own_bombarded_squares","own_bombarded_enemy_count","own_bombarded_enemy_value","own_artillery_protected_count","own_artillery_diagonal_infantry_cover","own_artillery_cardinal_infantry_cover","own_infantry_engagements","own_paratrooper_ready","own_paratrooper_deployed","own_paratrooper_distance_home","own_paratrooper_supported","own_paratrooper_engaged","own_hq_bombarded","own_hq_adjacent_enemy_infantry","own_hq_adjacent_friendly","own_hq_escape_squares","own_pseudo_mobility","opp_board_hq","opp_board_infantry","opp_board_armored_infantry","opp_board_airborne_infantry","opp_board_artillery","opp_board_armored_artillery","opp_board_heavy_artillery","opp_reserve_infantry","opp_reserve_armored_infantry","opp_reserve_airborne_infantry","opp_reserve_artillery","opp_reserve_armored_artillery","opp_reserve_heavy_artillery","opp_material_board","opp_material_total","opp_pieces_board","opp_pieces_reserve","opp_infantry_board","opp_artillery_board","opp_home_rank_occupancy","opp_relocation_options","opp_mean_relocation_options","opp_immobile_count","opp_home_rank_immobile_count","opp_connected_components","opp_largest_component_ratio","opp_max_rank_occupancy","opp_advancement_mean","opp_advancement_max","opp_unsupported_count","opp_unsupported_value","opp_support_distance_mean","opp_overextended_count","opp_overextended_value","opp_artillery_adjacent_pairs","opp_heavy_artillery_centered","opp_artillery_diagonal_count","opp_artillery_cardinal_count","opp_bombarded_squares","opp_bombarded_enemy_count","opp_bombarded_enemy_value","opp_artillery_protected_count","opp_artillery_diagonal_infantry_cover","opp_artillery_cardinal_infantry_cover","opp_infantry_engagements","opp_paratrooper_ready","opp_paratrooper_deployed","opp_paratrooper_distance_home","opp_paratrooper_supported","opp_paratrooper_engaged","opp_hq_bombarded","opp_hq_adjacent_enemy_infantry","opp_hq_adjacent_friendly","opp_hq_escape_squares","opp_pseudo_mobility","diff_material_board","diff_material_total","diff_pieces_board","diff_infantry_board","diff_artillery_board","diff_home_rank_occupancy","diff_relocation_options","diff_immobile_count","diff_home_rank_immobile_count","diff_connected_components","diff_largest_component_ratio","diff_unsupported_value","diff_overextended_value","diff_bombarded_enemy_value","diff_artillery_protected_count","diff_paratrooper_ready","diff_paratrooper_deployed","diff_hq_bombarded","diff_hq_escape_squares","diff_pseudo_mobility"],"base_raw_score":0.00491886173468664,"learning_rate":0.05,"calibration":{"kind":"platt","scale":1.2815344582539063,"intercept":0.00955238489731012},"trees":[{"children_left":[1,2,3,-1,-1,6,-1,-1,9,10,-1,-1,13,-1,-1],"children_right":[8,5,4,-1,-1,7,-1,-1,12,11,-1,-1,14,-1,-1],"feature":[115,115,18,-2,-2,62,-2,-2,73,117,-2,-2,64,-2,-2],"threshold":[2.5,-2.5,127.5,-2.0,-2.0,0.5,-2.0,-2.0,127.5,-3.5,-2.0,-2.0,0.5,-2.0,-2.0],"value":[0.000480566613,-0.128335485078,-0.338146677504,-1.722975317572,-0.713127881735,0.00062881692,0.293986308503,-0.153003442424,0.346279868478,0.435466785251,-0.713930352739,1.780995225288,0.185040771715,0.089484584772,1.166851582428]},{"children_left":[1,2,3,-1,-1,6,-1,-1,9,10,-1,-1,13,-1,-1],"children_right":[8,5,4,-1,-1,7,-1,-1,12,11,-1,-1,14,-1,-1],"feature":[115,115,17,-2,-2,62,-2,-2,72,133,-2,-2,64,-2,-2],"threshold":[2.5,-2.5,127.5,-2.0,-2.0,0.5,-2.0,-2.0,127.5,-0.056221202016,-2.0,-2.0,0.5,-2.0,-2.0],"value":[0.000914001425,-0.121832499093,-0.320873374987,-1.527553853536,-0.350116028691,-0.001000590766,0.268166736319,-0.146396705358,0.33086444419,0.388245693323,0.754585877471,1.672265519017,0.106017932601,-0.698417947593,0.968991806869]},{"children_left":[1,2,3,-1,-1,6,-1,-1,9,10,-1,-1,13,-1,-1],"children_right":[8,5,4,-1,-1,7,-1,-1,12,11,-1,-1,14,-1,-1],"feature":[115,18,117,-2,-2,9,-2,-2,115,7,-2,-2,72,-2,-2],"threshold":[-2.5,127.5,3.5,-2.0,-2.0,0.5,-2.0,-2.0,2.5,0.5,-2.0,-2.0,127.5,-2.0,-2.0],"value":[0.001656543455,-0.30766673419,-0.388693341302,-1.605856136281,0.88387414561,-0.168123391158,-0.058887786177,-1.079432196116,0.120289798394,0.005065452258,-0.290347762043,0.182014777399,0.311228329851,1.471560799813,0.367846463021]},{"children_left":[1,2,3,-1,-1,6,-1,-1,9,10,-1,-1,13,-1,-1],"children_right":[8,5,4,-1,-1,7,-1,-1,12,11,-1,-1,14,-1,-1],"feature":[115,115,67,-2,-2,7,-2,-2,73,117,-2,-2,64,-2,-2],"threshold":[2.5,-5.5,6.5,-2.0,-2.0,0.5,-2.0,-2.0,127.5,-3.5,-2.0,-2.0,0.5,-2.0,-2.0],"value":[-0.003020141341,-0.113466191055,-0.356484905719,-1.510398351955,1.086495913126,-0.033133897365,-0.52522396382,0.107233948587,0.29440697839,0.375855639242,-0.843534270166,1.56276022647,0.148496629421,-0.005586773499,0.994924750383]},{"children_left":[1,2,3,-1,-1,6,-1,-1,9,10,-1,-1,13,-1,-1],"children_right":[8,5,4,-1,-1,7,-1,-1,12,11,-1,-1,14,-1,-1],"feature":[115,18,117,-2,-2,9,-2,-2,115,62,-2,-2,12,-2,-2],"threshold":[-2.5,126.5,3.5,-2.0,-2.0,0.5,-2.0,-2.0,5.5,0.5,-2.0,-2.0,6.5,-2.0,-2.0],"value":[0.001179026659,-0.277314802305,-0.36038782457,-1.513904022542,0.871490927371,-0.145117194654,-0.015442788143,-0.971827748044,0.106565080678,0.028756038887,0.485426182444,-0.1054029605,0.342540275291,1.471146512749,-1.061084896384]},{"children_left":[1,2,3,-1,-1,6,-1,-1,9,10,-1,-1,13,-1,-1],"children_right":[8,5,4,-1,-1,7,-1,-1,12,11,-1,-1,14,-1,-1],"feature":[115,115,67,-2,-2,7,-2,-2,72,133,-2,-2,64,-2,-2],"threshold":[2.5,-5.5,6.5,-2.0,-2.0,0.5,-2.0,-2.0,127.5,-0.042865894735,-2.0,-2.0,0.5,-2.0,-2.0],"value":[0.000793545736,-0.100773269707,-0.324473362763,-1.402863040541,1.070802344234,-0.027147597251,-0.476326846957,0.11346764658,0.270547373799,0.321437793604,0.636578554834,1.438467050646,0.068420399346,-0.800447785903,0.801261149031]},{"children_left":[1,2,3,-1,-1,6,-1,-1,9,10,-1,-1,13,-1,-1],"children_right":[8,5,4,-1,-1,7,-1,-1,12,11,-1,-1,14,-1,-1],"feature":[115,115,17,-2,-2,76,-2,-2,73,116,-2,-2,64,-2,-2],"threshold":[2.5,-2.5,127.5,-2.0,-2.0,2.5,-2.0,-2.0,126.5,0.5,-2.0,-2.0,0.5,-2.0,-2.0],"value":[-0.002194103731,-0.096200062946,-0.253706439663,-1.261293829348,-0.270361810718,-0.002001046053,1.601817283497,-0.029612811703,0.253304504448,0.328662188754,0.71450517363,1.506103668166,0.131651579249,0.010090087884,0.904708422023]},{"children_left":[1,2,3,-1,-1,6,-1,-1,9,10,-1,-1,13,-1,-1],"children_right":[8,5,4,-1,-1,7,-1,-1,12,11,-1,-1,14,-1,-1],"feature":[115,17,21,-2,-2,9,-2,-2,115,62,-2,-2,12,-2,-2],"threshold":[-2.5,127.5,8.5,-2.0,-2.0,0.5,-2.0,-2.0,5.5,0.5,-2.0,-2.0,6.5,-2.0,-2.0],"value":[0.000765282,-0.242218091639,-0.287772509857,-1.28387689265,0.010631947253,-0.07071071265,0.829127707067,-0.832462045524,0.092147097027,0.025507513189,0.485905140112,-0.122756738872,0.294823309436,1.325412621325,-1.105328822486]},{"children_left":[1,2,3,-1,-1,6,-1,-1,9,10,-1,-1,13,-1,-1],"children_right":[8,5,4,-1,-1,7,-1,-1,12,11,-1,-1,14,-1,-1],"feature":[115,18,116,-2,-2,9,-2,-2,115,62,-2,-2,12,-2,-2],"threshold":[-2.5,127.5,-0.5,-2.0,-2.0,0.5,-2.0,-2.0,5.5,0.5,-2.0,-2.0,6.5,-2.0,-2.0],"value":[-0.00110336918,-0.228325688938,-0.291478518334,-1.386567126377,-0.553700079664,-0.117718224471,0.048557053606,-0.829205786503,0.086252878581,0.02265756886,0.409234536573,-0.101534958624,0.28006573615,1.280206076807,-1.072620119077]},{"children_left":[1,2,3,-1,-1,6,-1,-1,9,10,-1,-1,13,-1,-1],"children_right":[8,5,4,-1,-1,7,-1,-1,12,11,-1,-1,14,-1,-1],"feature":[115,115,67,-2,-2,7,-2,-2,73,117,-2,-2,64,-2,-2],"threshold":[2.5,-5.5,6.5,-2.0,-2.0,0.5,-2.0,-2.0,127.5,-3.5,-2.0,-2.0,0.5,-2.0,-2.0],"value":[-0.002486107088,-0.086003396467,-0.270646701606,-1.248374531073,1.083899434309,-0.024530032443,-0.441442967903,0.106761693658,0.222841440455,0.288038568033,-0.742188589637,1.303278438854,0.108208303662,-0.08030809438,0.77559993022]},{"children_left":[1,2,3,-1,-1,6,-1,-1,9,10,-1,-1,13,-1,-1],"children_right":[8,5,4,-1,-1,7,-1,-1,12,11,-1,-1,14,-1,-1],"feature":[115,17,133,-2,-2,9,-2,-2,115,21,-2,-2,62,-2,-2],"threshold":[-2.5,127.5,0.088750440627,-2.0,-2.0,0.5,-2.0,-2.0,2.5,2.5,-2.0,-2.0,0.5,-2.0,-2.0],"value":[0.00033871892,-0.209930167324,-0.253029004398,-1.216612716786,-0.329908850226,-0.045474092904,0.823965550312,-0.707261450513,0.080154759832,0.001049933322,-1.601575655772,0.02520014073,0.212668567103,1.179017251241,0.38308630899]},{"children_left":[1,2,3,-1,-1,6,-1,-1,9,10,-1,-1,13,-1,-1],"children_right":[8,5,4,-1,-1,7,-1,-1,12,11,-1,-1,14,-1,-1],"feature":[114,7,21,-2,-2,115,-2,-2,62,76,-2,-2,65,-2,-2],"threshold":[0.5,0.5,8.5,-2.0,-2.0,-7.5,-2.0,-2.0,0.5,8.5,-2.0,-2.0,0.5,-2.0,-2.0],"value":[-0.000624882425,-0.112790167253,-0.204737730891,-0.973414452607,0.344005674327,-0.013270910954,-1.179660511984,0.073014763918,0.139232580452,0.222324578705,1.080189500462,-0.294206069503,0.036775198903,0.724672142869,-0.135561662122]},{"children_left":[1,2,3,-1,-1,6,-1,-1,9,10,-1,-1,13,-1,-1],"children_right":[8,5,4,-1,-1,7,-1,-1,12,11,-1,-1,14,-1,-1],"feature":[115,115,67,-2,-2,7,-2,-2,62,76,-2,-2,114,-2,-2],"threshold":[0.5,-5.5,6.5,-2.0,-2.0,0.5,-2.0,-2.0,0.5,8.5,-2.0,-2.0,8.5,-2.0,-2.0],"value":[0.001044188982,-0.084640354646,-0.234030586669,-1.138071939297,1.01918854159,-0.027959062449,-0.500607156644,0.09179562731,0.160771185746,0.233164947439,1.195517152987,-0.350764538289,0.034319293466,-0.119366328392,1.145237934682]},{"children_left":[1,2,3,-1,-1,6,-1,-1,9,10,-1,-1,13,-1,-1],"children_right":[8,5,4,-1,-1,7,-1,-1,12,11,-1,-1,14,-1,-1],"feature":[114,86,5,-2,-2,129,-2,-2,73,117,-2,-2,60,-2,-2],"threshold":[0.5,1.630681812763,3.5,-2.0,-2.0,0.5,-2.0,-2.0,127.5,-3.5,-2.0,-2.0,3.5,-2.0,-2.0],"value":[-0.00040794294,-0.101257272006,-0.0272749705,0.134283110563,-0.314973819862,-0.202192111568,-1.034297381387,-0.199739939137,0.12660899742,0.224620579759,-1.161157101189,1.093362823383,0.051799005064,-0.06649222746,0.421258871135]},{"children_left":[1,2,3,-1,-1,6,-1,-1,9,10,-1,-1,13,-1,-1],"children_right":[8,5,4,-1,-1,7,-1,-1,12,11,-1,-1,14,-1,-1],"feature":[115,7,21,-2,-2,115,-2,-2,73,116,-2,-2,133,-2,-2],"threshold":[-0.5,0.5,8.5,-2.0,-2.0,-5.5,-2.0,-2.0,127.5,0.5,-2.0,-2.0,0.120790299028,-2.0,-2.0],"value":[-0.000675764021,-0.146582517847,-0.211902984954,-1.116380951943,0.414271637346,-0.0324754149,-0.856947908366,0.176182047781,0.079861409585,0.203820891463,0.318928428817,1.208260653574,0.018004468331,-0.088425565025,0.331023962951]},{"children_left":[1,2,3,-1,-1,6,-1,-1,9,10,-1,-1,13,-1,-1],"children_right":[8,5,4,-1,-1,7,-1,-1,12,11,-1,-1,14,-1,-1],"feature":[115,18,116,-2,-2,60,-2,-2,62,76,-2,-2,115,-2,-2],"threshold":[0.5,127.5,-0.5,-2.0,-2.0,3.5,-2.0,-2.0,0.5,8.5,-2.0,-2.0,5.5,-2.0,-2.0],"value":[-0.000355685338,-0.076192856273,-0.18849468949,-1.151014916494,-0.203592494218,-0.018949664807,-0.328585283296,0.147840986838,0.140881515651,0.205734183964,1.103169600111,-0.254115159279,0.02637138358,-0.213534335335,0.867875050059]},{"children_left":[1,2,3,-1,-1,6,-1,-1,9,10,-1,-1,13,-1,-1],"children_right":[8,5,4,-1,-1,7,-1,-1,12,11,-1,-1,14,-1,-1],"feature":[115,7,21,-2,-2,8,-2,-2,115,129,-2,-2,12,-2,-2],"threshold":[-2.5,0.5,8.5,-2.0,-2.0,2.5,-2.0,-2.0,5.5,0.5,-2.0,-2.0,6.5,-2.0,-2.0],"value":[-0.0009035461,-0.163100510996,-0.206036802709,-1.126695851074,0.394186151553,-0.06798763122,-0.656239955986,0.431268686477,0.061045755351,0.016721404176,-0.003014308732,0.68595057578,0.195224402438,1.054488762084,-1.287488187309]},{"children_left":[1,2,3,-1,-1,6,-1,-1,9,10,-1,-1,13,-1,-1],"children_right":[8,5,4,-1,-1,7,-1,-1,12,11,-1,-1,14,-1,-1],"feature":[115,7,21,-2,-2,8,-2,-2,115,62,-2,-2,12,-2,-2],"threshold":[-2.5,0.5,8.5,-2.0,-2.0,2.5,-2.0,-2.0,5.5,0.5,-2.0,-2.0,6.5,-2.0,-2.0],"value":[-0.001961063716,-0.152758398306,-0.195587248032,-1.099371597922,0.384672890297,-0.054944958658,-0.637343651246,0.527858395584,0.055156038049,0.013735381896,0.335544412656,-0.107470374803,0.180834104147,0.997456426086,-1.2102552263]},{"children_left":[1,2,3,-1,-1,6,-1,-1,9,10,-1,-1,13,-1,-1],"children_right":[8,5,4,-1,-1,7,-1,-1,12,11,-1,-1,14,-1,-1],"feature":[114,7,21,-2,-2,16,-2,-2,62,76,-2,-2,71,-2,-2],"threshold":[-0.5,0.5,8.5,-2.0,-2.0,0.5,-2.0,-2.0,0.5,8.5,-2.0,-2.0,0.5,-2.0,-2.0],"value":[-0.000638396043,-0.102852310508,-0.171676419381,-0.925485037966,0.356656702024,-0.0189140376,0.000462707589,-1.880519745407,0.083760875796,0.155019180371,0.823712668717,-0.389084331169,0.005467432421,-0.036492160042,1.732674350938]},{"children_left":[1,2,3,-1,-1,6,-1,-1,9,10,-1,-1,13,-1,-1],"children_right":[8,5,4,-1,-1,7,-1,-1,12,11,-1,-1,14,-1,-1],"feature":[115,115,67,-2,-2,129,-2,-2,20,129,-2,-2,117,-2,-2],"threshold":[2.5,-5.5,6.5,-2.0,-2.0,-0.5,-2.0,-2.0,12.5,-0.5,-2.0,-2.0,1.5,-2.0,-2.0],"value":[-0.001540551603,-0.055305669949,-0.173879029172,-0.98586975479,1.191652703236,-0.015529394639,-0.662206541223,0.006978873364,0.140956492601,0.151979265539,0.044639721085,0.92249814345,-0.276537552219,-2.203059889485,0.470929774425]},{"children_left":[1,2,3,-1,-1,6,-1,-1,9,10,-1,-1,13,-1,-1],"children_right":[8,5,4,-1,-1,7,-1,-1,12,11,-1,-1,14,-1,-1],"feature":[133,11,75,-2,-2,62,-2,-2,115,31,-2,-2,63,-2,-2],"threshold":[-0.120386149734,1.5,13.0,-2.0,-2.0,0.5,-2.0,-2.0,2.5,3.154761910439,-2.0,-2.0,2.5,-2.0,-2.0],"value":[0.002864755374,-0.108204271562,-0.194927732537,-1.062677686653,1.658054799115,-0.059129655204,0.18526814926,-0.486046216918,0.071675408816,0.020562480248,0.051980985005,1.778465878261,0.152816302556,0.961851350657,0.179294223255]},{"children_left":[1,2,3,-1,-1,6,-1,-1,9,10,-1,-1,13,-1,-1],"children_right":[8,5,4,-1,-1,7,-1,-1,12,11,-1,-1,14,-1,-1],"feature":[133,115,67,-2,-2,9,-2,-2,73,116,-2,-2,7,-2,-2],"threshold":[0.018870163709,-5.5,6.5,-2.0,-2.0,0.5,-2.0,-2.0,122.5,0.5,-2.0,-2.0,0.5,-2.0,-2.0],"value":[-0.000849151153,-0.07770848234,-0.176470372687,-1.0352739401,0.929415284825,-0.033100624961,0.202054660124,-0.29978314514,0.086711183027,0.183289495793,0.344175429544,1.149697115224,0.041755066582,-0.285567512242,0.380998857121]},{"children_left":[1,2,3,-1,-1,6,-1,-1,9,10,-1,-1,13,-1,-1],"children_right":[8,5,4,-1,-1,7,-1,-1,12,11,-1,-1,14,-1,-1],"feature":[115,7,21,-2,-2,114,-2,-2,104,76,-2,-2,60,-2,-2],"threshold":[-0.5,0.5,8.5,-2.0,-2.0,-8.5,-2.0,-2.0,0.5,8.5,-2.0,-2.0,3.5,-2.0,-2.0],"value":[0.000566868281,-0.105075567835,-0.155458924065,-0.948555960837,0.381952139907,-0.015346690164,-0.976757049487,0.150362688038,0.058158372321,0.128459926057,0.759199272932,-0.339804297804,0.001695555724,-0.197517598958,0.231860047238]},{"children_left":[1,2,3,-1,-1,6,-1,-1,9,10,-1,-1,13,-1,-1],"children_right":[8,5,4,-1,-1,7,-1,-1,12,11,-1,-1,14,-1,-1],"feature":[133,86,114,-2,-2,68,-2,-2,115,31,-2,-2,63,-2,-2],"threshold":[-0.093923851848,2.433035731316,-6.5,-2.0,-2.0,0.5,-2.0,-2.0,2.5,3.133928537369,-2.0,-2.0,2.5,-2.0,-2.0],"value":[9.4077753e-05,-0.091290618429,-0.060382977737,-0.697363922989,-0.058963116141,-0.206767111802,-1.120860269888,-2.069159846559,0.062215784535,0.012457890596,0.018495226452,1.720296190991,0.138133218764,0.926251987054,0.154351261139]},{"children_left":[1,2,3,-1,-1,6,-1,-1,9,10,-1,-1,13,-1,-1],"children_right":[8,5,4,-1,-1,7,-1,-1,12,11,-1,-1,14,-1,-1],"feature":[115,7,21,-2,-2,114,-2,-2,73,117,-2,-2,11,-2,-2],"threshold":[-0.5,0.5,8.5,-2.0,-2.0,-8.5,-2.0,-2.0,127.5,-3.5,-2.0,-2.0,2.5,-2.0,-2.0],"value":[-0.002638880847,-0.100748283565,-0.145674974457,-0.920670091948,0.378955740956,-0.02182526353,-0.938321948586,0.096750819713,0.051370625515,0.134289918933,-1.150274543072,0.798733858661,0.009117986769,-0.405949742052,0.130210408976]},{"children_left":[1,2,3,-1,-1,6,-1,-1,9,10,-1,-1,13,-1,-1],"children_right":[8,5,4,-1,-1,7,-1,-1,12,11,-1,-1,14,-1,-1],"feature":[133,115,129,-2,-2,86,-2,-2,66,20,-2,-2,114,-2,-2],"threshold":[0.120386149734,-2.5,0.5,-2.0,-2.0,3.133928537369,-2.0,-2.0,1.5,13.0,-2.0,-2.0,6.5,-2.0,-2.0],"value":[-0.000956539071,-0.054477802944,-0.12253888347,-0.837912897307,-0.030575557276,-0.010965249469,-0.013178983487,-1.684016050081,0.089818125712,0.169142024781,1.028392517845,-1.81673129947,0.044291500353,-0.050662671083,0.700536602258]},{"children_left":[1,2,3,-1,-1,6,-1,-1,9,10,-1,-1,13,-1,-1],"children_right":[8,5,4,-1,-1,7,-1,-1,12,11,-1,-1,14,-1,-1],"feature":[133,115,67,-2,-2,11,-2,-2,66,12,-2,-2,7,-2,-2],"threshold":[0.088423002511,-5.5,6.5,-2.0,-2.0,0.5,-2.0,-2.0,1.5,6.0,-2.0,-2.0,0.5,-2.0,-2.0],"value":[0.001824632436,-0.052941039828,-0.137443947369,-0.925544656456,1.120433618682,-0.019740158579,-0.718675598253,-0.003711793413,0.08473427689,0.160042403054,0.988492323961,-1.907477129915,0.043358840141,-0.252489782326,0.428118612184]},{"children_left":[1,2,3,-1,-1,6,-1,-1,9,10,-1,-1,13,-1,-1],"children_right":[8,5,4,-1,-1,7,-1,-1,12,11,-1,-1,14,-1,-1],"feature":[115,86,62,-2,-2,7,-2,-2,62,76,-2,-2,114,-2,-2],"threshold":[0.5,1.630681812763,0.5,-2.0,-2.0,0.5,-2.0,-2.0,0.5,8.5,-2.0,-2.0,8.5,-2.0,-2.0],"value":[0.000539614319,-0.046450426324,-0.003547250094,0.282400450842,-0.114808745715,-0.118616447828,-0.842322191799,-0.164877551924,0.087515768743,0.132853447235,0.894788606842,-0.384870390279,0.006082715707,-0.160605286693,0.897979036646]},{"children_left":[1,2,3,-1,-1,6,-1,-1,9,10,-1,-1,13,-1,-1],"children_right":[8,5,4,-1,-1,7,-1,-1,12,11,-1,-1,14,-1,-1],"feature":[133,11,67,-2,-2,62,-2,-2,62,116,-2,-2,71,-2,-2],"threshold":[-0.120386149734,1.5,4.0,-2.0,-2.0,0.5,-2.0,-2.0,0.5,-0.5,-2.0,-2.0,0.5,-2.0,-2.0],"value":[0.000484114548,-0.078644680392,-0.149753486613,-0.950736210707,1.644156874405,-0.038562072583,0.24757805241,-0.395535239495,0.049097389251,0.108308187214,-0.143798295798,0.776049257785,-0.002667570456,-0.052407358592,1.615189869159]},{"children_left":[1,2,3,-1,-1,6,-1,-1,9,10,-1,-1,13,-1,-1],"children_right":[8,5,4,-1,-1,7,-1,-1,12,11,-1,-1,14,-1,-1],"feature":[115,7,1,-2,-2,10,-2,-2,62,0,-2,-2,71,-2,-2],"threshold":[-0.5,0.5,0.4296875,-2.0,-2.0,0.5,-2.0,-2.0,0.5,0.124999996275,-2.0,-2.0,0.5,-2.0,-2.0],"value":[0.001213909853,-0.081204277255,-0.124156076287,-0.823702988744,0.774756385613,-0.00647805527,-0.444510006237,0.329043380497,0.045619521709,0.098986650629,0.00241291373,0.723132495651,-0.001054837006,-0.048956110532,1.326517587492]},{"children_left":[1,2,3,-1,-1,6,-1,-1,9,10,-1,-1,13,-1,-1],"children_right":[8,5,4,-1,-1,7,-1,-1,12,11,-1,-1,14,-1,-1],"feature":[133,86,62,-2,-2,114,-2,-2,115,64,-2,-2,12,-2,-2],"threshold":[-0.120386149734,2.240384578705,0.5,-2.0,-2.0,6.5,-2.0,-2.0,5.5,0.5,-2.0,-2.0,6.5,-2.0,-2.0],"value":[0.003442743406,-0.067978319481,-0.034801879658,0.178473793183,-0.338299890161,-0.15171420217,-0.992066219108,0.92380052686,0.047559811161,0.019021581549,-0.281673265976,0.229372720107,0.123614788686,0.905864534537,-1.178544800805]},{"children_left":[1,2,3,-1,-1,6,-1,-1,9,10,-1,-1,13,-1,-1],"children_right":[8,5,4,-1,-1,7,-1,-1,12,11,-1,-1,14,-1,-1],"feature":[133,7,116,-2,-2,16,-2,-2,75,12,-2,-2,18,-2,-2],"threshold":[0.120386149734,0.5,-0.5,-2.0,-2.0,0.5,-2.0,-2.0,3.5,4.0,-2.0,-2.0,130.5,-2.0,-2.0],"value":[-0.000588766085,-0.044029148901,-0.094356042565,-0.852703590328,-0.066552047907,-0.000386351192,0.043813371199,-1.705511584793,0.073805489498,0.120768087801,0.758654186382,-1.501385763287,0.020131648503,-0.9479376722,0.21110962717]},{"children_left":[1,2,3,-1,-1,6,-1,-1,9,10,-1,-1,13,-1,-1],"children_right":[8,5,4,-1,-1,7,-1,-1,12,11,-1,-1,14,-1,-1],"feature":[115,11,129,-2,-2,31,-2,-2,20,129,-2,-2,117,-2,-2],"threshold":[2.5,4.5,0.5,-2.0,-2.0,2.64583337307,-2.0,-2.0,12.5,-0.5,-2.0,-2.0,3.5,-2.0,-2.0],"value":[-0.001938463615,-0.034223022908,-0.061172424298,-0.389985870014,0.268043295431,0.030623991627,0.088199697035,2.052717446236,0.08454284798,0.092610339767,-0.09097130004,0.720176444154,-0.210386805531,-1.864023786816,1.508616762014]},{"children_left":[1,2,3,-1,-1,6,-1,-1,9,10,-1,-1,13,-1,-1],"children_right":[8,5,4,-1,-1,7,-1,-1,12,11,-1,-1,14,-1,-1],"feature":[133,7,19,-2,-2,16,-2,-2,66,12,-2,-2,114,-2,-2],"threshold":[0.088423002511,0.5,15.5,-2.0,-2.0,0.5,-2.0,-2.0,1.5,4.0,-2.0,-2.0,6.5,-2.0,-2.0],"value":[0.000958228234,-0.039173844402,-0.087884799869,-0.525439930733,1.37104559271,0.004248008468,0.06276484518,-1.635942696154,0.060991544621,0.128784582222,0.878076940918,-1.384442852588,0.024281869025,-0.090927074115,0.601143710387]},{"children_left":[1,2,3,-1,-1,6,-1,-1,9,10,-1,-1,13,-1,-1],"children_right":[8,5,4,-1,-1,7,-1,-1,12,11,-1,-1,14,-1,-1],"feature":[115,75,129,-2,-2,116,-2,-2,31,60,-2,-2,116,-2,-2],"threshold":[-2.5,12.5,0.5,-2.0,-2.0,-0.5,-2.0,-2.0,1.630681812763,3.5,-2.0,-2.0,0.5,-2.0,-2.0],"value":[0.001296579255,-0.078664611695,-0.086692060372,-0.676452313375,0.04485887416,0.235691005965,-1.249864459025,2.067671456897,0.03155033813,0.001233073026,-0.177273150321,0.168668335614,0.082842944878,0.103795938191,0.726940493859]},{"children_left":[1,2,3,-1,-1,6,-1,-1,9,10,-1,-1,13,-1,-1],"children_right":[8,5,4,-1,-1,7,-1,-1,12,11,-1,-1,14,-1,-1],"feature":[114,86,25,-2,-2,117,-2,-2,62,117,-2,-2,71,-2,-2],"threshold":[-0.5,1.541958034039,9.881944656372,-2.0,-2.0,3.5,-2.0,-2.0,0.5,-1.5,-2.0,-2.0,0.5,-2.0,-2.0],"value":[0.000940096339,-0.053767972476,-0.00901339272,-0.071194012815,1.56028783917,-0.099033015498,-0.634992265713,1.518985714901,0.046300027486,0.089736775978,-0.462959016259,0.603594099263,-0.001166324183,-0.055904879739,1.553984536752]},{"children_left":[1,2,3,-1,-1,6,-1,-1,9,10,-1,-1,13,-1,-1],"children_right":[8,5,4,-1,-1,7,-1,-1,12,11,-1,-1,14,-1,-1],"feature":[133,7,116,-2,-2,16,-2,-2,66,7,-2,-2,11,-2,-2],"threshold":[0.120386149734,0.5,0.5,-2.0,-2.0,0.5,-2.0,-2.0,4.5,0.5,-2.0,-2.0,4.5,-2.0,-2.0],"value":[0.000614275559,-0.034935672048,-0.079553579841,-0.628525952076,0.173068643595,0.003070796594,0.05275596363,-1.522540869384,0.061357536271,0.085773033502,0.178750741991,0.683522618842,-0.031359750576,-0.7429362266,0.135907339071]},{"children_left":[1,2,3,-1,-1,6,-1,-1,9,10,-1,-1,13,-1,-1],"children_right":[8,5,4,-1,-1,7,-1,-1,12,11,-1,-1,14,-1,-1],"feature":[115,86,121,-2,-2,106,-2,-2,129,97,-2,-2,20,-2,-2],"threshold":[2.5,1.630681812763,0.5,-2.0,-2.0,5.5,-2.0,-2.0,-0.5,6.5,-2.0,-2.0,12.5,-2.0,-2.0],"value":[-0.002784585945,-0.030871991208,-0.00146007553,0.041938141595,-0.547207594087,-0.07977504981,-0.511918915951,0.688525422852,0.073215665716,-0.023494368637,0.489872162708,-0.708491875508,0.091875915308,0.670439925996,-0.894003058786]},{"children_left":[1,2,3,-1,-1,6,-1,-1,9,10,-1,-1,13,-1,-1],"children_right":[8,5,4,-1,-1,7,-1,-1,12,11,-1,-1,14,-1,-1],"feature":[133,11,67,-2,-2,62,-2,-2,62,116,-2,-2,7,-2,-2],"threshold":[-0.123423296958,1.5,4.0,-2.0,-2.0,0.5,-2.0,-2.0,0.5,0.5,-2.0,-2.0,0.5,-2.0,-2.0],"value":[-0.000637718089,-0.056149430212,-0.116109441019,-0.844980767998,1.597733846334,-0.022290780272,0.233192874054,-0.278986300576,0.032796884628,0.078822209311,0.022911284524,0.825976805797,-0.006818356562,-0.401368074388,0.12928163547]},{"children_left":[1,2,3,-1,-1,6,-1,-1,9,10,-1,-1,13,-1,-1],"children_right":[8,5,4,-1,-1,7,-1,-1,12,11,-1,-1,14,-1,-1],"feature":[133,11,67,-2,-2,114,-2,-2,31,7,-2,-2,74,-2,-2],"threshold":[-0.09588522464,1.5,4.0,-2.0,-2.0,-6.5,-2.0,-2.0,2.320512771606,0.5,-2.0,-2.0,9.5,-2.0,-2.0],"value":[0.002565996464,-0.049432442365,-0.106133648098,-0.784906030328,1.497270588166,-0.019084826492,-0.529778851635,0.095626244751,0.037246162052,0.019240482186,-0.212784421074,0.234427598601,0.11481327743,1.051787428402,0.043317862098]},{"children_left":[1,2,3,-1,-1,-1,7,8,-1,-1,11,-1,-1],"children_right":[6,5,4,-1,-1,-1,10,9,-1,-1,12,-1,-1],"feature":[115,67,12,-2,-2,-2,62,52,-2,-2,11,-2,-2],"threshold":[-5.5,6.5,1.5,-2.0,-2.0,-2.0,0.5,0.5,-2.0,-2.0,4.5,-2.0,-2.0],"value":[0.00051516176,-0.084763158695,-0.093304363065,-0.761169596332,1.445510489652,1.050277822407,0.019517149381,0.060037791233,0.203786093076,0.992192656125,-0.015615944644,-0.239244524784,0.243406519837]},{"children_left":[1,2,3,-1,-1,6,-1,-1,9,10,-1,-1,13,-1,-1],"children_right":[8,5,4,-1,-1,7,-1,-1,12,11,-1,-1,14,-1,-1],"feature":[115,75,129,-2,-2,117,-2,-2,66,129,-2,-2,124,-2,-2],"threshold":[-2.5,12.5,0.5,-2.0,-2.0,-3.5,-2.0,-2.0,4.5,-0.5,-2.0,-2.0,-0.009595959447,-2.0,-2.0],"value":[-0.000501574862,-0.062243697599,-0.068951259118,-0.599261951784,0.077266844119,0.193528174642,-1.25605479583,1.853778355661,0.022834473506,0.046467033207,-0.299976293868,0.32965482177,-0.033639410053,-0.527388311681,0.036317491154]},{"children_left":[1,2,3,-1,-1,6,-1,-1,9,10,-1,-1,13,-1,-1],"children_right":[8,5,4,-1,-1,7,-1,-1,12,11,-1,-1,14,-1,-1],"feature":[115,64,73,-2,-2,115,-2,-2,1,67,-2,-2,22,-2,-2],"threshold":[5.5,0.5,137.5,-2.0,-2.0,0.5,-2.0,-2.0,0.4296875,1.5,-2.0,-2.0,4.5,-2.0,-2.0],"value":[-0.002934352273,-0.020956724502,-0.075195532435,-0.570515391919,0.1770281621,0.002472682414,-0.085462350306,0.435429748632,0.07988033059,0.091688986737,0.790234978047,-1.585410599484,-0.175896847868,-1.857312482446,0.695034585853]},{"children_left":[1,2,3,-1,-1,6,-1,-1,9,10,-1,-1,13,-1,-1],"children_right":[8,5,4,-1,-1,7,-1,-1,12,11,-1,-1,14,-1,-1],"feature":[133,86,62,-2,-2,117,-2,-2,66,64,-2,-2,17,-2,-2],"threshold":[0.120386149734,2.577380895615,0.5,-2.0,-2.0,2.5,-2.0,-2.0,1.5,0.5,-2.0,-2.0,123.5,-2.0,-2.0],"value":[0.002445496923,-0.028315760179,-0.014506697515,0.227754213866,-0.223121343649,-0.120598395056,-1.020504339731,1.985676065977,0.054758987326,0.105827630025,0.50404139136,1.176307008334,0.025356928587,-0.373865272418,0.255288102005]},{"children_left":[1,2,3,-1,-1,6,-1,-1,9,10,-1,-1,13,-1,-1],"children_right":[8,5,4,-1,-1,7,-1,-1,12,11,-1,-1,14,-1,-1],"feature":[115,7,11,-2,-2,84,-2,-2,1,67,-2,-2,0,-2,-2],"threshold":[5.5,0.5,4.5,-2.0,-2.0,0.881944447756,-2.0,-2.0,0.4296875,1.5,-2.0,-2.0,0.265000000596,-2.0,-2.0],"value":[0.000265075008,-0.016060380832,-0.056907521975,-0.451014110036,0.156214406258,0.019347113065,0.345962697014,-0.094042278421,0.074780785268,0.08532857567,0.76293352523,-0.959758374665,-0.16456208577,-1.842958423021,0.426720874692]},{"children_left":[1,2,3,-1,-1,6,-1,-1,9,10,-1,-1,13,-1,-1],"children_right":[8,5,4,-1,-1,7,-1,-1,12,11,-1,-1,14,-1,-1],"feature":[133,20,9,-2,-2,73,-2,-2,31,7,-2,-2,117,-2,-2],"threshold":[-0.120386149734,3.5,0.5,-2.0,-2.0,130.5,-2.0,-2.0,2.458042025566,0.5,-2.0,-2.0,-2.5,-2.0,-2.0],"value":[0.00273857162,-0.044664981969,-0.081860807807,-0.302107682495,-0.873610952675,-0.000791979755,0.924020491861,-0.107282458274,0.031704471208,0.017537288888,-0.186826972573,0.21812244806,0.112506078958,-1.314584846137,0.952288726083]},{"children_left":[1,2,3,-1,-1,6,-1,-1,9,10,-1,-1,13,-1,-1],"children_right":[8,5,4,-1,-1,7,-1,-1,12,11,-1,-1,14,-1,-1],"feature":[133,51,115,-2,-2,124,-2,-2,66,20,-2,-2,17,-2,-2],"threshold":[0.120386149734,5.5,-8.5,-2.0,-2.0,-0.077380955219,-2.0,-2.0,1.5,13.0,-2.0,-2.0,123.5,-2.0,-2.0],"value":[-0.000518502857,-0.027638630278,-0.024176400602,-0.795784327279,-0.037194499693,-0.335069965594,-0.224820562499,-2.252801154862,0.045115411524,0.094876823578,0.798362878083,-1.533267434544,0.016810282929,-0.389834960822,0.216592591944]},{"children_left":[1,2,3,-1,-1,6,-1,-1,9,10,-1,-1,13,-1,-1],"children_right":[8,5,4,-1,-1,7,-1,-1,12,11,-1,-1,14,-1,-1],"feature":[62,116,78,-2,-2,114,-2,-2,11,118,-2,-2,93,-2,-2],"threshold":[0.5,-0.5,3.5,-2.0,-2.0,-2.5,-2.0,-2.0,4.5,2.5,-2.0,-2.0,0.5,-2.0,-2.0],"value":[0.000881856027,0.038641891089,-0.035664791358,-0.586060055819,0.304281473172,0.083281678036,1.463650035033,0.446816776494,-0.029278002658,-0.058520039541,-0.350132779736,0.914966592594,0.041382123604,1.039041262998,0.042622778614]},{"children_left":[1,2,3,-1,-1,6,-1,-1,9,10,-1,-1,13,-1,-1],"children_right":[8,5,4,-1,-1,7,-1,-1,12,11,-1,-1,14,-1,-1],"feature":[133,51,86,-2,-2,124,-2,-2,75,64,-2,-2,18,-2,-2],"threshold":[0.053227903321,5.5,2.577380895615,-2.0,-2.0,-0.006410256494,-2.0,-2.0,3.5,0.5,-2.0,-2.0,130.5,-2.0,-2.0],"value":[-0.004405899338,-0.033857368195,-0.030077821565,-0.079466884993,-0.934182244172,-0.35597045422,-0.36831999389,-2.218181980275,0.033392513546,0.070861776033,0.235728868123,0.733248820255,-0.006339615788,-0.906355073428,0.06761213446]},{"children_left":[1,2,3,-1,-1,6,-1,-1,9,10,-1,-1,13,-1,-1],"children_right":[8,5,4,-1,-1,7,-1,-1,12,11,-1,-1,14,-1,-1],"feature":[62,116,78,-2,-2,114,-2,-2,71,11,-2,-2,41,-2,-2],"threshold":[0.5,-0.5,3.5,-2.0,-2.0,-2.5,-2.0,-2.0,0.5,4.5,-2.0,-2.0,2.5,-2.0,-2.0],"value":[0.001008805397,0.035574544348,-0.030509930888,-0.552660095309,0.326147002311,0.075621532019,1.273110304969,0.41576580774,-0.026460206221,-0.033075122381,-0.300825301349,0.132832456497,0.280623444413,0.59660098682,1.674492483312]},{"children_left":[1,2,3,-1,-1,6,-1,-1,9,10,-1,-1,13,-1,-1],"children_right":[8,5,4,-1,-1,7,-1,-1,12,11,-1,-1,14,-1,-1],"feature":[115,9,17,-2,-2,106,-2,-2,121,16,-2,-2,38,-2,-2],"threshold":[-0.5,0.5,126.5,-2.0,-2.0,6.5,-2.0,-2.0,0.5,0.5,-2.0,-2.0,0.5,-2.0,-2.0],"value":[0.002320930693,-0.039702932947,-0.001718966451,-0.282477988542,0.955889208581,-0.087525895314,-0.526610179374,2.055576654866,0.025404935973,0.033439724647,0.202584910119,-0.435203277556,-0.121943956681,-1.660482073912,-0.26243900812]},{"children_left":[1,2,3,-1,-1,6,-1,-1,9,10,-1,-1,13,-1,-1],"children_right":[8,5,4,-1,-1,7,-1,-1,12,11,-1,-1,14,-1,-1],"feature":[114,78,95,-2,-2,26,-2,-2,23,51,-2,-2,60,-2,-2],"threshold":[-0.5,3.5,0.5,-2.0,-2.0,0.5,-2.0,-2.0,3.5,5.5,-2.0,-2.0,3.5,-2.0,-2.0],"value":[0.000378494124,-0.033371596497,-0.068491592928,-0.747257851055,-0.109098331709,0.000364135729,0.076779282397,-0.631898209613,0.028256271463,0.060163673055,0.419258790953,-1.136020977272,-0.001048042502,-0.2339559444,0.189888273501]},{"children_left":[1,2,3,-1,-1,6,-1,-1,9,10,-1,-1,13,-1,-1],"children_right":[8,5,4,-1,-1,7,-1,-1,12,11,-1,-1,14,-1,-1],"feature":[62,116,118,-2,-2,114,-2,-2,29,106,-2,-2,11,-2,-2],"threshold":[0.5,-0.5,1.5,-2.0,-2.0,-2.5,-2.0,-2.0,0.881944447756,5.5,-2.0,-2.0,4.5,-2.0,-2.0],"value":[0.002613590744,0.035910522576,-0.025591854435,-0.082446231417,-2.068122312712,0.073367883011,1.439880321394,0.392938305245,-0.023799082886,-0.070085483858,-0.426159281973,0.999299793999,0.016892717017,-0.074063202937,0.337764278974]},{"children_left":[1,2,3,-1,-1,6,-1,-1,9,10,-1,-1,13,-1,-1],"children_right":[8,5,4,-1,-1,7,-1,-1,12,11,-1,-1,14,-1,-1],"feature":[62,116,118,-2,-2,114,-2,-2,11,118,-2,-2,93,-2,-2],"threshold":[0.5,-0.5,1.5,-2.0,-2.0,-2.5,-2.0,-2.0,4.5,2.5,-2.0,-2.0,0.5,-2.0,-2.0],"value":[0.000614036679,0.034362967664,-0.030350667673,-0.116290518228,-1.974394575809,0.07405328823,1.268359859776,0.412514478734,-0.026209455808,-0.052082320063,-0.319581498503,0.855901953794,0.036865112775,0.955213661678,0.038193131605]},{"children_left":[1,2,3,-1,-1,-1,7,8,-1,-1,11,-1,-1],"children_right":[6,5,4,-1,-1,-1,10,9,-1,-1,12,-1,-1],"feature":[115,38,27,-2,-2,-2,106,9,-2,-2,124,-2,-2],"threshold":[-9.5,3.5,0.5,-2.0,-2.0,-2.0,5.5,0.5,-2.0,-2.0,0.035984849557,-2.0,-2.0],"value":[-0.001184681207,-0.08245902753,-0.092136106031,-0.954198323953,0.633826807656,1.31444706001,0.008713721996,0.005017347813,0.275842570214,-0.077251274675,0.269551102041,2.069816270204,0.448442294672]},{"children_left":[1,2,3,-1,-1,6,-1,-1,9,10,-1,-1,13,-1,-1],"children_right":[8,5,4,-1,-1,7,-1,-1,12,11,-1,-1,14,-1,-1],"feature":[7,116,114,-2,-2,23,-2,-2,66,118,-2,-2,38,-2,-2],"threshold":[0.5,0.5,2.5,-2.0,-2.0,3.5,-2.0,-2.0,4.5,-2.5,-2.0,-2.0,0.5,-2.0,-2.0],"value":[0.000742566774,-0.03289915382,-0.072494609473,-0.392919333172,-1.340134537698,0.034149040232,0.608653699145,-0.308887159278,0.027639507469,0.056772710643,-0.90742380865,0.347063254655,-0.044148079829,-1.017258383894,-0.060415972722]},{"children_left":[1,2,3,-1,-1,6,-1,-1,9,10,-1,-1,13,-1,-1],"children_right":[8,5,4,-1,-1,7,-1,-1,12,11,-1,-1,14,-1,-1],"feature":[7,116,80,-2,-2,65,-2,-2,16,9,-2,-2,96,-2,-2],"threshold":[0.5,0.5,5.240384578705,-2.0,-2.0,0.5,-2.0,-2.0,0.5,0.5,-2.0,-2.0,2.5,-2.0,-2.0],"value":[-0.000515473222,-0.03110543888,-0.066325112859,0.094748776472,-0.607231142349,0.027739949458,0.508812414097,-0.380990001044,0.023991807998,0.029978849773,0.558447082455,0.036136227756,-0.266500625221,-0.533779455562,-1.633013021052]},{"children_left":[1,2,3,-1,-1,6,-1,-1,9,10,-1,-1,-1],"children_right":[8,5,4,-1,-1,7,-1,-1,12,11,-1,-1,-1],"feature":[115,64,9,-2,-2,51,-2,-2,12,23,-2,-2,-2],"threshold":[9.5,0.5,0.5,-2.0,-2.0,5.5,-2.0,-2.0,6.5,5.5,-2.0,-2.0,-2.0],"value":[-0.00194732329,-0.011234757987,-0.055785848386,-0.093833226038,-0.569031250493,0.009991941925,0.071753382015,-1.378135154045,0.075776582932,0.088338654526,1.005093858147,-0.973004059058,-1.035496363814]},{"children_left":[1,2,3,-1,-1,6,-1,-1,9,10,-1,-1,-1],"children_right":[8,5,4,-1,-1,7,-1,-1,12,11,-1,-1,-1],"feature":[115,129,40,-2,-2,10,-2,-2,12,79,-2,-2,-2],"threshold":[5.5,0.5,0.5,-2.0,-2.0,0.5,-2.0,-2.0,6.5,83.5,-2.0,-2.0,-2.0],"value":[0.001609035253,-0.010458280557,-0.021168924597,0.013975197301,-0.368487636609,0.062107538894,-0.256306305823,0.727397694683,0.056370321768,0.064261514131,0.651367082054,-1.927155237532,-1.029147119391]},{"children_left":[1,2,3,-1,-1,6,-1,-1,9,10,-1,-1,13,-1,-1],"children_right":[8,5,4,-1,-1,7,-1,-1,12,11,-1,-1,14,-1,-1],"feature":[133,11,51,-2,-2,124,-2,-2,0,80,-2,-2,71,-2,-2],"threshold":[0.120386149734,4.5,5.5,-2.0,-2.0,-0.11010101065,-2.0,-2.0,0.034999999218,3.414285778999,-2.0,-2.0,0.5,-2.0,-2.0],"value":[0.000376871428,-0.019839034824,-0.036031557639,-0.180809116914,-1.642520972998,0.029965048128,-0.374816055999,0.280048491479,0.034661859627,-0.087540186057,-0.670792836922,-0.015725331062,0.043090179995,0.215983479462,1.49247434739]},{"children_left":[1,2,3,-1,-1,6,-1,-1,9,10,-1,-1,13,-1,-1],"children_right":[8,5,4,-1,-1,7,-1,-1,12,11,-1,-1,14,-1,-1],"feature":[133,11,26,-2,-2,25,-2,-2,106,66,-2,-2,124,-2,-2],"threshold":[-0.120386149734,4.5,0.5,-2.0,-2.0,5.881944417953,-2.0,-2.0,5.5,0.5,-2.0,-2.0,0.007692307699,-2.0,-2.0],"value":[-0.000276762848,-0.033083939238,-0.049409166231,-0.246582737102,-0.829615895683,0.029561477819,0.402124688229,-0.389099907026,0.019909832418,0.016453422126,0.563820047272,0.004836802105,0.2943077262,2.035450562333,0.134187337633]},{"children_left":[1,2,3,-1,-1,6,-1,-1,9,10,-1,-1,13,-1,-1],"children_right":[8,5,4,-1,-1,7,-1,-1,12,11,-1,-1,14,-1,-1],"feature":[7,116,114,-2,-2,118,-2,-2,66,118,-2,-2,124,-2,-2],"threshold":[0.5,0.5,2.5,-2.0,-2.0,-1.5,-2.0,-2.0,4.5,-2.5,-2.0,-2.0,0.134848490357,-2.0,-2.0],"value":[0.000501456598,-0.030449154206,-0.063729341045,-0.350284633517,-1.222128762966,0.025332114137,2.159498284414,0.091999434168,0.02532144379,0.050296326238,-0.827874538511,0.314395161491,-0.035796213226,-0.292250505837,0.468853343874]},{"children_left":[1,2,3,-1,-1,6,-1,-1,9,10,-1,-1,13,-1,-1],"children_right":[8,5,4,-1,-1,7,-1,-1,12,11,-1,-1,14,-1,-1],"feature":[7,116,114,-2,-2,118,-2,-2,16,121,-2,-2,112,-2,-2],"threshold":[0.5,0.5,2.5,-2.0,-2.0,-1.5,-2.0,-2.0,0.5,0.5,-2.0,-2.0,0.5,-2.0,-2.0],"value":[-0.000261210081,-0.028824978951,-0.062198723349,-0.349144986236,-1.09800286639,0.026232527922,2.045878439614,0.093631229382,0.02254084197,0.028178371196,0.188141899589,-0.53514597824,-0.26887841723,-1.630053325008,-0.773557415085]},{"children_left":[1,2,3,-1,-1,-1,7,8,-1,-1,11,-1,-1],"children_right":[6,5,4,-1,-1,-1,10,9,-1,-1,12,-1,-1],"feature":[115,67,78,-2,-2,-2,106,9,-2,-2,124,-2,-2],"threshold":[-9.5,6.5,5.5,-2.0,-2.0,-2.0,5.5,0.5,-2.0,-2.0,0.035984849557,-2.0,-2.0],"value":[-0.000164207741,-0.06858786375,-0.07951285627,-0.944621349414,1.135535742299,1.039165060519,0.008220193292,0.004954776767,0.275555584372,-0.075660747536,0.241346602989,1.887577613293,0.281189133815]},{"children_left":[1,2,3,-1,-1,6,-1,-1,9,10,-1,-1,13,-1,-1],"children_right":[8,5,4,-1,-1,7,-1,-1,12,11,-1,-1,14,-1,-1],"feature":[62,116,78,-2,-2,114,-2,-2,121,132,-2,-2,29,-2,-2],"threshold":[0.5,-0.5,3.5,-2.0,-2.0,-2.5,-2.0,-2.0,-0.5,1.5,-2.0,-2.0,0.881944447756,-2.0,-2.0],"value":[-0.002411077481,0.025426763968,-0.022134665338,-0.473972515055,0.284710155862,0.054689259525,1.200323425111,0.298401741439,-0.024469831341,0.145745910566,0.787683618962,-0.498748849356,-0.035359743785,-0.431205582531,0.015495799412]},{"children_left":[1,2,3,-1,-1,-1,7,8,-1,-1,11,-1,-1],"children_right":[6,5,4,-1,-1,-1,10,9,-1,-1,12,-1,-1],"feature":[115,67,78,-2,-2,-2,9,113,-2,-2,115,-2,-2],"threshold":[-9.5,6.5,5.5,-2.0,-2.0,-2.0,0.5,4.102609157562,-2.0,-2.0,-0.5,-2.0,-2.0],"value":[0.000909951003,-0.065110702749,-0.074296992595,-0.941878473732,1.345852709961,0.794898493918,0.009140342712,0.046313332608,0.108079048535,0.56630793859,-0.008562250528,-0.351982463158,0.041875289586]},{"children_left":[1,2,3,-1,-1,6,-1,-1,9,10,-1,-1,13,-1,-1],"children_right":[8,5,4,-1,-1,7,-1,-1,12,11,-1,-1,14,-1,-1],"feature":[62,74,58,-2,-2,21,-2,-2,71,64,-2,-2,30,-2,-2],"threshold":[0.5,15.5,3.511434078217,-2.0,-2.0,8.5,-2.0,-2.0,0.5,0.5,-2.0,-2.0,4.5,-2.0,-2.0],"value":[-0.001071596683,0.025319878858,0.031160780782,-0.300001551178,0.310097217799,-0.229731644238,0.069806903999,-1.771657085335,-0.021987206069,-0.027398269986,-0.557240443787,-0.029103031313,0.248598862082,0.657469801359,1.602492627469]},{"children_left":[1,2,3,-1,-1,6,-1,-1,9,10,-1,-1,-1],"children_right":[8,5,4,-1,-1,7,-1,-1,12,11,-1,-1,-1],"feature":[115,51,7,-2,-2,124,-2,-2,93,122,-2,-2,-2],"threshold":[9.5,5.5,0.5,-2.0,-2.0,-0.035984849557,-2.0,-2.0,3.5,-0.5,-2.0,-2.0,-2.0],"value":[-0.000739383554,-0.008825758035,-0.005218806591,-0.204005516741,0.086014238408,-0.260694630721,-0.434283929762,-1.94620956624,0.06555378579,0.075167922382,-0.71279387535,0.924598920241,-1.374301003958]},{"children_left":[1,2,3,-1,-1,6,-1,-1,9,10,-1,-1,13,-1,-1],"children_right":[8,5,4,-1,-1,7,-1,-1,12,11,-1,-1,14,-1,-1],"feature":[107,106,95,-2,-2,89,-2,-2,17,22,-2,-2,66,-2,-2],"threshold":[0.5,5.5,0.5,-2.0,-2.0,1.5,-2.0,-2.0,133.5,4.5,-2.0,-2.0,1.5,-2.0,-2.0],"value":[0.002130368531,0.010314738024,0.007211069646,-0.054843458634,0.225222523727,0.22823295083,1.810057244371,0.466324432373,-0.059479769587,-0.076163410215,-0.43883657905,-1.011311218531,0.108110311115,-0.552275215571,0.900184371943]},{"children_left":[1,2,3,-1,-1,6,-1,-1,9,10,-1,-1,13,-1,-1],"children_right":[8,5,4,-1,-1,7,-1,-1,12,11,-1,-1,14,-1,-1],"feature":[133,86,71,-2,-2,19,-2,-2,75,64,-2,-2,18,-2,-2],"threshold":[0.123423296958,2.320512771606,0.5,-2.0,-2.0,9.5,-2.0,-2.0,3.5,0.5,-2.0,-2.0,130.5,-2.0,-2.0],"value":[0.00137586095,-0.015382493154,-0.002363237835,-0.03790853454,0.854977145828,-0.073094178249,-0.949213732581,0.093873802238,0.030266318714,0.05658154612,0.223816511787,0.728563212831,6.334928e-05,-0.947249168125,0.098853430293]},{"children_left":[1,2,3,-1,-1,6,-1,-1,9,10,-1,-1,13,-1,-1],"children_right":[8,5,4,-1,-1,7,-1,-1,12,11,-1,-1,14,-1,-1],"feature":[62,116,9,-2,-2,25,-2,-2,71,58,-2,-2,84,-2,-2],"threshold":[0.5,-0.5,0.5,-2.0,-2.0,4.541958093643,-2.0,-2.0,0.5,4.269673109055,-2.0,-2.0,0.763888895512,-2.0,-2.0],"value":[0.000695989026,0.024802713615,-0.021292953155,0.191449536513,-0.486404280755,0.053828872301,-0.289715703223,0.494297285037,-0.018473078311,-0.023619023089,-0.251892150041,0.130037382674,0.247683813747,0.59109371255,1.439096152922]},{"children_left":[1,2,3,-1,-1,6,-1,-1,9,10,-1,-1,-1],"children_right":[8,5,4,-1,-1,7,-1,-1,12,11,-1,-1,-1],"feature":[52,51,64,-2,-2,124,-2,-2,76,62,-2,-2,-2],"threshold":[0.5,5.5,0.5,-2.0,-2.0,-0.006410256494,-2.0,-2.0,10.5,0.5,-2.0,-2.0,-2.0],"value":[0.000193127487,-0.007600833477,-0.004445532663,-0.219666620452,0.05867533323,-0.220977401861,-0.430810964112,-1.77728751607,0.059148684689,0.064272703217,0.766310664648,0.022584415942,-1.920068235032]},{"children_left":[1,2,3,-1,-1,6,-1,-1,9,10,-1,-1,13,-1,-1],"children_right":[8,5,4,-1,-1,7,-1,-1,12,11,-1,-1,14,-1,-1],"feature":[7,116,114,-2,-2,65,-2,-2,84,51,-2,-2,75,-2,-2],"threshold":[0.5,0.5,2.5,-2.0,-2.0,0.5,-2.0,-2.0,0.881944447756,5.5,-2.0,-2.0,4.5,-2.0,-2.0],"value":[0.001639421487,-0.023794211525,-0.052013610416,-0.287465077653,-1.133588835292,0.024553978743,0.479909003866,-0.36811987386,0.02207292611,0.062397815189,0.401237749956,-1.019872177068,-0.01341563457,0.14303392306,-0.242598516802]},{"children_left":[1,2,3,-1,-1,6,-1,-1,9,10,-1,-1,13,-1,-1],"children_right":[8,5,4,-1,-1,7,-1,-1,12,11,-1,-1,14,-1,-1],"feature":[107,106,40,-2,-2,124,-2,-2,7,128,-2,-2,94,-2,-2],"threshold":[0.5,5.5,0.5,-2.0,-2.0,-0.026388889179,-2.0,-2.0,0.5,2.5,-2.0,-2.0,0.5,-2.0,-2.0],"value":[0.001804323944,0.009157581298,0.005991140253,0.116837369364,-0.138628762044,0.220910508843,1.754241779347,0.487252839165,-0.054215032855,-0.09357191538,-0.889783030525,0.844116701017,0.022751313862,-0.05337491096,1.341030076109]},{"children_left":[1,2,3,-1,-1,6,-1,-1,9,10,-1,-1,13,-1,-1],"children_right":[8,5,4,-1,-1,7,-1,-1,12,11,-1,-1,14,-1,-1],"feature":[62,116,10,-2,-2,25,-2,-2,29,106,-2,-2,93,-2,-2],"threshold":[0.5,-0.5,0.5,-2.0,-2.0,4.541958093643,-2.0,-2.0,0.881944447756,5.5,-2.0,-2.0,0.5,-2.0,-2.0],"value":[-0.001642148732,0.023952393292,-0.020000544888,-0.417531097797,0.332327593892,0.050760040375,-0.284425823531,0.481610595986,-0.022035157681,-0.059852681317,-0.392116566127,0.932345756587,0.010835249085,0.58304484086,-0.026573686042]},{"children_left":[1,2,3,-1,-1,6,-1,-1,9,10,-1,-1,13,-1,-1],"children_right":[8,5,4,-1,-1,7,-1,-1,12,11,-1,-1,14,-1,-1],"feature":[62,74,95,-2,-2,21,-2,-2,29,106,-2,-2,20,-2,-2],"threshold":[0.5,15.5,0.5,-2.0,-2.0,8.5,-2.0,-2.0,0.881944447756,5.5,-2.0,-2.0,4.5,-2.0,-2.0],"value":[7.0846832e-05,0.023218374314,0.028619986973,0.040822453812,0.474229254572,-0.201450588981,0.089109708931,-1.693382942786,-0.018164798012,-0.054103751905,-0.351239851326,0.815285264714,0.012699381702,-0.132269366182,0.220889407522]},{"children_left":[1,2,3,-1,-1,6,-1,-1,9,10,-1,-1,13,-1,-1],"children_right":[8,5,4,-1,-1,7,-1,-1,12,11,-1,-1,14,-1,-1],"feature":[115,95,35,-2,-2,86,-2,-2,76,72,-2,-2,64,-2,-2],"threshold":[2.5,0.5,1.118055582047,-2.0,-2.0,1.160256385803,-2.0,-2.0,8.5,135.5,-2.0,-2.0,0.5,-2.0,-2.0],"value":[0.000392393673,-0.012712322577,-0.031417469707,-0.066846845724,-0.523840411684,0.021558165721,0.464678327804,0.005629164972,0.035581006296,0.04681758041,0.420094833064,-1.397037508871,-0.056976657559,-0.96782498327,0.386473415365]},{"children_left":[1,2,3,-1,-1,6,-1,-1,9,10,-1,-1,13,-1,-1],"children_right":[8,5,4,-1,-1,7,-1,-1,12,11,-1,-1,14,-1,-1],"feature":[62,74,58,-2,-2,21,-2,-2,71,64,-2,-2,100,-2,-2],"threshold":[0.5,15.5,3.481121778488,-2.0,-2.0,8.5,-2.0,-2.0,0.5,0.5,-2.0,-2.0,1.5,-2.0,-2.0],"value":[-0.0008479323,0.023373755096,0.028518328538,-0.312523378903,0.294969580349,-0.202818584852,0.079282803113,-1.620679270713,-0.019940374001,-0.024889472839,-0.500283039362,-0.031614859809,0.218851817587,0.428007877642,1.336378233086]},{"children_left":[1,2,3,-1,-1,6,-1,-1,9,10,-1,-1,13,-1,-1],"children_right":[8,5,4,-1,-1,7,-1,-1,12,11,-1,-1,14,-1,-1],"feature":[66,7,69,-2,-2,16,-2,-2,37,124,-2,-2,97,-2,-2],"threshold":[4.5,0.5,0.5,-2.0,-2.0,0.5,-2.0,-2.0,0.5,0.029437229969,-2.0,-2.0,7.5,-2.0,-2.0],"value":[-0.000339294588,0.011623010595,-0.019212311824,-0.044404305323,-1.003830460692,0.038156761721,0.232214581008,-1.208444438269,-0.033569299559,0.002954452627,-0.140714980728,0.358637628821,-0.109817761439,-0.084284004312,-0.777446064006]},{"children_left":[1,2,3,-1,-1,6,-1,-1,9,10,-1,-1,-1],"children_right":[8,5,4,-1,-1,7,-1,-1,12,11,-1,-1,-1],"feature":[115,121,93,-2,-2,95,-2,-2,12,23,-2,-2,-2],"threshold":[9.5,-0.5,0.5,-2.0,-2.0,0.5,-2.0,-2.0,6.5,5.5,-2.0,-2.0,-2.0],"value":[-0.001048099611,-0.008019436498,0.094404942107,1.345879799433,0.215203485655,-0.013298785893,-0.167607662296,0.108209731265,0.056439274826,0.066882399639,0.977437902067,-1.32620344666,-1.106044418125]},{"children_left":[1,2,3,-1,-1,6,-1,-1,9,10,-1,-1,13,-1,-1],"children_right":[8,5,4,-1,-1,7,-1,-1,12,11,-1,-1,14,-1,-1],"feature":[113,129,40,-2,-2,118,-2,-2,57,18,-2,-2,8,-2,-2],"threshold":[4.269673109055,0.5,0.5,-2.0,-2.0,-2.5,-2.0,-2.0,0.5,128.5,-2.0,-2.0,2.5,-2.0,-2.0],"value":[-0.000690470534,0.013204193733,0.00357739645,0.131930113842,-0.26281539653,0.089242909222,-0.888206087137,0.728925058565,-0.032601220847,-0.121511786934,0.614696332003,-0.825424680242,-0.014973536966,-0.382088153596,0.133451279803]},{"children_left":[1,2,3,-1,-1,6,-1,-1,9,10,-1,-1,-1],"children_right":[8,5,4,-1,-1,7,-1,-1,12,11,-1,-1,-1],"feature":[115,51,64,-2,-2,29,-2,-2,12,23,-2,-2,-2],"threshold":[9.5,5.5,0.5,-2.0,-2.0,0.449494957924,-2.0,-2.0,6.5,5.5,-2.0,-2.0,-2.0],"value":[0.000381906782,-0.006143661491,-0.003316566254,-0.218534575435,0.060916478717,-0.20270870864,0.656882715796,-1.428800986673,0.053959979104,0.065013432781,0.977709011703,-1.029467428017,-0.898922303549]},{"children_left":[1,2,3,-1,-1,6,-1,-1,9,10,-1,-1,13,-1,-1],"children_right":[8,5,4,-1,-1,7,-1,-1,12,11,-1,-1,14,-1,-1],"feature":[115,1,12,-2,-2,133,-2,-2,9,68,-2,-2,115,-2,-2],"threshold":[-5.5,0.4296875,1.5,-2.0,-2.0,0.066295992583,-2.0,-2.0,0.5,0.5,-2.0,-2.0,-0.5,-2.0,-2.0],"value":[-0.001380459298,-0.040965040037,-0.050526100236,-0.593831333188,1.090838714594,0.153842658979,0.391024449683,3.602992368401,0.007576542574,0.053920260133,0.397845778363,-0.478800281831,-0.012236945478,-0.350306060981,0.00739500399]},{"children_left":[1,2,3,-1,-1,6,-1,-1,9,10,-1,-1,13,-1,-1],"children_right":[8,5,4,-1,-1,7,-1,-1,12,11,-1,-1,14,-1,-1],"feature":[133,86,9,-2,-2,113,-2,-2,72,93,-2,-2,111,-2,-2],"threshold":[0.123423296958,2.211111187935,0.5,-2.0,-2.0,3.772694945335,-2.0,-2.0,137.5,3.5,-2.0,-2.0,1.5,-2.0,-2.0],"value":[0.000389379471,-0.015419223022,-0.002857627421,0.248575191786,-0.135618308696,-0.06392132942,-1.252342365333,-0.402863498816,0.027819617297,0.023522356541,0.214386208584,-0.391894763942,0.233491566896,-0.103611858985,1.285732175422]},{"children_left":[1,2,3,-1,-1,6,-1,-1,9,10,-1,-1,13,-1,-1],"children_right":[8,5,4,-1,-1,7,-1,-1,12,11,-1,-1,14,-1,-1],"feature":[66,114,24,-2,-2,20,-2,-2,65,22,-2,-2,36,-2,-2],"threshold":[4.5,-5.5,81.5,-2.0,-2.0,4.5,-2.0,-2.0,0.5,3.5,-2.0,-2.0,0.5,-2.0,-2.0],"value":[-0.000835873414,0.010233956933,-0.036212457982,-0.366971816692,2.680718138718,0.024680526986,0.027336774342,0.412367821656,-0.032250762305,0.065414515871,-0.128377027848,0.939219748354,-0.062044041954,-0.098352336886,-0.643929817431]},{"children_left":[1,2,3,-1,-1,6,-1,-1,9,10,-1,-1,13,-1,-1],"children_right":[8,5,4,-1,-1,7,-1,-1,12,11,-1,-1,14,-1,-1],"feature":[62,74,58,-2,-2,21,-2,-2,121,84,-2,-2,29,-2,-2],"threshold":[0.5,15.5,3.449861526489,-2.0,-2.0,8.5,-2.0,-2.0,-0.5,0.541958063841,-2.0,-2.0,0.881944447756,-2.0,-2.0],"value":[-0.001284661089,0.019357687596,0.0239294411,-0.337832197717,0.249586715877,-0.182460515907,0.124121401718,-1.567830955945,-0.017717657996,0.110263304788,-1.246836694524,0.657322083903,-0.026208049019,-0.337322188169,0.017273606491]},{"children_left":[1,2,3,-1,-1,6,-1,-1,9,10,-1,-1,13,-1,-1],"children_right":[8,5,4,-1,-1,7,-1,-1,12,11,-1,-1,14,-1,-1],"feature":[62,1,42,-2,-2,22,-2,-2,71,121,-2,-2,30,-2,-2],"threshold":[0.5,0.4296875,8.5,-2.0,-2.0,4.5,-2.0,-2.0,0.5,-0.5,-2.0,-2.0,4.5,-2.0,-2.0],"value":[-1.4334533e-05,0.020567763401,0.027564390079,0.084911215585,0.630422374047,-0.123080168842,-1.033391717204,0.809800382455,-0.016603497613,-0.0214512202,0.453824014403,-0.152257430333,0.217331605859,0.561929805578,1.508770641045]},{"children_left":[1,2,3,-1,-1,6,-1,-1,9,10,-1,-1,13,-1,-1],"children_right":[8,5,4,-1,-1,7,-1,-1,12,11,-1,-1,14,-1,-1],"feature":[51,51,95,-2,-2,104,-2,-2,124,76,-2,-2,85,-2,-2],"threshold":[5.5,0.5,0.5,-2.0,-2.0,0.5,-2.0,-2.0,0.026388889179,7.5,-2.0,-2.0,3.5,-2.0,-2.0],"value":[-0.000430444031,0.002090839188,-0.005539949538,-0.116003817204,0.137727831109,0.048972142834,0.583123602308,-0.212676965037,-0.133597245642,-0.015560834986,0.300642689639,-2.001018538311,-0.300391026769,-0.472761459674,-1.887475808531]},{"children_left":[1,2,3,-1,-1,6,-1,-1,9,10,-1,-1,13,-1,-1],"children_right":[8,5,4,-1,-1,7,-1,-1,12,11,-1,-1,14,-1,-1],"feature":[3,16,99,-2,-2,20,-2,-2,44,71,-2,-2,2,-2,-2],"threshold":[0.5,0.5,0.5,-2.0,-2.0,11.5,-2.0,-2.0,0.5,0.5,-2.0,-2.0,1.057692348957,-2.0,-2.0],"value":[0.000232385579,-0.019097548062,-0.014243543305,-0.034501389176,-0.736679282577,-0.187652724075,-1.249623555412,-0.063964769145,0.017646317847,0.009364716242,0.029368038922,0.735734607783,0.117114492087,0.617616363831,0.782150062499]},{"children_left":[1,2,3,-1,-1,6,-1,-1,9,10,-1,-1,13,-1,-1],"children_right":[8,5,4,-1,-1,7,-1,-1,12,11,-1,-1,14,-1,-1],"feature":[66,7,116,-2,-2,16,-2,-2,126,80,-2,-2,77,-2,-2],"threshold":[4.5,0.5,0.5,-2.0,-2.0,0.5,-2.0,-2.0,0.5,3.894444465637,-2.0,-2.0,3.5,-2.0,-2.0],"value":[-0.000180863353,0.01044499159,-0.018404994722,-0.381119566422,0.227639156332,0.035654884363,0.223985319746,-1.193595151038,-0.030147752565,-0.002890804281,-0.667753115871,0.063988693223,-0.115573708654,-0.062226676004,-0.820302103314]},{"children_left":[1,2,3,-1,-1,6,-1,-1,9,10,-1,-1,13,-1,-1],"children_right":[8,5,4,-1,-1,7,-1,-1,12,11,-1,-1,14,-1,-1],"feature":[40,115,21,-2,-2,122,-2,-2,129,115,-2,-2,10,-2,-2],"threshold":[0.5,-7.5,7.5,-2.0,-2.0,0.5,-2.0,-2.0,0.5,8.5,-2.0,-2.0,0.5,-2.0,-2.0],"value":[0.001269829039,0.015034880928,-0.042500275452,-0.777496820358,0.658186755578,0.025578945364,0.166624996404,-0.371065341337,-0.024377760864,-0.042711983578,-0.317323960103,0.625206298288,0.06256939384,-0.296737010848,0.879995893031]},{"children_left":[1,2,3,-1,-1,6,-1,-1,9,10,-1,-1,13,-1,-1],"children_right":[8,5,4,-1,-1,7,-1,-1,12,11,-1,-1,14,-1,-1],"feature":[71,16,106,-2,-2,25,-2,-2,75,63,-2,-2,56,-2,-2],"threshold":[0.5,0.5,5.5,-2.0,-2.0,3.58333337307,-2.0,-2.0,11.5,2.5,-2.0,-2.0,0.5,-2.0,-2.0],"value":[-0.003843798081,-0.00736848235,-0.004248320421,-0.040173915249,0.798165041412,-0.130870622802,0.288514505222,-1.224223802771,0.092389088793,0.213949671155,1.328101562029,-0.139498638987,-0.026929651449,0.896916785153,-0.378928937744]},{"children_left":[1,2,3,-1,-1,6,-1,-1,9,10,-1,-1,13,-1,-1],"children_right":[8,5,4,-1,-1,7,-1,-1,12,11,-1,-1,14,-1,-1],"feature":[7,19,113,-2,-2,76,-2,-2,84,51,-2,-2,38,-2,-2],"threshold":[0.5,15.5,3.449861526489,-2.0,-2.0,8.5,-2.0,-2.0,0.881944447756,5.5,-2.0,-2.0,0.5,-2.0,-2.0],"value":[-0.000591515029,-0.019980947789,-0.025217390153,0.413040128531,-0.263945155306,0.204430622317,-0.284880490706,1.798125829955,0.014848986971,0.050572881776,0.347152280538,-0.931858159212,-0.01643530995,-0.555245022376,-0.00788161296]},{"children_left":[1,2,3,-1,-1,6,-1,-1,9,10,-1,-1,13,-1,-1],"children_right":[8,5,4,-1,-1,7,-1,-1,12,11,-1,-1,14,-1,-1],"feature":[16,115,67,-2,-2,9,-2,-2,20,8,-2,-2,118,-2,-2],"threshold":[0.5,-9.5,6.5,-2.0,-2.0,0.5,-2.0,-2.0,11.5,2.5,-2.0,-2.0,-0.5,-2.0,-2.0],"value":[0.000187963759,0.003942923146,-0.046051056026,-0.812337186222,0.939826324664,0.010446118429,0.295072906102,-0.027188669606,-0.094522493534,-0.219441871482,-1.318982286552,0.00446005362,0.031886844736,0.56133845921,-0.385769772328]},{"children_left":[1,2,3,-1,-1,6,-1,-1,9,10,-1,-1,13,-1,-1],"children_right":[8,5,4,-1,-1,7,-1,-1,12,11,-1,-1,14,-1,-1],"feature":[113,129,130,-2,-2,118,-2,-2,57,18,-2,-2,25,-2,-2],"threshold":[4.297262430191,0.5,-0.5,-2.0,-2.0,-2.5,-2.0,-2.0,0.5,128.5,-2.0,-2.0,6.035714387894,-2.0,-2.0],"value":[-0.000816214524,0.010902633669,0.002532218124,-0.607936661007,0.060709823008,0.073278553184,-0.609902498044,0.601168073438,-0.033792567707,-0.124292346452,0.599127589021,-0.837760977932,-0.015644198215,0.170123730649,-0.372750849436]},{"children_left":[1,2,3,-1,-1,6,-1,-1,9,10,-1,-1,13,-1,-1],"children_right":[8,5,4,-1,-1,7,-1,-1,12,11,-1,-1,14,-1,-1],"feature":[133,80,114,-2,-2,18,-2,-2,64,31,-2,-2,66,-2,-2],"threshold":[-0.09588522464,9.17424249649,7.5,-2.0,-2.0,128.5,-2.0,-2.0,0.5,2.218253970146,-2.0,-2.0,1.5,-2.0,-2.0],"value":[0.002325451757,-0.020212379009,-0.011619246435,-0.046441751718,-1.448568525024,-0.123914039512,-0.656196234536,-1.240494836486,0.017415590198,-0.01034965604,-0.267338973245,0.604178251327,0.038001055599,0.759614823573,0.080483354992]},{"children_left":[1,2,3,-1,-1,6,-1,-1,9,10,-1,-1,13,-1,-1],"children_right":[8,5,4,-1,-1,7,-1,-1,12,11,-1,-1,14,-1,-1],"feature":[3,99,16,-2,-2,127,-2,-2,43,71,-2,-2,73,-2,-2],"threshold":[0.5,0.5,0.5,-2.0,-2.0,10.5,-2.0,-2.0,0.5,0.5,-2.0,-2.0,126.5,-2.0,-2.0],"value":[-0.001277089935,-0.020698008496,-0.013276593087,-0.050365170507,-0.803385331383,-0.116344026825,-0.819128771243,0.420283865943,0.016108827798,0.008513012565,0.026996998245,0.687298433134,0.109572334512,0.427800493594,0.76767754328]},{"children_left":[1,2,3,-1,-1,6,-1,-1,9,10,-1,-1,13,-1,-1],"children_right":[8,5,4,-1,-1,7,-1,-1,12,11,-1,-1,14,-1,-1],"feature":[11,75,133,-2,-2,97,-2,-2,92,25,-2,-2,42,-2,-2],"threshold":[4.5,4.5,-0.186731666327,-2.0,-2.0,6.5,-2.0,-2.0,0.5,3.527777791023,-2.0,-2.0,7.5,-2.0,-2.0],"value":[0.000355655156,-0.00970455898,0.003835033704,-0.225238413884,0.132398051245,-0.051868589376,0.301124218851,-0.452989629249,0.029014977438,-0.005180771788,0.59288198537,-0.087436727667,0.101581400459,-0.017145880783,0.775252537373]},{"children_left":[1,2,3,-1,-1,6,-1,-1,9,10,-1,-1,13,-1,-1],"children_right":[8,5,4,-1,-1,7,-1,-1,12,11,-1,-1,14,-1,-1],"feature":[11,62,14,-2,-2,76,-2,-2,10,77,-2,-2,91,-2,-2],"threshold":[4.5,0.5,0.5,-2.0,-2.0,7.5,-2.0,-2.0,0.5,3.5,-2.0,-2.0,0.5,-2.0,-2.0],"value":[-0.001939537953,-0.011932985662,0.014138277794,0.024125584894,0.853719058583,-0.034752675682,-0.371792543581,0.039530018844,0.026582771206,-0.058414474703,0.115380961073,-0.874097126919,0.052947887572,0.079555706852,0.5624147312]},{"children_left":[1,2,3,-1,-1,6,-1,-1,9,10,-1,-1,13,-1,-1],"children_right":[8,5,4,-1,-1,7,-1,-1,12,11,-1,-1,14,-1,-1],"feature":[106,115,51,-2,-2,12,-2,-2,120,17,-2,-2,93,-2,-2],"threshold":[5.5,9.5,5.5,-2.0,-2.0,6.5,-2.0,-2.0,-7.5,126.5,-2.0,-2.0,0.5,-2.0,-2.0],"value":[0.000886874188,-0.001522080147,-0.007228789737,-0.025567074405,-0.944353262107,0.044841540736,0.856842267231,-0.772447948906,0.119553145476,0.015962979901,-0.394563534827,1.077596943428,0.271510397829,0.618489090571,1.713304964983]},{"children_left":[1,2,3,-1,-1,6,-1,-1,9,10,-1,-1,13,-1,-1],"children_right":[8,5,4,-1,-1,7,-1,-1,12,11,-1,-1,14,-1,-1],"feature":[133,80,114,-2,-2,18,-2,-2,106,31,-2,-2,124,-2,-2],"threshold":[-0.120386149734,8.707142829895,7.5,-2.0,-2.0,138.5,-2.0,-2.0,4.5,2.577380895615,-2.0,-2.0,0.005050505046,-2.0,-2.0],"value":[-8.0368202e-05,-0.022909661619,-0.012751683418,-0.056104709434,-1.470715676321,-0.097788227909,-0.624496673986,-1.146423025224,0.013904352218,0.010433256839,0.005092047653,0.784793983844,0.161665537418,1.376874873381,0.111186327654]},{"children_left":[1,2,3,-1,-1,6,-1,-1,9,10,-1,-1,13,-1,-1],"children_right":[8,5,4,-1,-1,7,-1,-1,12,11,-1,-1,14,-1,-1],"feature":[86,9,68,-2,-2,71,-2,-2,116,80,-2,-2,32,-2,-2],"threshold":[2.218253970146,0.5,0.5,-2.0,-2.0,0.5,-2.0,-2.0,0.5,4.809091091156,-2.0,-2.0,2.5,-2.0,-2.0],"value":[0.00215136084,0.009157723413,0.039456612198,0.339786837191,-0.462594091135,-0.005007040332,-0.050389362873,0.602925230774,-0.032416998048,-0.068355157449,1.213663541446,-0.746246104081,0.05128016746,-0.629941552184,0.76600690955]},{"children_left":[1,2,3,-1,-1,6,-1,-1,9,10,-1,-1,13,-1,-1],"children_right":[8,5,4,-1,-1,7,-1,-1,12,11,-1,-1,14,-1,-1],"feature":[40,107,106,-2,-2,118,-2,-2,20,129,-2,-2,57,-2,-2],"threshold":[0.5,0.5,5.5,-2.0,-2.0,2.5,-2.0,-2.0,8.5,0.5,-2.0,-2.0,1.5,-2.0,-2.0],"value":[-0.000306397896,0.012007407314,0.019869940648,0.095658710289,1.09452691191,-0.053390486163,-0.500091227347,1.05600486856,-0.023436511966,-0.018151345844,-0.201887629306,0.297292841481,-0.227258166377,-1.700694119702,-0.335985047277]},{"children_left":[1,2,3,-1,-1,6,-1,-1,9,10,-1,-1,13,-1,-1],"children_right":[8,5,4,-1,-1,7,-1,-1,12,11,-1,-1,14,-1,-1],"feature":[11,62,16,-2,-2,76,-2,-2,92,25,-2,-2,42,-2,-2],"threshold":[4.5,0.5,0.5,-2.0,-2.0,8.5,-2.0,-2.0,0.5,4.154761791229,-2.0,-2.0,7.5,-2.0,-2.0],"value":[0.001841012301,-0.008014141978,0.014472436961,0.140408970563,-1.510315483691,-0.027397911625,-0.267949619908,0.191592491258,0.029517108991,0.000397530446,0.520161192691,-0.087820804557,0.092629222792,0.022288250665,0.714958501288]},{"children_left":[1,2,3,-1,-1,6,-1,-1,9,10,-1,-1,13,-1,-1],"children_right":[8,5,4,-1,-1,7,-1,-1,12,11,-1,-1,14,-1,-1],"feature":[3,16,99,-2,-2,112,-2,-2,44,71,-2,-2,114,-2,-2],"threshold":[0.5,0.5,0.5,-2.0,-2.0,0.5,-2.0,-2.0,0.5,0.5,-2.0,-2.0,1.5,-2.0,-2.0],"value":[0.001817805043,-0.015508388267,-0.011470541313,-0.03027773791,-0.594161399635,-0.151077183932,-1.294150527772,-0.272443791923,0.017493644087,0.01026200465,0.035257725081,0.754817432584,0.10528307263,0.794801404071,0.482355078176]},{"children_left":[1,2,3,-1,-1,6,-1,-1,9,10,-1,-1,13,-1,-1],"children_right":[8,5,4,-1,-1,7,-1,-1,12,11,-1,-1,14,-1,-1],"feature":[66,20,133,-2,-2,112,-2,-2,126,58,-2,-2,97,-2,-2],"threshold":[4.5,4.5,0.214533403516,-2.0,-2.0,2.5,-2.0,-2.0,0.5,4.297262430191,-2.0,-2.0,6.5,-2.0,-2.0],"value":[-0.003077744125,0.006698399466,-0.006598906624,-0.144372164636,0.261597343455,0.046629812972,0.332024643522,-0.837356249541,-0.030562195324,-0.002772167583,-0.102512359015,0.522174802933,-0.11290869562,0.141339442745,-0.665573356995]},{"children_left":[1,2,3,-1,-1,6,-1,-1,9,10,-1,-1,13,-1,-1],"children_right":[8,5,4,-1,-1,7,-1,-1,12,11,-1,-1,14,-1,-1],"feature":[7,116,114,-2,-2,118,-2,-2,90,15,-2,-2,78,-2,-2],"threshold":[0.5,0.5,3.5,-2.0,-2.0,-1.5,-2.0,-2.0,1.118055582047,0.5,-2.0,-2.0,4.5,-2.0,-2.0],"value":[0.000907200241,-0.018096905055,-0.043671022402,-0.258421567214,-1.351767529159,0.024475150339,1.813959492919,0.101033529589,0.016059193241,0.000743114321,0.045392189939,-0.861010965945,0.075507497529,0.3410532814,0.939279262592]},{"children_left":[1,2,3,-1,-1,6,-1,-1,9,10,-1,-1,13,-1,-1],"children_right":[8,5,4,-1,-1,7,-1,-1,12,11,-1,-1,14,-1,-1],"feature":[95,58,40,-2,-2,112,-2,-2,129,65,-2,-2,70,-2,-2],"threshold":[0.5,4.269673109055,0.5,-2.0,-2.0,0.5,-2.0,-2.0,-0.5,0.5,-2.0,-2.0,0.5,-2.0,-2.0],"value":[0.002786232147,-0.008940761828,-0.02154994062,-0.007170748281,-0.49550315908,0.02602562373,0.731478945418,0.015864179606,0.024654860881,-0.053555350505,0.3499210214,-0.842486008505,0.040690686419,0.21158013489,1.192506548467]},{"children_left":[1,2,3,-1,-1,6,-1,-1,9,10,-1,-1,13,-1,-1],"children_right":[8,5,4,-1,-1,7,-1,-1,12,11,-1,-1,14,-1,-1],"feature":[127,114,12,-2,-2,115,-2,-2,3,99,-2,-2,43,-2,-2],"threshold":[-12.5,-1.5,0.5,-2.0,-2.0,5.5,-2.0,-2.0,0.5,0.5,-2.0,-2.0,0.5,-2.0,-2.0],"value":[0.00061652323,-0.106066507512,-0.051324822152,-0.2701438613,-1.066204699057,-0.220886018181,-1.35089204666,0.394886304436,0.002737481797,-0.012836691857,-0.036344758872,-0.66500634475,0.017200617727,0.06179933198,0.644672220136]},{"children_left":[1,2,3,-1,-1,6,-1,-1,9,10,-1,-1,13,-1,-1],"children_right":[8,5,4,-1,-1,7,-1,-1,12,11,-1,-1,14,-1,-1],"feature":[95,52,29,-2,-2,118,-2,-2,129,65,-2,-2,70,-2,-2],"threshold":[0.5,0.5,0.881944447756,-2.0,-2.0,-2.5,-2.0,-2.0,-0.5,0.5,-2.0,-2.0,0.5,-2.0,-2.0],"value":[0.001297464097,-0.010235919302,-0.017205294255,-0.246189188868,0.021960964862,0.047836505223,-1.121563448457,0.477868386171,0.022555467892,-0.04987319196,0.36199803206,-0.809043030907,0.037392319378,0.194077260055,1.102047868694]},{"children_left":[1,2,3,-1,-1,6,-1,-1,9,10,-1,-1,13,-1,-1],"children_right":[8,5,4,-1,-1,7,-1,-1,12,11,-1,-1,14,-1,-1],"feature":[115,116,86,-2,-2,114,-2,-2,64,72,-2,-2,51,-2,-2],"threshold":[0.5,1.5,2.218253970146,-2.0,-2.0,-4.5,-2.0,-2.0,0.5,126.5,-2.0,-2.0,6.5,-2.0,-2.0],"value":[-0.002560431551,-0.014618820559,-0.005471338137,0.035668413598,-0.61047129605,-0.088138507633,1.553084215332,-0.480803041038,0.019513182852,-0.01044789703,0.161696410373,-0.842841526855,0.058279763706,0.411808861353,-1.426367665789]},{"children_left":[1,2,3,-1,-1,6,-1,-1,9,10,-1,-1,13,-1,-1],"children_right":[8,5,4,-1,-1,7,-1,-1,12,11,-1,-1,14,-1,-1],"feature":[114,17,9,-2,-2,0,-2,-2,127,115,-2,-2,85,-2,-2],"threshold":[-0.5,133.5,0.5,-2.0,-2.0,0.560000002384,-2.0,-2.0,-12.5,5.5,-2.0,-2.0,6.5,-2.0,-2.0],"value":[0.000420037139,-0.017167541234,-0.025101352105,-0.003224546022,-0.302745656105,0.055805252792,0.157755061003,2.67214905812,0.015023828508,-0.238322859451,-1.405505863334,0.244457805324,0.017432502618,0.07109076215,0.625388347852]},{"children_left":[1,2,3,-1,-1,6,-1,-1,9,10,-1,-1,13,-1,-1],"children_right":[8,5,4,-1,-1,7,-1,-1,12,11,-1,-1,14,-1,-1],"feature":[95,121,106,-2,-2,101,-2,-2,75,129,-2,-2,112,-2,-2],"threshold":[0.5,0.5,5.5,-2.0,-2.0,1.5,-2.0,-2.0,8.5,-0.5,-2.0,-2.0,1.5,-2.0,-2.0],"value":[0.000640211637,-0.010014290963,-0.005008365128,-0.045388478368,0.925398423604,-0.098088780146,1.121592635385,-0.58306660052,0.020302451934,0.015295686156,-0.284253322749,0.181682310353,0.220293336022,1.719405299175,0.19297190368]},{"children_left":[1,2,3,-1,-1,6,-1,-1,9,10,-1,-1,13,-1,-1],"children_right":[8,5,4,-1,-1,7,-1,-1,12,11,-1,-1,14,-1,-1],"feature":[40,115,58,-2,-2,84,-2,-2,15,85,-2,-2,31,-2,-2],"threshold":[0.5,-7.5,4.324110746384,-2.0,-2.0,0.881944447756,-2.0,-2.0,0.5,6.5,-2.0,-2.0,1.267857134342,-2.0,-2.0],"value":[-0.000622941304,0.010763020095,-0.037208504344,-0.577015430394,2.220991874026,0.019262265524,0.259432854413,-0.022614509745,-0.021843223645,-0.015980154084,-0.135462328665,0.753594340082,-0.204346429927,-1.526552922623,-0.211233213305]},{"children_left":[1,2,3,-1,-1,6,-1,-1,9,10,-1,-1,13,-1,-1],"children_right":[8,5,4,-1,-1,7,-1,-1,12,11,-1,-1,14,-1,-1],"feature":[63,19,122,-2,-2,114,-2,-2,5,66,-2,-2,75,-2,-2],"threshold":[2.5,15.5,-0.5,-2.0,-2.0,7.5,-2.0,-2.0,6.5,2.5,-2.0,-2.0,2.5,-2.0,-2.0],"value":[-0.002077871563,0.01001961425,0.00617844662,0.709226458853,0.01112887116,0.229095703787,1.485092658847,0.747274731177,-0.021391062099,-0.010710834568,0.24168487764,-0.154409581851,-0.13646686284,0.013608088164,-1.314374470808]},{"children_left":[1,2,3,-1,-1,6,-1,-1,9,10,-1,-1,13,-1,-1],"children_right":[8,5,4,-1,-1,7,-1,-1,12,11,-1,-1,14,-1,-1],"feature":[16,71,64,-2,-2,80,-2,-2,20,68,-2,-2,111,-2,-2],"threshold":[0.5,0.5,0.5,-2.0,-2.0,3.401785731316,-2.0,-2.0,11.5,0.5,-2.0,-2.0,0.5,-2.0,-2.0],"value":[0.000400383949,0.003449889035,0.000751726269,-0.163424976001,0.070251552865,0.114058691242,-0.141011891743,1.003170675633,-0.077328812982,-0.195536657264,-0.781537044714,-1.436376124075,0.039303655162,-0.83785792046,0.416916070518]},{"children_left":[1,2,3,-1,-1,6,-1,-1,9,10,-1,-1,13,-1,-1],"children_right":[8,5,4,-1,-1,7,-1,-1,12,11,-1,-1,14,-1,-1],"feature":[17,19,52,-2,-2,97,-2,-2,81,125,-2,-2,42,-2,-2],"threshold":[137.5,15.5,0.5,-2.0,-2.0,9.5,-2.0,-2.0,0.5,-2.5,-2.0,-2.0,10.5,-2.0,-2.0],"value":[0.000599004325,0.004612923444,0.002093313073,-0.023562222496,0.380136068459,0.185042287968,1.336272418467,-1.291089835881,-0.070718162753,-0.110398002527,0.615306711552,-0.630460132395,0.149175113937,-0.734770645112,1.094045235886]},{"children_left":[1,2,3,-1,-1,6,-1,-1,9,10,-1,-1,13,-1,-1],"children_right":[8,5,4,-1,-1,7,-1,-1,12,11,-1,-1,14,-1,-1],"feature":[17,19,7,-2,-2,100,-2,-2,81,97,-2,-2,91,-2,-2],"threshold":[137.5,15.5,0.5,-2.0,-2.0,4.5,-2.0,-2.0,0.5,10.5,-2.0,-2.0,2.5,-2.0,-2.0],"value":[0.000169603502,0.003795988699,0.001695792938,-0.118246468986,0.093320724725,0.158164496093,1.245917987535,-1.05943837594,-0.063093380962,-0.097531255936,-0.159830272241,-0.772260232282,0.146130739321,0.961372409291,-1.028985485192]},{"children_left":[1,2,3,-1,-1,6,-1,-1,9,10,-1,-1,13,-1,-1],"children_right":[8,5,4,-1,-1,7,-1,-1,12,11,-1,-1,14,-1,-1],"feature":[40,94,115,-2,-2,5,-2,-2,15,129,-2,-2,47,-2,-2],"threshold":[0.5,0.5,-2.5,-2.0,-2.0,5.5,-2.0,-2.0,0.5,0.5,-2.0,-2.0,2.5,-2.0,-2.0],"value":[-0.000314125748,0.010897343536,0.017653418901,-0.15662296706,0.172279334514,-0.043069692164,-0.023245480205,-0.827596064337,-0.021425906283,-0.01553258263,-0.186030689446,0.297322331778,-0.202088028661,-0.635699405194,-1.648086384999]},{"children_left":[1,2,3,-1,-1,6,-1,-1,9,10,-1,-1,13,-1,-1],"children_right":[8,5,4,-1,-1,7,-1,-1,12,11,-1,-1,14,-1,-1],"feature":[95,52,51,-2,-2,73,-2,-2,129,97,-2,-2,70,-2,-2],"threshold":[0.5,0.5,5.5,-2.0,-2.0,138.5,-2.0,-2.0,-0.5,8.5,-2.0,-2.0,0.5,-2.0,-2.0],"value":[-0.002194398662,-0.014056936309,-0.021108717287,-0.104944828691,-1.069509898057,0.045313969234,0.265752622407,1.109634354525,0.02000297025,-0.052465262595,0.037018015685,-1.138376955245,0.034943813483,0.181959484979,1.149911992162]},{"children_left":[1,2,3,-1,-1,6,-1,-1,9,10,-1,-1,13,-1,-1],"children_right":[8,5,4,-1,-1,7,-1,-1,12,11,-1,-1,14,-1,-1],"feature":[71,16,11,-2,-2,25,-2,-2,75,7,-2,-2,56,-2,-2],"threshold":[0.5,0.5,4.5,-2.0,-2.0,3.58333337307,-2.0,-2.0,11.5,0.5,-2.0,-2.0,0.5,-2.0,-2.0],"value":[-8.0745359e-05,-0.002928422942,-0.00027867255,-0.059531033268,0.128235977602,-0.109578061031,0.162125183321,-1.020689324522,0.075988336563,0.180648696347,1.49352103704,0.726298073907,-0.023268562799,0.934364611083,-0.393561229986]},{"children_left":[1,2,3,-1,-1,6,-1,-1,9,10,-1,-1,13,-1,-1],"children_right":[8,5,4,-1,-1,7,-1,-1,12,11,-1,-1,14,-1,-1],"feature":[97,19,11,-2,-2,64,-2,-2,5,75,-2,-2,1,-2,-2],"threshold":[10.5,15.5,4.5,-2.0,-2.0,0.5,-2.0,-2.0,6.5,5.5,-2.0,-2.0,0.5078125,-2.0,-2.0],"value":[0.001039059558,0.007982897666,0.004747734202,-0.048906169842,0.185651298847,0.139150875414,-0.163168924813,0.933556159209,-0.032609575205,-0.017278036602,0.029213423422,-0.525884524582,-0.230502633601,-1.497708625923,0.515108798974]},{"children_left":[1,2,3,-1,-1,6,-1,-1,9,10,-1,-1,13,-1,-1],"children_right":[8,5,4,-1,-1,7,-1,-1,12,11,-1,-1,14,-1,-1],"feature":[127,3,133,-2,-2,44,-2,-2,115,56,-2,-2,112,-2,-2],"threshold":[12.5,0.5,0.141245119274,-2.0,-2.0,0.5,-2.0,-2.0,1.5,1.5,-2.0,-2.0,1.5,-2.0,-2.0],"value":[-0.001018631716,-0.002922437537,-0.018539977334,-0.220647375865,0.076335729249,0.01077121539,0.031003084225,0.533752030434,0.108860998419,0.211160130778,0.586003787911,1.601184868825,0.054785226718,1.064619705902,-0.168369319131]},{"children_left":[1,2,3,-1,-1,6,-1,-1,9,10,-1,-1,13,-1,-1],"children_right":[8,5,4,-1,-1,7,-1,-1,12,11,-1,-1,14,-1,-1],"feature":[97,19,11,-2,-2,129,-2,-2,5,101,-2,-2,63,-2,-2],"threshold":[8.5,15.5,3.5,-2.0,-2.0,-0.5,-2.0,-2.0,6.5,2.5,-2.0,-2.0,2.5,-2.0,-2.0],"value":[0.000127409504,0.013230149264,0.00989438839,-0.06372715943,0.220673023466,0.180726795563,1.641390656898,0.322522403528,-0.018603545674,-0.010522917666,-0.378403920853,0.036305129946,-0.128714157035,0.659337145389,-1.059123682314]},{"children_left":[1,2,3,-1,-1,6,-1,-1,9,10,-1,-1,13,-1,-1],"children_right":[8,5,4,-1,-1,7,-1,-1,12,11,-1,-1,14,-1,-1],"feature":[127,106,9,-2,-2,120,-2,-2,114,84,-2,-2,67,-2,-2],"threshold":[12.5,5.5,0.5,-2.0,-2.0,-7.5,-2.0,-2.0,1.5,0.919871807098,-2.0,-2.0,0.5,-2.0,-2.0],"value":[-0.001330427644,-0.003366410517,-0.005509592177,0.103366082869,-0.092010649003,0.107241305233,0.193540936101,1.363331829097,0.112951635687,0.219558533218,0.842476015747,1.899724778825,0.060175411631,0.412181177895,0.963474262986]},{"children_left":[1,2,3,-1,-1,6,-1,-1,9,10,-1,-1,13,-1,-1],"children_right":[8,5,4,-1,-1,7,-1,-1,12,11,-1,-1,14,-1,-1],"feature":[16,11,71,-2,-2,92,-2,-2,132,40,-2,-2,42,-2,-2],"threshold":[0.5,4.5,0.5,-2.0,-2.0,0.5,-2.0,-2.0,0.5,0.5,-2.0,-2.0,3.5,-2.0,-2.0],"value":[-0.001147839597,0.001696788415,-0.007241507922,-0.06380355514,0.882272664821,0.028975441837,-0.020175451266,0.454489083863,-0.074565792359,-0.026431980596,0.10833081104,-1.216622191892,-0.227654442037,-0.199639780762,-1.653604659525]},{"children_left":[1,2,3,-1,-1,-1,7,8,-1,-1,11,-1,-1],"children_right":[6,5,4,-1,-1,-1,10,9,-1,-1,12,-1,-1],"feature":[115,67,78,-2,-2,-2,9,113,-2,-2,106,-2,-2],"threshold":[-9.5,6.5,5.5,-2.0,-2.0,-2.0,0.5,4.102609157562,-2.0,-2.0,5.5,-2.0,-2.0],"value":[0.001462507097,-0.037635396548,-0.045611047423,-0.839682591322,1.62147081323,0.863982386729,0.006308723272,0.030530695544,0.057394187265,0.443004359012,-0.005374802466,-0.043787696959,0.98020805666]},{"children_left":[1,2,3,-1,-1,6,-1,-1,9,10,-1,-1,13,-1,-1],"children_right":[8,5,4,-1,-1,7,-1,-1,12,11,-1,-1,14,-1,-1],"feature":[66,20,69,-2,-2,42,-2,-2,37,42,-2,-2,97,-2,-2],"threshold":[4.5,4.5,0.5,-2.0,-2.0,6.5,-2.0,-2.0,0.5,10.5,-2.0,-2.0,7.5,-2.0,-2.0],"value":[0.000502697147,0.009484364467,-0.003503585565,0.01182230369,-0.578467232586,0.049030367833,-0.209964800921,0.418589493046,-0.024706225494,0.00203245084,-0.104672446119,0.543009892846,-0.079661080508,-0.01768756448,-0.620847364765]},{"children_left":[1,2,3,-1,-1,6,-1,-1,9,10,-1,-1,13,-1,-1],"children_right":[8,5,4,-1,-1,7,-1,-1,12,11,-1,-1,14,-1,-1],"feature":[95,115,76,-2,-2,74,-2,-2,129,65,-2,-2,60,-2,-2],"threshold":[0.5,5.5,5.5,-2.0,-2.0,12.5,-2.0,-2.0,-0.5,0.5,-2.0,-2.0,4.5,-2.0,-2.0],"value":[2.938489e-06,-0.010262114013,-0.020567201055,-0.280236085085,-0.01718592051,0.031935038971,0.547356103241,-0.773633296923,0.018863596914,-0.046287597205,0.32613434355,-0.770545258287,0.03239710069,0.333620639791,-0.040843075408]},{"children_left":[1,2,3,-1,-1,6,-1,-1,9,10,-1,-1,13,-1,-1],"children_right":[8,5,4,-1,-1,7,-1,-1,12,11,-1,-1,14,-1,-1],"feature":[51,114,106,-2,-2,65,-2,-2,124,37,-2,-2,85,-2,-2],"threshold":[5.5,0.5,5.5,-2.0,-2.0,0.5,-2.0,-2.0,0.069978635758,10.5,-2.0,-2.0,3.5,-2.0,-2.0],"value":[-0.000320594637,0.00164760263,-0.011098635225,-0.084178630332,0.742933031843,0.018273955284,0.361970882072,-0.030308314053,-0.102751500973,-0.018768562551,-0.600521358539,1.190927164065,-0.25844492066,-0.084427082236,-1.772058721708]},{"children_left":[1,2,3,-1,-1,6,-1,-1,9,10,-1,-1,13,-1,-1],"children_right":[8,5,4,-1,-1,7,-1,-1,12,11,-1,-1,14,-1,-1],"feature":[121,72,74,-2,-2,95,-2,-2,7,47,-2,-2,111,-2,-2],"threshold":[0.5,137.5,15.5,-2.0,-2.0,1.5,-2.0,-2.0,0.5,5.5,-2.0,-2.0,1.5,-2.0,-2.0],"value":[-0.000799343175,0.0024642526,-0.001571944355,0.003490886801,-0.880234313455,0.076995641446,0.20934701022,1.01528252165,-0.06970893214,0.069869411239,-0.026686129069,1.825195214972,-0.115407343187,0.494402644405,-0.744858311413]},{"children_left":[1,2,3,-1,-1,6,-1,-1,9,10,-1,-1,13,-1,-1],"children_right":[8,5,4,-1,-1,7,-1,-1,12,11,-1,-1,14,-1,-1],"feature":[127,3,99,-2,-2,108,-2,-2,114,56,-2,-2,40,-2,-2],"threshold":[12.5,0.5,0.5,-2.0,-2.0,0.5,-2.0,-2.0,1.5,1.5,-2.0,-2.0,1.5,-2.0,-2.0],"value":[0.000825938941,-0.001074550473,-0.016473346969,-0.060904583465,-0.666542758028,0.012788488246,0.058898416069,0.820609590095,0.107882667307,0.217751236776,0.746440699635,1.639017809452,0.053266892871,1.031384356753,-0.27991042386]},{"children_left":[1,2,3,-1,-1,6,-1,-1,9,10,-1,-1,13,-1,-1],"children_right":[8,5,4,-1,-1,7,-1,-1,12,11,-1,-1,14,-1,-1],"feature":[51,114,78,-2,-2,65,-2,-2,124,37,-2,-2,73,-2,-2],"threshold":[5.5,-0.5,3.5,-2.0,-2.0,0.5,-2.0,-2.0,0.026388889179,10.5,-2.0,-2.0,134.5,-2.0,-2.0],"value":[0.002696162139,0.004668448448,-0.011216337328,-0.309595625571,0.066089661495,0.017971521567,0.321102111166,-0.009300910164,-0.100309323078,-0.011619477477,-0.562236064347,1.318663295254,-0.244219036484,-0.876656217496,-1.802712734891]},{"children_left":[1,2,3,-1,-1,6,-1,-1,9,10,-1,-1,13,-1,-1],"children_right":[8,5,4,-1,-1,7,-1,-1,12,11,-1,-1,14,-1,-1],"feature":[51,7,1,-2,-2,84,-2,-2,124,76,-2,-2,73,-2,-2],"threshold":[5.5,0.5,0.4296875,-2.0,-2.0,0.881944447756,-2.0,-2.0,0.059523811564,7.5,-2.0,-2.0,124.5,-2.0,-2.0],"value":[0.00066456658,0.002590664182,-0.014580110789,-0.155256038817,0.59979976608,0.016811041572,0.30906013618,-0.062998167779,-0.101518833432,-0.013800889973,0.221151493894,-1.622529670417,-0.257737325826,-0.00360328216,-1.585673072443]},{"children_left":[1,2,3,-1,-1,6,-1,-1,9,10,-1,-1,13,-1,-1],"children_right":[8,5,4,-1,-1,7,-1,-1,12,11,-1,-1,14,-1,-1],"feature":[129,65,22,-2,-2,0,-2,-2,39,95,-2,-2,116,-2,-2],"threshold":[-0.5,0.5,3.5,-2.0,-2.0,0.295000001788,-2.0,-2.0,0.5,0.5,-2.0,-2.0,-1.5,-2.0,-2.0],"value":[-0.000930020828,-0.035977067061,0.015978741058,-1.061058612832,0.504788465896,-0.083819168731,0.02961297012,-1.148730192564,0.004724452403,-0.00142885812,-0.102274885653,0.170855402656,0.063127556456,0.837935427581,0.196283984826]},{"children_left":[1,2,3,-1,-1,6,-1,-1,9,10,-1,-1,13,-1,-1],"children_right":[8,5,4,-1,-1,7,-1,-1,12,11,-1,-1,14,-1,-1],"feature":[84,76,73,-2,-2,120,-2,-2,66,80,-2,-2,27,-2,-2],"threshold":[0.320512831211,7.5,133.5,-2.0,-2.0,-33.0,-2.0,-2.0,4.5,3.345238089561,-2.0,-2.0,0.5,-2.0,-2.0],"value":[-0.001655338612,-0.093987104263,-0.047597842057,-0.069187955455,-1.432618944204,-0.303600070268,-0.567731905979,-1.953287500591,0.000185865503,0.008247639599,1.015006017698,0.034717789216,-0.022476057114,-0.052042776247,-0.585436790756]},{"children_left":[1,2,3,-1,-1,6,-1,-1,9,10,-1,-1,13,-1,-1],"children_right":[8,5,4,-1,-1,7,-1,-1,12,11,-1,-1,14,-1,-1],"feature":[115,116,18,-2,-2,73,-2,-2,106,9,-2,-2,124,-2,-2],"threshold":[-9.5,-0.5,128.5,-2.0,-2.0,139.5,-2.0,-2.0,4.5,0.5,-2.0,-2.0,0.025487013161,-2.0,-2.0],"value":[0.000708830392,-0.037350340525,-0.046799800591,-0.794092955711,-0.991139240044,0.062585556381,-0.4885427117,1.389655455954,0.005420232813,0.002316071466,0.188484718604,-0.055020805386,0.11179730456,0.98788987285,0.116934167773]},{"children_left":[1,2,3,-1,-1,6,-1,-1,9,10,-1,-1,-1],"children_right":[8,5,4,-1,-1,7,-1,-1,12,11,-1,-1,-1],"feature":[107,106,94,-2,-2,56,-2,-2,21,118,-2,-2,-2],"threshold":[0.5,4.5,0.5,-2.0,-2.0,1.5,-2.0,-2.0,10.5,2.5,-2.0,-2.0,-2.0],"value":[-0.000575171457,0.004312277849,0.001518391261,0.044044344751,-0.217314756495,0.110369242212,0.12432100735,1.108562377285,-0.037507740317,-0.041637535484,-0.385949785073,0.936873239181,1.753179858407]},{"children_left":[1,2,3,-1,-1,6,-1,-1,9,10,-1,-1,13,-1,-1],"children_right":[8,5,4,-1,-1,7,-1,-1,12,11,-1,-1,14,-1,-1],"feature":[16,63,19,-2,-2,11,-2,-2,132,40,-2,-2,41,-2,-2],"threshold":[0.5,2.5,15.5,-2.0,-2.0,0.5,-2.0,-2.0,0.5,0.5,-2.0,-2.0,1.5,-2.0,-2.0],"value":[-0.001148147082,0.001936942093,0.01343109238,0.067439041376,1.249110406239,-0.015660986439,-0.9663486258,-0.019274806654,-0.080601710698,-0.02541691974,0.125004252901,-1.279057369901,-0.238499056222,-0.510361470635,-1.627142741311]},{"children_left":[1,2,3,-1,-1,6,-1,-1,9,10,-1,-1,13,-1,-1],"children_right":[8,5,4,-1,-1,7,-1,-1,12,11,-1,-1,14,-1,-1],"feature":[40,107,84,-2,-2,18,-2,-2,20,85,-2,-2,57,-2,-2],"threshold":[0.5,0.5,0.894444435835,-2.0,-2.0,138.5,-2.0,-2.0,8.5,6.5,-2.0,-2.0,1.5,-2.0,-2.0],"value":[-0.000274408851,0.009593728626,0.01578993466,0.237299911509,-0.032090911976,-0.042947100035,-0.253969649288,-1.109005739374,-0.018601258607,-0.014365984851,-0.124967142918,0.666924196831,-0.184499009418,-1.564529252663,-0.245657372347]},{"children_left":[1,2,3,-1,-1,6,-1,-1,9,10,-1,-1,13,-1,-1],"children_right":[8,5,4,-1,-1,7,-1,-1,12,11,-1,-1,14,-1,-1],"feature":[64,115,22,-2,-2,74,-2,-2,97,51,-2,-2,5,-2,-2],"threshold":[0.5,5.5,4.5,-2.0,-2.0,12.5,-2.0,-2.0,10.5,5.5,-2.0,-2.0,6.5,-2.0,-2.0],"value":[-0.000448449896,-0.019382138759,-0.042557020408,-0.188031439811,-0.740097602022,0.024931844954,0.503571974404,-0.837692884733,0.010874108438,0.025105459236,0.164376879793,-1.056541061744,-0.027321833305,-0.069674719645,-1.047808343971]},{"children_left":[1,2,3,-1,-1,6,-1,-1,9,10,-1,-1,13,-1,-1],"children_right":[8,5,4,-1,-1,7,-1,-1,12,11,-1,-1,14,-1,-1],"feature":[42,74,66,-2,-2,24,-2,-2,60,20,-2,-2,1,-2,-2],"threshold":[10.5,15.5,4.5,-2.0,-2.0,68.5,-2.0,-2.0,6.5,5.5,-2.0,-2.0,0.5078125,-2.0,-2.0],"value":[0.001563546185,-0.004677925992,-0.001271444627,0.073353280842,-0.16473842471,-0.138992594622,-0.434750854095,-1.276804962845,0.031481856522,0.015212195575,-0.064834204299,0.583742144496,0.238593808955,1.55195849429,-0.393422308544]},{"children_left":[1,2,3,-1,-1,6,-1,-1,9,10,-1,-1,13,-1,-1],"children_right":[8,5,4,-1,-1,7,-1,-1,12,11,-1,-1,14,-1,-1],"feature":[71,16,127,-2,-2,25,-2,-2,132,97,-2,-2,113,-2,-2],"threshold":[0.5,0.5,-12.5,-2.0,-2.0,3.58333337307,-2.0,-2.0,-0.5,3.5,-2.0,-2.0,4.135134458542,-2.0,-2.0],"value":[-0.002253593487,-0.005174461416,-0.002676359775,-0.827792140833,-0.004495367748,-0.104043695447,0.079565530905,-1.002493316704,0.077105609048,0.219399818619,0.120570906064,1.631199513265,0.029894916339,0.296381314824,-0.893274431231]},{"children_left":[1,2,3,-1,-1,6,-1,-1,9,10,-1,-1,13,-1,-1],"children_right":[8,5,4,-1,-1,7,-1,-1,12,11,-1,-1,14,-1,-1],"feature":[95,95,115,-2,-2,129,-2,-2,0,18,-2,-2,18,-2,-2],"threshold":[3.5,0.5,7.5,-2.0,-2.0,-0.5,-2.0,-2.0,0.414999991655,132.5,-2.0,-2.0,125.5,-2.0,-2.0],"value":[-0.001499198574,-0.000122363727,-0.009231454215,-0.089695212014,0.465510921688,0.017408941671,-0.252479238812,0.188468644788,-0.130596476219,-0.25172127153,-0.666900888948,-1.40899135658,0.055192214681,-1.184947994268,1.15683578388]},{"children_left":[1,2,3,-1,-1,6,-1,-1,9,10,-1,-1,13,-1,-1],"children_right":[8,5,4,-1,-1,7,-1,-1,12,11,-1,-1,14,-1,-1],"feature":[72,74,66,-2,-2,42,-2,-2,26,12,-2,-2,23,-2,-2],"threshold":[137.5,15.5,1.5,-2.0,-2.0,9.5,-2.0,-2.0,0.5,1.5,-2.0,-2.0,6.5,-2.0,-2.0],"value":[-0.001492522786,-0.00478387511,-0.002619430614,0.212481600794,-0.068754161849,-0.166347884983,-1.242104952301,1.004240659232,0.054985855708,0.088205846355,0.31286053043,1.24963596598,-0.135367182189,-1.142466181428,0.659953743584]},{"children_left":[1,2,3,-1,-1,6,-1,-1,9,10,-1,-1,13,-1,-1],"children_right":[8,5,4,-1,-1,7,-1,-1,12,11,-1,-1,14,-1,-1],"feature":[64,115,22,-2,-2,60,-2,-2,97,19,-2,-2,5,-2,-2],"threshold":[0.5,5.5,4.5,-2.0,-2.0,4.5,-2.0,-2.0,10.5,15.5,-2.0,-2.0,6.5,-2.0,-2.0],"value":[0.000811877136,-0.019487763565,-0.040740695512,-0.163139253655,-0.821387756322,0.020425541568,0.775275455694,-0.389772143379,0.012793494425,0.025643987737,0.116089166371,0.860024889128,-0.022022232568,-0.040084716217,-1.032482481436]},{"children_left":[1,2,3,-1,-1,6,-1,-1,9,10,-1,-1,-1],"children_right":[8,5,4,-1,-1,7,-1,-1,12,11,-1,-1,-1],"feature":[52,40,40,-2,-2,0,-2,-2,76,9,-2,-2,-2],"threshold":[0.5,3.5,0.5,-2.0,-2.0,0.42499999702,-2.0,-2.0,10.5,0.5,-2.0,-2.0,-2.0],"value":[-0.000674692996,-0.005552788651,-0.007099181697,0.028230231796,-0.189574961945,0.155195594009,1.419572326146,-0.387286424415,0.035913033786,0.040129958678,0.714648171522,0.080972983947,-1.655457919236]},{"children_left":[1,2,3,-1,-1,6,-1,-1,9,10,-1,-1,13,-1,-1],"children_right":[8,5,4,-1,-1,7,-1,-1,12,11,-1,-1,14,-1,-1],"feature":[113,11,66,-2,-2,124,-2,-2,20,57,-2,-2,21,-2,-2],"threshold":[4.269673109055,4.5,3.5,-2.0,-2.0,0.05618686974,-2.0,-2.0,6.5,0.5,-2.0,-2.0,5.5,-2.0,-2.0],"value":[0.000825666245,0.010387360254,-0.002288161414,0.103311003993,-0.24085970446,0.039513917058,0.064064488845,0.530581270341,-0.021148726902,-0.01292508746,-0.509082824302,0.004554712536,-0.155346174894,-0.274345846662,-1.256989045686]},{"children_left":[1,2,3,-1,-1,6,-1,-1,9,10,-1,-1,13,-1,-1],"children_right":[8,5,4,-1,-1,7,-1,-1,12,11,-1,-1,14,-1,-1],"feature":[64,72,102,-2,-2,115,-2,-2,51,115,-2,-2,19,-2,-2],"threshold":[0.5,126.5,4.5,-2.0,-2.0,0.5,-2.0,-2.0,5.5,0.5,-2.0,-2.0,11.5,-2.0,-2.0],"value":[0.002752532054,-0.015177626203,-0.00137902322,-0.046231651656,1.135361002995,-0.076436606214,-0.16441698803,-0.791276579935,0.013373515643,0.016253006153,0.02249278246,0.346619922985,-0.145667819807,-0.173179016695,-1.408822028833]},{"children_left":[1,2,3,-1,-1,6,-1,-1,9,10,-1,-1,13,-1,-1],"children_right":[8,5,4,-1,-1,7,-1,-1,12,11,-1,-1,14,-1,-1],"feature":[42,74,58,-2,-2,58,-2,-2,60,20,-2,-2,21,-2,-2],"threshold":[10.5,15.5,4.375737190247,-2.0,-2.0,4.324110746384,-2.0,-2.0,6.5,5.5,-2.0,-2.0,9.5,-2.0,-2.0],"value":[0.001330019348,-0.004640046096,-0.001700701037,-0.050366952539,0.27418731019,-0.120866623165,-0.321531335539,-1.535308845991,0.03014734352,0.014770881096,-0.065267415586,0.585283836053,0.224808452128,1.556069439962,0.013368469]},{"children_left":[1,2,3,-1,-1,6,-1,-1,9,10,-1,-1,13,-1,-1],"children_right":[8,5,4,-1,-1,7,-1,-1,12,11,-1,-1,14,-1,-1],"feature":[40,113,95,-2,-2,102,-2,-2,129,8,-2,-2,10,-2,-2],"threshold":[0.5,4.269673109055,0.5,-2.0,-2.0,4.5,-2.0,-2.0,0.5,2.5,-2.0,-2.0,0.5,-2.0,-2.0],"value":[0.000888217999,0.011216480851,0.023001991402,0.045513753831,0.434705102968,-0.020821864168,0.007646624464,-0.559642425031,-0.018114451139,-0.030609781394,-0.443483176117,-0.020632173909,0.043952627343,-0.350504395901,0.769562562372]},{"children_left":[1,2,3,-1,-1,-1,7,-1,9,-1,-1],"children_right":[6,5,4,-1,-1,-1,8,-1,10,-1,-1],"feature":[117,12,122,-2,-2,-2,114,-2,69,-2,-2],"threshold":[3.5,6.0,0.5,-2.0,-2.0,-2.0,-5.5,-2.0,0.5,-2.0,-2.0],"value":[-0.002733479817,-0.00549698266,-0.004655251273,-0.010875701319,-0.322555913657,-1.492567486442,0.050775969834,2.028594910755,0.03973533214,0.211078657367,1.348092146287]},{"children_left":[1,2,3,-1,-1,6,-1,-1,9,10,-1,-1,13,-1,-1],"children_right":[8,5,4,-1,-1,7,-1,-1,12,11,-1,-1,14,-1,-1],"feature":[44,3,99,-2,-2,43,-2,-2,114,3,-2,-2,23,-2,-2],"threshold":[12.5,0.5,0.5,-2.0,-2.0,0.5,-2.0,-2.0,1.5,0.5,-2.0,-2.0,3.5,-2.0,-2.0],"value":[-0.000903718861,-0.002501817427,-0.016053635776,-0.063482505725,-0.626677933865,0.009571475447,0.029532027415,0.471280536791,0.089849658818,0.190672692606,0.856448590357,2.491210828389,0.041020142658,0.164553260931,0.965183627875]},{"children_left":[1,2,3,-1,-1,6,-1,-1,9,10,-1,-1,13,-1,-1],"children_right":[8,5,4,-1,-1,7,-1,-1,12,11,-1,-1,14,-1,-1],"feature":[3,99,16,-2,-2,58,-2,-2,44,71,-2,-2,0,-2,-2],"threshold":[0.5,0.5,0.5,-2.0,-2.0,4.197173833847,-2.0,-2.0,0.5,0.5,-2.0,-2.0,0.195000000298,-2.0,-2.0],"value":[0.000348229861,-0.014351385983,-0.009109273113,-0.033757989398,-0.614123184315,-0.081423395574,-0.416993034613,-0.671951117463,0.013755890329,0.009064304602,0.037382113826,0.580159032488,0.07324878189,0.869669915562,0.402477313465]},{"children_left":[1,2,3,-1,-1,6,-1,-1,9,10,-1,-1,13,-1,-1],"children_right":[8,5,4,-1,-1,7,-1,-1,12,11,-1,-1,14,-1,-1],"feature":[11,66,75,-2,-2,129,-2,-2,89,10,-2,-2,86,-2,-2],"threshold":[4.5,0.5,1.5,-2.0,-2.0,0.5,-2.0,-2.0,3.5,0.5,-2.0,-2.0,1.683333337307,-2.0,-2.0],"value":[0.001128138442,-0.007542030698,0.02407291842,0.166802496159,1.511822224184,-0.017905444171,-0.166173998379,0.188272202344,0.025369147558,0.012025408477,-0.347266133218,0.155288313941,0.122714081594,0.909412143974,0.006825005323]},{"children_left":[1,2,3,-1,-1,-1,7,8,-1,-1,11,-1,-1],"children_right":[6,5,4,-1,-1,-1,10,9,-1,-1,12,-1,-1],"feature":[21,133,114,-2,-2,-2,9,115,-2,-2,106,-2,-2],"threshold":[2.5,0.399547889829,-0.5,-2.0,-2.0,-2.0,0.5,-5.5,-2.0,-2.0,5.5,-2.0,-2.0],"value":[-0.000740223981,-0.069343135338,-0.087761737982,-0.95100374023,-1.339738999378,1.075685484718,0.001843184915,0.021012797062,-0.229871982826,0.252727024171,-0.009092901385,-0.064139200751,0.839680719542]},{"children_left":[1,2,3,-1,-1,6,-1,-1,9,10,-1,-1,13,-1,-1],"children_right":[8,5,4,-1,-1,7,-1,-1,12,11,-1,-1,14,-1,-1],"feature":[99,119,19,-2,-2,15,-2,-2,115,0,-2,-2,7,-2,-2],"threshold":[12.5,1.5,15.5,-2.0,-2.0,0.5,-2.0,-2.0,-1.5,0.17500000447,-2.0,-2.0,0.5,-2.0,-2.0],"value":[0.000415469007,0.002172923342,0.008071316034,0.033493533593,0.594727411299,-0.022771589521,-0.091531213633,-0.984666086711,-0.086963913665,-0.042880088319,-1.421834354096,-0.352780202762,-0.182467346226,-1.471246327531,-0.489825056483]},{"children_left":[1,2,3,-1,-1,6,-1,-1,9,10,-1,-1,13,-1,-1],"children_right":[8,5,4,-1,-1,7,-1,-1,12,11,-1,-1,14,-1,-1],"feature":[40,115,19,-2,-2,90,-2,-2,15,9,-2,-2,31,-2,-2],"threshold":[0.5,-7.5,12.5,-2.0,-2.0,1.069047629833,-2.0,-2.0,0.5,0.5,-2.0,-2.0,1.449494957924,-2.0,-2.0],"value":[0.000538124993,0.010164972259,-0.030236791446,-0.613634297792,1.11215555094,0.017424286968,0.014262328465,0.252519959137,-0.017297437777,-0.012599039737,0.231023456913,-0.179817875543,-0.165455640108,-1.2703360421,0.434047365323]},{"children_left":[1,2,3,-1,-1,6,-1,-1,9,10,-1,-1,13,-1,-1],"children_right":[8,5,4,-1,-1,7,-1,-1,12,11,-1,-1,14,-1,-1],"feature":[127,114,12,-2,-2,35,-2,-2,8,74,-2,-2,66,-2,-2],"threshold":[-12.5,-1.5,0.5,-2.0,-2.0,1.080128252506,-2.0,-2.0,2.5,15.5,-2.0,-2.0,0.5,-2.0,-2.0],"value":[0.001706102399,-0.089560583378,-0.035765568959,-0.026182273336,-0.990799572027,-0.215362888276,-1.662071359882,-0.696364800507,0.003478490402,-0.006864103541,-0.025617819686,-1.14334719686,0.01982212589,0.913445858481,0.05042421473]},{"children_left":[1,2,3,-1,-1,6,-1,-1,9,10,-1,-1,13,-1,-1],"children_right":[8,5,4,-1,-1,7,-1,-1,12,11,-1,-1,14,-1,-1],"feature":[127,115,51,-2,-2,12,-2,-2,101,67,-2,-2,106,-2,-2],"threshold":[9.5,9.5,4.5,-2.0,-2.0,6.5,-2.0,-2.0,2.5,0.5,-2.0,-2.0,2.5,-2.0,-2.0],"value":[-0.003237518636,-0.005353243451,-0.009732706192,-0.041758134578,-0.576988224357,0.031502709585,0.759377044627,-0.689196469319,0.079769135054,0.038817887898,0.186037020403,0.899850065042,0.142229233384,1.040485691055,-0.403487114583]}],"metadata":{"target":"expected eventual score for the perspective player (win=1, draw=0.5, loss=0)","eligible_outcomes":["by HQ capture","by resignation","hq-capture"],"split":"source-stratified chronological 70/15/15 by whole game","hyperparameters":{"n_estimators":160,"max_depth":3,"learning_rate":0.05,"min_samples_leaf":30},"self_play_train_share":0.05,"metrics":{"train":{"log_loss":0.484358,"brier":0.158933,"decisive_accuracy":0.765372,"decisive_roc_auc":0.852193,"draw_samples":0,"latest_position":{"log_loss":0.198302,"brier":0.058103,"decisive_accuracy":0.920056,"decisive_roc_auc":0.97753,"draw_samples":0},"games":807,"samples":41778,"by_source":{"human":{"log_loss":0.359755,"brier":0.116175,"decisive_accuracy":0.827655,"decisive_roc_auc":0.923698,"draw_samples":0,"games":135,"samples":17326},"vercel_self_play":{"log_loss":0.608961,"brier":0.201692,"decisive_accuracy":0.703089,"decisive_roc_auc":0.793024,"draw_samples":0,"games":672,"samples":24452}}},"validation":{"log_loss":0.53354,"brier":0.175915,"decisive_accuracy":0.738474,"decisive_roc_auc":0.824995,"draw_samples":0,"latest_position":{"log_loss":0.209089,"brier":0.058538,"decisive_accuracy":0.935764,"decisive_roc_auc":0.97783,"draw_samples":0},"games":173,"samples":10983,"by_source":{"human":{"log_loss":0.461671,"brier":0.156428,"decisive_accuracy":0.757295,"decisive_roc_auc":0.852253,"draw_samples":0,"games":29,"samples":3528},"vercel_self_play":{"log_loss":0.605409,"brier":0.195401,"decisive_accuracy":0.719653,"decisive_roc_auc":0.812739,"draw_samples":0,"games":144,"samples":7455}}},"test":{"log_loss":0.558671,"brier":0.180655,"decisive_accuracy":0.732784,"decisive_roc_auc":0.814403,"draw_samples":0,"latest_position":{"log_loss":0.197273,"brier":0.053261,"decisive_accuracy":0.944828,"decisive_roc_auc":0.975077,"draw_samples":0},"games":175,"samples":12668,"by_source":{"human":{"log_loss":0.431985,"brier":0.144225,"decisive_accuracy":0.767572,"decisive_roc_auc":0.875577,"draw_samples":0,"games":30,"samples":3312},"vercel_self_play":{"log_loss":0.685358,"brier":0.217085,"decisive_accuracy":0.697996,"decisive_roc_auc":0.784717,"draw_samples":0,"games":145,"samples":9356}}}},"feature_importance":[{"feature":"diff_material_total","importance":0.4536881},{"feature":"diff_pseudo_mobility","importance":0.04703797},{"feature":"diff_material_board","importance":0.04531816},{"feature":"opp_board_airborne_infantry","importance":0.03693324},{"feature":"own_board_airborne_infantry","importance":0.03654775},{"feature":"opp_material_total","importance":0.02010002},{"feature":"diff_pieces_board","importance":0.0179131},{"feature":"own_material_total","importance":0.01553935},{"feature":"own_board_armored_artillery","importance":0.01420978},{"feature":"opp_board_armored_artillery","importance":0.0140988},{"feature":"own_reserve_infantry","importance":0.01342894},{"feature":"diff_paratrooper_ready","importance":0.0119334},{"feature":"opp_advancement_mean","importance":0.01170756},{"feature":"own_material_board","importance":0.01119824},{"feature":"own_infantry_board","importance":0.01099655},{"feature":"own_reserve_armored_infantry","importance":0.01022617},{"feature":"opp_reserve_infantry","importance":0.01015235},{"feature":"opp_infantry_board","importance":0.01006952},{"feature":"opp_reserve_heavy_artillery","importance":0.01005781},{"feature":"opp_reserve_armored_infantry","importance":0.00998418},{"feature":"own_reserve_heavy_artillery","importance":0.00962575},{"feature":"opp_material_board","importance":0.00906526},{"feature":"diff_infantry_board","importance":0.0081163},{"feature":"opp_paratrooper_distance_home","importance":0.00760354},{"feature":"own_pieces_reserve","importance":0.00758871}],"dataset_sha256":"c47f124021aa7c1b3832bbe47f8a7a3434629042d2984f338242b136223775fb","data_start":"2025-04-24 22:20:44.412+00","data_end":"2026-07-15T17:33:59.000Z"}}