{"format":"ghq-gradient-boosted-value-v1","generated_at":"2026-07-16T00:18:24.594186+00:00","feature_names":["turn_progress","board_fill","surviving_unit_fraction","own_to_move","own_board_hq","own_board_infantry","own_board_armored_infantry","own_board_airborne_infantry","own_board_artillery","own_board_armored_artillery","own_board_heavy_artillery","own_reserve_infantry","own_reserve_armored_infantry","own_reserve_airborne_infantry","own_reserve_artillery","own_reserve_armored_artillery","own_reserve_heavy_artillery","own_material_board","own_material_total","own_pieces_board","own_pieces_reserve","own_infantry_board","own_artillery_board","own_home_rank_occupancy","own_relocation_options","own_mean_relocation_options","own_immobile_count","own_home_rank_immobile_count","own_connected_components","own_largest_component_ratio","own_max_rank_occupancy","own_advancement_mean","own_advancement_max","own_unsupported_count","own_unsupported_value","own_support_distance_mean","own_overextended_count","own_overextended_value","own_artillery_adjacent_pairs","own_heavy_artillery_centered","own_artillery_diagonal_count","own_artillery_cardinal_count","own_bombarded_squares","own_bombarded_enemy_count","own_bombarded_enemy_value","own_artillery_protected_count","own_artillery_diagonal_infantry_cover","own_artillery_cardinal_infantry_cover","own_infantry_engagements","own_paratrooper_ready","own_paratrooper_deployed","own_paratrooper_distance_home","own_paratrooper_supported","own_paratrooper_engaged","own_hq_bombarded","own_hq_adjacent_enemy_infantry","own_hq_adjacent_friendly","own_hq_escape_squares","own_pseudo_mobility","opp_board_hq","opp_board_infantry","opp_board_armored_infantry","opp_board_airborne_infantry","opp_board_artillery","opp_board_armored_artillery","opp_board_heavy_artillery","opp_reserve_infantry","opp_reserve_armored_infantry","opp_reserve_airborne_infantry","opp_reserve_artillery","opp_reserve_armored_artillery","opp_reserve_heavy_artillery","opp_material_board","opp_material_total","opp_pieces_board","opp_pieces_reserve","opp_infantry_board","opp_artillery_board","opp_home_rank_occupancy","opp_relocation_options","opp_mean_relocation_options","opp_immobile_count","opp_home_rank_immobile_count","opp_connected_components","opp_largest_component_ratio","opp_max_rank_occupancy","opp_advancement_mean","opp_advancement_max","opp_unsupported_count","opp_unsupported_value","opp_support_distance_mean","opp_overextended_count","opp_overextended_value","opp_artillery_adjacent_pairs","opp_heavy_artillery_centered","opp_artillery_diagonal_count","opp_artillery_cardinal_count","opp_bombarded_squares","opp_bombarded_enemy_count","opp_bombarded_enemy_value","opp_artillery_protected_count","opp_artillery_diagonal_infantry_cover","opp_artillery_cardinal_infantry_cover","opp_infantry_engagements","opp_paratrooper_ready","opp_paratrooper_deployed","opp_paratrooper_distance_home","opp_paratrooper_supported","opp_paratrooper_engaged","opp_hq_bombarded","opp_hq_adjacent_enemy_infantry","opp_hq_adjacent_friendly","opp_hq_escape_squares","opp_pseudo_mobility","diff_material_board","diff_material_total","diff_pieces_board","diff_infantry_board","diff_artillery_board","diff_home_rank_occupancy","diff_relocation_options","diff_immobile_count","diff_home_rank_immobile_count","diff_connected_components","diff_largest_component_ratio","diff_unsupported_value","diff_overextended_value","diff_bombarded_enemy_value","diff_artillery_protected_count","diff_paratrooper_ready","diff_paratrooper_deployed","diff_hq_bombarded","diff_hq_escape_squares","diff_pseudo_mobility"],"base_raw_score":0.03838058647284968,"learning_rate":0.05,"calibration":{"kind":"platt","scale":0.9563434976466899,"intercept":-0.003463428309478139},"trees":[{"children_left":[1,2,-1,-1,5,-1,-1],"children_right":[4,3,-1,-1,6,-1,-1],"feature":[115,115,-2,-2,115,-2,-2],"threshold":[0.5,-5.5,-2.0,-2.0,5.5,-2.0,-2.0],"value":[0.001224594899,-0.156470528419,-1.527026508358,-0.126490157903,0.294924534075,0.5331093683,1.545913171833]},{"children_left":[1,2,-1,-1,5,-1,-1],"children_right":[4,3,-1,-1,6,-1,-1],"feature":[115,115,-2,-2,115,-2,-2],"threshold":[0.5,-5.5,-2.0,-2.0,5.5,-2.0,-2.0],"value":[-0.001438243441,-0.15048168577,-1.447137142654,-0.133706221624,0.27949449253,0.49109723132,1.470748688484]},{"children_left":[1,2,-1,-1,5,-1,-1],"children_right":[4,3,-1,-1,6,-1,-1],"feature":[115,115,-2,-2,115,-2,-2],"threshold":[0.5,-5.5,-2.0,-2.0,5.5,-2.0,-2.0],"value":[-0.000813269486,-0.141942952891,-1.374194672921,-0.125710512286,0.264837525721,0.440648285388,1.416186493713]},{"children_left":[1,2,-1,-1,5,-1,-1],"children_right":[4,3,-1,-1,6,-1,-1],"feature":[115,115,-2,-2,115,-2,-2],"threshold":[0.5,-5.5,-2.0,-2.0,7.5,-2.0,-2.0],"value":[6.9004899e-05,-0.13401192858,-1.313502147237,-0.108095443062,0.252640198796,0.554005482102,1.436656957343]},{"children_left":[1,2,-1,-1,5,-1,-1],"children_right":[4,3,-1,-1,6,-1,-1],"feature":[115,115,-2,-2,115,-2,-2],"threshold":[-0.5,-8.5,-2.0,-2.0,4.5,-2.0,-2.0],"value":[-0.000768256338,-0.231491908403,-1.432967803358,-0.513949555379,0.135082670387,0.106286724687,1.239043685137]},{"children_left":[1,2,-1,-1,5,-1,-1],"children_right":[4,3,-1,-1,6,-1,-1],"feature":[115,10,-2,-2,115,-2,-2],"threshold":[0.5,0.5,-2.0,-2.0,8.5,-2.0,-2.0],"value":[0.000528116499,-0.121829420959,-1.051817865622,-0.009126732245,0.230762901785,0.553892959282,1.387478543379]},{"children_left":[1,2,-1,-1,5,-1,-1],"children_right":[4,3,-1,-1,6,-1,-1],"feature":[115,17,-2,-2,115,-2,-2],"threshold":[-3.5,119.5,-2.0,-2.0,4.5,-2.0,-2.0],"value":[-0.000517121246,-0.255658868615,-1.288684249682,-0.431496584055,0.100073701673,0.03381471927,1.146229923138]},{"children_left":[1,2,-1,-1,5,-1,-1],"children_right":[4,3,-1,-1,6,-1,-1],"feature":[115,17,-2,-2,115,-2,-2],"threshold":[-4.5,119.5,-2.0,-2.0,5.5,-2.0,-2.0],"value":[-5.3644444e-05,-0.255554495809,-1.289953493461,-0.434370103157,0.090615695442,0.047374582188,1.156928844835]},{"children_left":[1,2,-1,-1,5,-1,-1],"children_right":[4,3,-1,-1,6,-1,-1],"feature":[115,115,-2,-2,65,-2,-2],"threshold":[-0.5,-8.5,-2.0,-2.0,0.5,-2.0,-2.0],"value":[0.00261530332,-0.189062278245,-1.245926875572,-0.403261566022,0.115341441333,0.98700505462,0.036800437248]},{"children_left":[1,2,-1,-1,5,-1,-1],"children_right":[4,3,-1,-1,6,-1,-1],"feature":[115,17,-2,-2,115,-2,-2],"threshold":[-4.5,119.5,-2.0,-2.0,5.5,-2.0,-2.0],"value":[0.000323566455,-0.231169320361,-1.201961944546,-0.39178087023,0.081625997917,0.035316530382,1.097092889611]},{"children_left":[1,2,-1,-1,5,-1,-1],"children_right":[4,3,-1,-1,6,-1,-1],"feature":[115,10,-2,-2,65,-2,-2],"threshold":[-0.5,0.5,-2.0,-2.0,0.5,-2.0,-2.0],"value":[-0.000278781958,-0.173473506178,-0.949663973795,-0.027991717644,0.102341871738,0.916932998743,0.013153839133]},{"children_left":[1,2,-1,-1,5,-1,-1],"children_right":[4,3,-1,-1,6,-1,-1],"feature":[115,115,-2,-2,133,-2,-2],"threshold":[0.5,-7.5,-2.0,-2.0,0.413374736905,-2.0,-2.0],"value":[-0.001007965545,-0.095413451315,-1.086133966462,-0.131675336218,0.174457772554,0.43221103229,1.175048681883]},{"children_left":[1,2,-1,-1,5,-1,-1],"children_right":[4,3,-1,-1,6,-1,-1],"feature":[115,10,-2,-2,115,-2,-2],"threshold":[-3.5,0.5,-2.0,-2.0,5.5,-2.0,-2.0],"value":[-9.6630127e-05,-0.193338653713,-0.998054528756,-0.06121194422,0.075608662286,0.044745364049,1.002681187958]},{"children_left":[1,2,-1,-1,5,-1,-1],"children_right":[4,3,-1,-1,6,-1,-1],"feature":[115,129,-2,-2,115,-2,-2],"threshold":[-4.5,0.5,-2.0,-2.0,4.5,-2.0,-2.0],"value":[-0.00046862583,-0.192474459253,-0.972768200093,0.105472731732,0.067204554742,0.007383925303,0.906622787623]},{"children_left":[1,2,-1,-1,5,-1,-1],"children_right":[4,3,-1,-1,6,-1,-1],"feature":[115,10,-2,-2,65,-2,-2],"threshold":[-0.5,0.5,-2.0,-2.0,0.5,-2.0,-2.0],"value":[0.001487685729,-0.139387578678,-0.820704863648,0.029729613598,0.084705909845,0.797749413709,0.010840141936]},{"children_left":[1,2,-1,-1,5,-1,-1],"children_right":[4,3,-1,-1,6,-1,-1],"feature":[115,133,-2,-2,73,-2,-2],"threshold":[-0.5,-0.536972016096,-2.0,-2.0,123.5,-2.0,-2.0],"value":[0.000525963607,-0.135958597366,-1.106595935528,-0.335002552703,0.081368924669,0.837065387296,0.051696667765]},{"children_left":[1,2,-1,-1,5,-1,-1],"children_right":[4,3,-1,-1,6,-1,-1],"feature":[115,115,-2,-2,129,-2,-2],"threshold":[4.5,-7.5,-2.0,-2.0,-0.5,-2.0,-2.0],"value":[-0.000785969612,-0.058108434829,-0.944524463175,-0.04417730083,0.17437935072,-0.357987407718,0.936259805311]},{"children_left":[1,2,-1,-1,5,-1,-1],"children_right":[4,3,-1,-1,6,-1,-1],"feature":[115,129,-2,-2,115,-2,-2],"threshold":[-4.5,0.5,-2.0,-2.0,7.5,-2.0,-2.0],"value":[-0.000361019874,-0.162755509217,-0.881635765793,0.183842162393,0.056769027551,0.04758561857,0.964186730057]},{"children_left":[1,2,-1,-1,5,-1,-1],"children_right":[4,3,-1,-1,6,-1,-1],"feature":[115,10,-2,-2,129,-2,-2],"threshold":[0.5,0.5,-2.0,-2.0,-0.5,-2.0,-2.0],"value":[-0.00070433496,-0.067043814719,-0.680174938889,0.01247857433,0.124048441167,-0.471356227858,0.693163041791]},{"children_left":[1,2,-1,-1,5,-1,-1],"children_right":[4,3,-1,-1,6,-1,-1],"feature":[115,115,-2,-2,129,-2,-2],"threshold":[4.5,-8.5,-2.0,-2.0,-0.5,-2.0,-2.0],"value":[-0.001110368855,-0.051037171729,-0.917685852557,-0.052097567202,0.149838579259,-0.412393293316,0.86109937327]},{"children_left":[1,2,-1,-1,5,-1,-1],"children_right":[4,3,-1,-1,6,-1,-1],"feature":[115,129,-2,-2,133,-2,-2],"threshold":[-4.5,0.5,-2.0,-2.0,0.399270996451,-2.0,-2.0],"value":[0.000224704496,-0.140465457613,-0.813056215924,0.268347892548,0.049925376406,0.050635630994,0.907324178941]},{"children_left":[1,2,-1,-1,5,-1,-1],"children_right":[4,3,-1,-1,6,-1,-1],"feature":[115,10,-2,-2,129,-2,-2],"threshold":[0.5,0.5,-2.0,-2.0,-0.5,-2.0,-2.0],"value":[0.000494040568,-0.057864914641,-0.624877356888,0.025435074466,0.110279192084,-0.417009997736,0.6368887502]},{"children_left":[1,2,-1,-1,5,-1,-1],"children_right":[4,3,-1,-1,6,-1,-1],"feature":[116,18,-2,-2,133,-2,-2],"threshold":[-0.5,111.5,-2.0,-2.0,0.394098058343,-2.0,-2.0],"value":[0.001647896587,-0.086155587343,-0.92997625855,-0.186721562195,0.07283698657,0.134381883132,0.912821453658]},{"children_left":[1,2,-1,-1,5,-1,-1],"children_right":[4,3,-1,-1,6,-1,-1],"feature":[115,133,-2,-2,72,-2,-2],"threshold":[4.5,-0.552429199219,-2.0,-2.0,119.5,-2.0,-2.0],"value":[0.001228177753,-0.041612735281,-0.91784937997,-0.049349240218,0.131662190147,0.904326462474,0.11121105034]},{"children_left":[1,2,-1,-1,5,-1,-1],"children_right":[4,3,-1,-1,6,-1,-1],"feature":[133,115,-2,-2,116,-2,-2],"threshold":[0.165888696909,-7.5,-2.0,-2.0,2.5,-2.0,-2.0],"value":[-0.000711782724,-0.047139576373,-0.818026821049,-0.041988016165,0.111174478126,0.259810860338,0.949733030852]},{"children_left":[1,2,-1,-1,5,-1,-1],"children_right":[4,3,-1,-1,6,-1,-1],"feature":[116,133,-2,-2,115,-2,-2],"threshold":[-0.5,-0.555261313915,-2.0,-2.0,8.5,-2.0,-2.0],"value":[0.000914773857,-0.077118472262,-0.913284899336,-0.176275703509,0.06392653239,0.124352409016,0.881403374066]},{"children_left":[1,2,-1,-1,5,-1,-1],"children_right":[4,3,-1,-1,6,-1,-1],"feature":[133,115,-2,-2,73,-2,-2],"threshold":[0.146964095533,-7.5,-2.0,-2.0,122.5,-2.0,-2.0],"value":[2.3327555e-05,-0.043578936668,-0.766259539417,-0.040734274747,0.09856435191,0.764665424354,0.116646822041]},{"children_left":[1,2,-1,-1,5,-1,-1],"children_right":[4,3,-1,-1,6,-1,-1],"feature":[133,116,-2,-2,133,-2,-2],"threshold":[-0.130824223161,-2.5,-2.0,-2.0,0.601176917553,-2.0,-2.0],"value":[0.000128327036,-0.077043835222,-0.825533277227,-0.151624052296,0.05307174542,0.118720423865,0.952049266879]},{"children_left":[1,2,-1,-1,5,-1,-1],"children_right":[4,3,-1,-1,6,-1,-1],"feature":[133,115,-2,-2,116,-2,-2],"threshold":[0.128499269485,-11.5,-2.0,-2.0,2.5,-2.0,-2.0],"value":[-5.534641e-06,-0.041810987798,-0.933153292562,-0.076265030648,0.088896982811,0.202226906558,0.867996354062]},{"children_left":[1,2,-1,-1,5,-1,-1],"children_right":[4,3,-1,-1,6,-1,-1],"feature":[115,129,-2,-2,115,-2,-2],"threshold":[-4.5,0.5,-2.0,-2.0,7.5,-2.0,-2.0],"value":[-0.000408056,-0.099895911402,-0.668204859087,0.311642083797,0.035018909039,0.029679063489,0.738777896165]},{"children_left":[1,2,-1,-1,5,-1,-1],"children_right":[4,3,-1,-1,6,-1,-1],"feature":[116,18,-2,-2,133,-2,-2],"threshold":[-0.5,107.5,-2.0,-2.0,0.601176917553,-2.0,-2.0],"value":[-0.00208530176,-0.066666874697,-0.912760677854,-0.184589567285,0.049853685015,0.112488592088,0.909635384514]},{"children_left":[1,2,-1,-1,5,-1,-1],"children_right":[4,3,-1,-1,6,-1,-1],"feature":[120,18,-2,-2,115,-2,-2],"threshold":[-9.5,111.5,-2.0,-2.0,7.5,-2.0,-2.0],"value":[-7.823783e-06,-0.07519281509,-0.828827406297,-0.181295258586,0.039849464567,0.054554443383,0.74063568633]},{"children_left":[1,2,-1,-1,5,-1,-1],"children_right":[4,3,-1,-1,6,-1,-1],"feature":[115,129,-2,-2,56,-2,-2],"threshold":[-4.5,0.5,-2.0,-2.0,3.5,-2.0,-2.0],"value":[0.000998624206,-0.08702777791,-0.609803570867,0.302711037215,0.032211497527,0.188062455358,-0.87151749061]},{"children_left":[1,2,-1,-1,5,-1,-1],"children_right":[4,3,-1,-1,6,-1,-1],"feature":[116,18,-2,-2,104,-2,-2],"threshold":[0.5,116.5,-2.0,-2.0,0.5,-2.0,-2.0],"value":[-0.000778596654,-0.038679812339,-0.59263143613,-0.050006845938,0.071714158212,0.530585690438,-0.064100746173]},{"children_left":[1,2,-1,-1,5,-1,-1],"children_right":[4,3,-1,-1,6,-1,-1],"feature":[116,115,-2,-2,115,-2,-2],"threshold":[-0.5,-11.5,-2.0,-2.0,11.5,-2.0,-2.0],"value":[-0.001478484309,-0.055710955317,-0.869123533585,-0.135717199983,0.042294688485,0.091477712031,0.872476797495]},{"children_left":[1,2,-1,-1,5,-1,-1],"children_right":[4,3,-1,-1,6,-1,-1],"feature":[115,111,-2,-2,129,-2,-2],"threshold":[4.5,3.5,-2.0,-2.0,-0.5,-2.0,-2.0],"value":[-2.4612038e-05,-0.027138249528,-0.166105972674,0.86154334839,0.082742547678,-0.406796244417,0.618583531801]},{"children_left":[1,2,-1,-1,5,-1,-1],"children_right":[4,3,-1,-1,6,-1,-1],"feature":[133,132,-2,-2,100,-2,-2],"threshold":[0.141364552081,2.5,-2.0,-2.0,0.5,-2.0,-2.0],"value":[-0.000667362227,-0.031987166017,-0.09964537718,-0.984675477553,0.068355499776,0.777892150717,0.184361627179]},{"children_left":[1,2,-1,-1,5,-1,-1],"children_right":[4,3,-1,-1,6,-1,-1],"feature":[133,115,-2,-2,132,-2,-2],"threshold":[-0.377528369427,-7.5,-2.0,-2.0,-2.5,-2.0,-2.0],"value":[0.000192713888,-0.089779303408,-0.820454379912,-0.175565527086,0.023007175267,0.962714636678,0.053565886193]},{"children_left":[1,2,-1,-1,5,-1,-1],"children_right":[4,3,-1,-1,6,-1,-1],"feature":[115,129,-2,-2,56,-2,-2],"threshold":[-4.5,0.5,-2.0,-2.0,3.5,-2.0,-2.0],"value":[0.001728527996,-0.071317231406,-0.536899777972,0.292333226104,0.02742933812,0.16558059208,-0.816237996479]},{"children_left":[1,2,-1,-1,5,-1,-1],"children_right":[4,3,-1,-1,6,-1,-1],"feature":[116,19,-2,-2,104,-2,-2],"threshold":[-0.5,6.5,-2.0,-2.0,0.5,-2.0,-2.0],"value":[5.4776033e-05,-0.048395192939,-0.790931301565,-0.121677987658,0.039102118759,0.378767144303,-0.057866035155]},{"children_left":[1,2,-1,-1,5,-1,-1],"children_right":[4,3,-1,-1,6,-1,-1],"feature":[133,18,-2,-2,112,-2,-2],"threshold":[-0.269976943731,124.5,-2.0,-2.0,3.5,-2.0,-2.0],"value":[-0.000387164814,-0.068338236158,-0.605188644225,-0.03545409513,0.024590337438,0.056469588945,0.8218940562]},{"children_left":[1,2,-1,-1,5,-1,-1],"children_right":[4,3,-1,-1,6,-1,-1],"feature":[115,111,-2,-2,65,-2,-2],"threshold":[5.5,3.5,-2.0,-2.0,0.5,-2.0,-2.0],"value":[-0.002441315983,-0.02437793067,-0.150359321495,0.78976598571,0.074153132864,0.615627030793,-0.337418592088]},{"children_left":[1,2,-1,-1,5,-1,-1],"children_right":[4,3,-1,-1,6,-1,-1],"feature":[120,44,-2,-2,115,-2,-2],"threshold":[-9.5,0.5,-2.0,-2.0,11.5,-2.0,-2.0],"value":[0.001092203887,-0.05339656359,-0.329719357261,0.474785992036,0.029730063244,0.063913501759,0.798255299477]},{"children_left":[1,2,-1,-1,5,-1,-1],"children_right":[4,3,-1,-1,6,-1,-1],"feature":[117,127,-2,-2,111,-2,-2],"threshold":[-0.5,0.5,-2.0,-2.0,3.5,-2.0,-2.0],"value":[0.000212469582,-0.046661680767,-0.287919148111,0.615027511525,0.034628790976,0.134338142193,1.06160133523]},{"children_left":[1,2,-1,-1,5,-1,-1],"children_right":[4,3,-1,-1,6,-1,-1],"feature":[115,132,-2,-2,56,-2,-2],"threshold":[-8.5,-2.5,-2.0,-2.0,3.5,-2.0,-2.0],"value":[0.002059453991,-0.080926081841,0.359076343704,-0.646952837962,0.018999445258,0.123389609472,-0.761565124227]},{"children_left":[1,2,-1,-1,5,-1,-1],"children_right":[4,3,-1,-1,6,-1,-1],"feature":[133,127,-2,-2,62,-2,-2],"threshold":[0.266845718026,0.5,-2.0,-2.0,0.5,-2.0,-2.0],"value":[0.001713316085,-0.018462661101,-0.123965969109,0.738190744826,0.069679531437,0.601388561463,0.035841019164]},{"children_left":[1,2,-1,-1,5,-1,-1],"children_right":[4,3,-1,-1,6,-1,-1],"feature":[116,64,-2,-2,129,-2,-2],"threshold":[-0.5,0.5,-2.0,-2.0,-0.5,-2.0,-2.0],"value":[0.000777807734,-0.039866669224,-0.433627306104,-0.031164120337,0.0333651519,-0.445747992031,0.216464097078]},{"children_left":[1,2,-1,-1,5,-1,-1],"children_right":[4,3,-1,-1,6,-1,-1],"feature":[115,129,-2,-2,56,-2,-2],"threshold":[-0.5,0.5,-2.0,-2.0,3.5,-2.0,-2.0],"value":[-1.2629849e-05,-0.046948660239,-0.365771487187,0.360363169213,0.027647556653,0.175630937896,-0.812591406384]},{"children_left":[1,2,-1,-1,5,-1,-1],"children_right":[4,3,-1,-1,6,-1,-1],"feature":[117,56,-2,-2,113,-2,-2],"threshold":[1.5,3.5,-2.0,-2.0,3.941534638405,-2.0,-2.0],"value":[-0.001683275577,-0.020504517935,-0.069600587122,-0.919592391396,0.065091227452,0.644799529569,0.048639785945]},{"children_left":[1,2,-1,-1,5,-1,-1],"children_right":[4,3,-1,-1,6,-1,-1],"feature":[115,111,-2,-2,132,-2,-2],"threshold":[8.5,3.5,-2.0,-2.0,2.5,-2.0,-2.0],"value":[-0.000661308455,-0.015968546644,-0.112048703875,0.766644124238,0.075381747462,0.665417342416,-0.333024514251]},{"children_left":[1,2,-1,-1,5,-1,-1],"children_right":[4,3,-1,-1,6,-1,-1],"feature":[117,58,-2,-2,129,-2,-2],"threshold":[-1.5,3.921924352646,-2.0,-2.0,-0.5,-2.0,-2.0],"value":[0.000317523874,-0.060477176426,-0.581501067607,-0.054573567492,0.019759764662,-0.570537963937,0.144005354921]},{"children_left":[1,2,-1,-1,5,-1,-1],"children_right":[4,3,-1,-1,6,-1,-1],"feature":[115,132,-2,-2,43,-2,-2],"threshold":[-11.5,-2.5,-2.0,-2.0,0.5,-2.0,-2.0],"value":[0.000135010864,-0.086665178184,0.272389746006,-0.762651170163,0.012250129093,0.012113203589,0.603596878119]},{"children_left":[1,2,-1,-1,5,-1,-1],"children_right":[4,3,-1,-1,6,-1,-1],"feature":[117,56,-2,-2,111,-2,-2],"threshold":[-0.5,3.5,-2.0,-2.0,3.5,-2.0,-2.0],"value":[-0.001104338162,-0.039340902419,-0.17667932603,-1.056917104749,0.026926308881,0.100375143707,0.971615917799]},{"children_left":[1,2,-1,-1,5,-1,-1],"children_right":[4,3,-1,-1,6,-1,-1],"feature":[115,132,-2,-2,22,-2,-2],"threshold":[7.5,-2.5,-2.0,-2.0,4.5,-2.0,-2.0],"value":[-0.000240795265,-0.015273563271,0.602811867267,-0.108193435637,0.065662184616,0.624580284155,-0.367458406554]},{"children_left":[1,2,-1,-1,5,-1,-1],"children_right":[4,3,-1,-1,6,-1,-1],"feature":[115,132,-2,-2,129,-2,-2],"threshold":[-12.5,-2.5,-2.0,-2.0,-0.5,-2.0,-2.0],"value":[0.000239386927,-0.091375822187,0.019769454693,-0.821760553076,0.011118859058,-0.52591704749,0.09190633341]},{"children_left":[1,2,-1,-1,5,-1,-1],"children_right":[4,3,-1,-1,6,-1,-1],"feature":[117,132,-2,-2,113,-2,-2],"threshold":[1.5,2.5,-2.0,-2.0,3.941534638405,-2.0,-2.0],"value":[-0.000728487194,-0.016833491631,-0.040420561561,-0.800810167022,0.056412686986,0.594786767739,0.039462760684]},{"children_left":[1,2,-1,-1,5,-1,-1],"children_right":[4,3,-1,-1,6,-1,-1],"feature":[115,127,-2,-2,132,-2,-2],"threshold":[11.5,5.5,-2.0,-2.0,2.5,-2.0,-2.0],"value":[-0.000566412248,-0.011491965286,-0.068133012157,1.708154795322,0.079378293485,0.769300774756,-0.137934904955]},{"children_left":[1,2,-1,-1,5,-1,-1],"children_right":[4,3,-1,-1,6,-1,-1],"feature":[115,111,-2,-2,65,-2,-2],"threshold":[4.5,3.5,-2.0,-2.0,0.5,-2.0,-2.0],"value":[-0.001495550277,-0.018187509088,-0.116903617763,0.639272604705,0.049701971057,0.488583783778,-0.249548113338]},{"children_left":[1,2,-1,-1,5,-1,-1],"children_right":[4,3,-1,-1,6,-1,-1],"feature":[115,129,-2,-2,56,-2,-2],"threshold":[-0.5,0.5,-2.0,-2.0,3.5,-2.0,-2.0],"value":[-9.2672873e-05,-0.037958908292,-0.309625276301,0.313113857431,0.02213652474,0.143787042071,-0.682675826912]},{"children_left":[1,2,-1,-1,5,-1,-1],"children_right":[4,3,-1,-1,6,-1,-1],"feature":[43,133,-2,-2,127,-2,-2],"threshold":[0.5,0.601176917553,-2.0,-2.0,5.5,-2.0,-2.0],"value":[0.000229862001,-0.008361942914,-0.090050264925,0.639376654579,0.099499794537,0.436096654071,1.532985209304]},{"children_left":[1,2,-1,-1,5,-1,-1],"children_right":[4,3,-1,-1,6,-1,-1],"feature":[115,132,-2,-2,56,-2,-2],"threshold":[-7.5,-2.5,-2.0,-2.0,3.5,-2.0,-2.0],"value":[0.001533112666,-0.055764267629,0.552512826407,-0.507405929425,0.015063935089,0.103491276011,-0.680192809119]},{"children_left":[1,2,-1,-1,5,-1,-1],"children_right":[4,3,-1,-1,6,-1,-1],"feature":[133,73,-2,-2,111,-2,-2],"threshold":[-0.54883685708,106.5,-2.0,-2.0,3.5,-2.0,-2.0],"value":[0.000770837868,-0.068353758094,-1.034718952728,-0.517611886949,0.011887268134,0.031762288197,0.74719590969]},{"children_left":[1,2,-1,-1,5,-1,-1],"children_right":[4,3,-1,-1,6,-1,-1],"feature":[117,58,-2,-2,111,-2,-2],"threshold":[-1.5,3.941534638405,-2.0,-2.0,3.5,-2.0,-2.0],"value":[3.279486e-06,-0.047958407808,-0.493442707542,-0.01988908262,0.01553809662,0.048961946813,0.791901846703]},{"children_left":[1,2,-1,-1,5,-1,-1],"children_right":[4,3,-1,-1,6,-1,-1],"feature":[115,132,-2,-2,129,-2,-2],"threshold":[-12.5,-1.5,-2.0,-2.0,-0.5,-2.0,-2.0],"value":[0.002189953782,-0.076932283249,-0.113212863026,-0.801318644235,0.011765404583,-0.465232200253,0.093263313664]},{"children_left":[1,2,-1,-1,5,-1,-1],"children_right":[4,3,-1,-1,6,-1,-1],"feature":[43,117,-2,-2,127,-2,-2],"threshold":[0.5,-0.5,-2.0,-2.0,5.5,-2.0,-2.0],"value":[-0.000352104314,-0.008607676979,-0.214453079004,0.074459085093,0.093506161949,0.417365851772,1.500203662062]},{"children_left":[1,2,-1,-1,5,-1,-1],"children_right":[4,3,-1,-1,6,-1,-1],"feature":[43,133,-2,-2,127,-2,-2],"threshold":[0.5,0.616967737675,-2.0,-2.0,5.5,-2.0,-2.0],"value":[0.000302996651,-0.007512133998,-0.083322226253,0.641688617642,0.088211495197,0.396464746324,1.426491466387]},{"children_left":[1,2,-1,-1,5,-1,-1],"children_right":[4,3,-1,-1,6,-1,-1],"feature":[129,115,-2,-2,10,-2,-2],"threshold":[0.5,-1.5,-2.0,-2.0,0.5,-2.0,-2.0],"value":[0.00138061426,-0.006009102366,-0.276903040095,0.062155686616,0.0945287042,0.044003788208,0.693348059908]},{"children_left":[1,2,-1,-1,5,-1,-1],"children_right":[4,3,-1,-1,6,-1,-1],"feature":[132,115,-2,-2,45,-2,-2],"threshold":[2.5,-12.5,-2.0,-2.0,3.5,-2.0,-2.0],"value":[-0.001317017752,0.005104745949,-0.645176335622,0.067212396262,-0.108407844333,-0.33256554386,-1.141393161044]},{"children_left":[1,2,-1,-1,5,-1,-1],"children_right":[4,3,-1,-1,6,-1,-1],"feature":[129,65,-2,-2,115,-2,-2],"threshold":[-0.5,0.5,-2.0,-2.0,1.5,-2.0,-2.0],"value":[-0.000879476264,-0.104767324992,-0.102999506405,-0.758344560505,0.005689034667,-0.057463418934,0.298849847186]},{"children_left":[1,2,-1,-1,5,-1,-1],"children_right":[4,3,-1,-1,6,-1,-1],"feature":[132,64,-2,-2,115,-2,-2],"threshold":[-2.5,0.5,-2.0,-2.0,12.5,-2.0,-2.0],"value":[-9.6569884e-05,0.098695116033,0.296599159876,1.00015563029,-0.006855994211,-0.077087107444,0.712277590106]},{"children_left":[1,2,-1,-1,5,-1,-1],"children_right":[4,3,-1,-1,6,-1,-1],"feature":[129,115,-2,-2,10,-2,-2],"threshold":[0.5,12.5,-2.0,-2.0,0.5,-2.0,-2.0],"value":[-0.001301421935,-0.00845366033,-0.085666730928,0.681195207735,0.08908769494,0.051504192414,0.650164435147]},{"children_left":[1,2,-1,-1,5,-1,-1],"children_right":[4,3,-1,-1,6,-1,-1],"feature":[56,115,-2,-2,20,-2,-2],"threshold":[3.5,-11.5,-2.0,-2.0,3.5,-2.0,-2.0],"value":[0.000376145091,0.00482804045,-0.578858479991,0.070650175248,-0.1336729657,-0.085231408219,-1.214817441595]},{"children_left":[1,2,-1,-1,5,-1,-1],"children_right":[4,3,-1,-1,6,-1,-1],"feature":[44,117,-2,-2,127,-2,-2],"threshold":[0.5,1.5,-2.0,-2.0,5.5,-2.0,-2.0],"value":[0.001410563636,-0.005702242555,-0.091822150721,0.247084252273,0.083025281201,0.381938737553,1.373465816043]},{"children_left":[1,2,-1,-1,5,-1,-1],"children_right":[4,3,-1,-1,6,-1,-1],"feature":[132,115,-2,-2,47,-2,-2],"threshold":[2.5,-4.5,-2.0,-2.0,3.5,-2.0,-2.0],"value":[0.001056359624,0.006784111689,-0.226812517273,0.098359071124,-0.096157839531,-0.328970057142,-1.078740420452]},{"children_left":[1,2,-1,-1,5,-1,-1],"children_right":[4,3,-1,-1,6,-1,-1],"feature":[129,65,-2,-2,115,-2,-2],"threshold":[-0.5,0.5,-2.0,-2.0,1.5,-2.0,-2.0],"value":[0.000796085245,-0.093636643065,0.007363112294,-0.730968827446,0.00681949635,-0.045286837017,0.295544664237]},{"children_left":[1,2,-1,-1,5,-1,-1],"children_right":[4,3,-1,-1,6,-1,-1],"feature":[132,64,-2,-2,44,-2,-2],"threshold":[-2.5,0.5,-2.0,-2.0,0.5,-2.0,-2.0],"value":[-0.000242887919,0.089093416256,0.24245560796,0.963687596738,-0.006308535182,-0.068236118071,0.404896186244]},{"children_left":[1,2,-1,-1,5,-1,-1],"children_right":[4,3,-1,-1,6,-1,-1],"feature":[129,115,-2,-2,10,-2,-2],"threshold":[0.5,-1.5,-2.0,-2.0,0.5,-2.0,-2.0],"value":[0.002116921521,-0.004438328785,-0.253833283142,0.063783263803,0.084303488519,0.058641231613,0.616255987711]},{"children_left":[1,2,-1,-1,5,-1,-1],"children_right":[4,3,-1,-1,6,-1,-1],"feature":[56,117,-2,-2,20,-2,-2],"threshold":[3.5,-2.5,-2.0,-2.0,3.5,-2.0,-2.0],"value":[-0.00110214914,0.002971513782,-0.376143618349,0.065791492643,-0.125680777231,-0.052402977227,-1.161858019406]},{"children_left":[1,2,-1,-1,5,-1,-1],"children_right":[4,3,-1,-1,6,-1,-1],"feature":[129,65,-2,-2,133,-2,-2],"threshold":[-0.5,0.5,-2.0,-2.0,-0.682447016239,-2.0,-2.0],"value":[0.000991905093,-0.095435435941,-0.039394556757,-0.717603318896,0.007113363849,-0.542775077427,0.075222199472]},{"children_left":[1,2,-1,-1,5,-1,-1],"children_right":[4,3,-1,-1,6,-1,-1],"feature":[132,64,-2,-2,65,-2,-2],"threshold":[-2.5,0.5,-2.0,-2.0,0.5,-2.0,-2.0],"value":[0.001325047752,0.084856487683,0.219203932745,0.928548877012,-0.004477885935,0.123775039794,-0.110179789506]},{"children_left":[1,2,-1,-1,5,-1,-1],"children_right":[4,3,-1,-1,6,-1,-1],"feature":[129,133,-2,-2,10,-2,-2],"threshold":[0.5,0.636627733707,-2.0,-2.0,0.5,-2.0,-2.0],"value":[-5.8804278e-05,-0.006407114299,-0.074295229825,0.599157897705,0.080405416721,0.037656249314,0.598249738047]},{"children_left":[1,2,-1,-1,5,-1,-1],"children_right":[4,3,-1,-1,6,-1,-1],"feature":[132,111,-2,-2,45,-2,-2],"threshold":[2.5,3.5,-2.0,-2.0,3.5,-2.0,-2.0],"value":[0.000520076821,0.0056015775,0.008934235922,0.550803555414,-0.086387840403,-0.284584362018,-0.960795639999]},{"children_left":[1,2,-1,-1,5,-1,-1],"children_right":[4,3,-1,-1,6,-1,-1],"feature":[44,115,-2,-2,44,-2,-2],"threshold":[0.5,12.5,-2.0,-2.0,4.5,-2.0,-2.0],"value":[0.000224938662,-0.006206689751,-0.066742482206,0.653539817762,0.073752144249,0.313994032187,0.900596215627]},{"children_left":[1,2,-1,-1,5,-1,-1],"children_right":[4,3,-1,-1,6,-1,-1],"feature":[127,56,-2,-2,44,-2,-2],"threshold":[0.5,3.5,-2.0,-2.0,6.5,-2.0,-2.0],"value":[0.000495141832,-0.004587873691,-0.005157163353,-0.557277703344,0.083840634008,0.40055386703,1.401164970889]},{"children_left":[1,2,-1,-1,5,-1,-1],"children_right":[4,3,-1,-1,6,-1,-1],"feature":[129,115,-2,-2,10,-2,-2],"threshold":[0.5,-1.5,-2.0,-2.0,0.5,-2.0,-2.0],"value":[-0.000292942364,-0.006254198166,-0.236204552029,0.042432992719,0.074688771126,0.005238670563,0.575244788778]},{"children_left":[1,2,-1,-1,5,-1,-1],"children_right":[4,3,-1,-1,6,-1,-1],"feature":[132,10,-2,-2,9,-2,-2],"threshold":[2.5,0.5,-2.0,-2.0,0.5,-2.0,-2.0],"value":[-0.000621055884,0.004559863975,-0.110370313402,0.107738223399,-0.088818828441,-0.24828978082,-0.952143452053]},{"children_left":[1,2,-1,-1,5,-1,-1],"children_right":[4,3,-1,-1,6,-1,-1],"feature":[132,64,-2,-2,65,-2,-2],"threshold":[-2.5,0.5,-2.0,-2.0,0.5,-2.0,-2.0],"value":[-0.001092748432,0.075810854436,0.198199615567,0.845966471874,-0.006381854112,0.104523642096,-0.114629577853]},{"children_left":[1,2,-1,-1,5,-1,-1],"children_right":[4,3,-1,-1,6,-1,-1],"feature":[127,64,-2,-2,117,-2,-2],"threshold":[-0.5,0.5,-2.0,-2.0,-1.5,-2.0,-2.0],"value":[0.000758102876,-0.031483983745,-0.356680498804,-0.009967923592,0.013526493832,-0.16385226672,0.135095008032]},{"children_left":[1,2,-1,-1,5,-1,-1],"children_right":[4,3,-1,-1,6,-1,-1],"feature":[129,65,-2,-2,115,-2,-2],"threshold":[-0.5,0.5,-2.0,-2.0,-12.5,-2.0,-2.0],"value":[-2.2349707e-05,-0.087031034007,-0.032731976706,-0.681897650831,0.005529595657,-0.565556941978,0.063212841644]},{"children_left":[1,2,-1,-1,5,-1,-1],"children_right":[4,3,-1,-1,6,-1,-1],"feature":[129,65,-2,-2,56,-2,-2],"threshold":[-0.5,0.5,-2.0,-2.0,3.5,-2.0,-2.0],"value":[-0.001080604124,-0.08166096041,-0.023479771177,-0.637565433183,0.003933065853,0.039770198384,-0.532315026632]},{"children_left":[1,2,-1,-1,5,-1,-1],"children_right":[4,3,-1,-1,6,-1,-1],"feature":[129,133,-2,-2,10,-2,-2],"threshold":[0.5,0.658853620291,-2.0,-2.0,0.5,-2.0,-2.0],"value":[-0.000699706595,-0.006291622084,-0.06948498692,0.576322416875,0.068680122949,0.019425483784,0.523925081956]},{"children_left":[1,2,-1,-1,5,-1,-1],"children_right":[4,3,-1,-1,6,-1,-1],"feature":[115,111,-2,-2,9,-2,-2],"threshold":[-12.5,4.5,-2.0,-2.0,0.5,-2.0,-2.0],"value":[0.000837055275,-0.053918553505,-0.613885355266,0.780405891571,0.007364690534,0.177950746116,-0.064668738547]},{"children_left":[1,2,-1,-1,5,-1,-1],"children_right":[4,3,-1,-1,6,-1,-1],"feature":[127,115,-2,-2,10,-2,-2],"threshold":[-11.5,-2.5,-2.0,-2.0,0.5,-2.0,-2.0],"value":[0.000156157517,-0.111275396927,-0.616127859758,-0.975969911924,0.003540791391,-0.110111511074,0.098868722518]},{"children_left":[1,2,-1,-1,5,-1,-1],"children_right":[4,3,-1,-1,6,-1,-1],"feature":[44,99,-2,-2,44,-2,-2],"threshold":[0.5,11.5,-2.0,-2.0,5.5,-2.0,-2.0],"value":[-0.000621105691,-0.00638348726,-0.016154751861,-0.82304705065,0.064504291653,0.294695581983,1.247298485334]},{"children_left":[1,2,-1,-1,5,-1,-1],"children_right":[4,3,-1,-1,6,-1,-1],"feature":[111,117,-2,-2,75,-2,-2],"threshold":[3.5,1.5,-2.0,-2.0,3.5,-2.0,-2.0],"value":[-0.000769815513,-0.004404634818,-0.080851392976,0.237484764935,0.10482159018,-0.003911600575,1.060708308721]},{"children_left":[1,2,-1,-1,5,-1,-1],"children_right":[4,3,-1,-1,6,-1,-1],"feature":[132,115,-2,-2,9,-2,-2],"threshold":[2.5,7.5,-2.0,-2.0,0.5,-2.0,-2.0],"value":[-0.000335993511,0.00441721406,-0.021769980782,0.434012875667,-0.07976243734,-0.215186259502,-0.879645920719]},{"children_left":[1,2,-1,-1,5,-1,-1],"children_right":[4,3,-1,-1,6,-1,-1],"feature":[56,10,-2,-2,20,-2,-2],"threshold":[3.5,0.5,-2.0,-2.0,3.5,-2.0,-2.0],"value":[0.001115586646,0.004399026751,-0.107385038755,0.110720738222,-0.100443497376,-0.013529430056,-1.007620020196]},{"children_left":[1,2,-1,-1,5,-1,-1],"children_right":[4,3,-1,-1,6,-1,-1],"feature":[132,64,-2,-2,129,-2,-2],"threshold":[-2.5,0.5,-2.0,-2.0,-0.5,-2.0,-2.0],"value":[-0.000993396036,0.071722295041,0.186514815384,0.820155486237,-0.00592839367,-0.399637740228,-0.006965194841]},{"children_left":[1,2,-1,-1,5,-1,-1],"children_right":[4,3,-1,-1,6,-1,-1],"feature":[111,65,-2,-2,75,-2,-2],"threshold":[3.5,0.5,-2.0,-2.0,3.5,-2.0,-2.0],"value":[0.000862245165,-0.002603514336,0.121060407668,-0.097193709821,0.102290588381,0.056445185407,1.008319827679]},{"children_left":[1,2,-1,-1,5,-1,-1],"children_right":[4,3,-1,-1,6,-1,-1],"feature":[117,56,-2,-2,6,-2,-2],"threshold":[1.5,3.5,-2.0,-2.0,2.5,-2.0,-2.0],"value":[-0.001489849862,-0.011321681553,-0.038601832954,-0.60674931957,0.033315990899,0.40799017394,-0.023911769606]},{"children_left":[1,2,-1,-1,5,-1,-1],"children_right":[4,3,-1,-1,6,-1,-1],"feature":[44,133,-2,-2,127,-2,-2],"threshold":[0.5,0.636627733707,-2.0,-2.0,4.5,-2.0,-2.0],"value":[-0.001608136667,-0.006853158289,-0.067607139767,0.534175712241,0.057702743578,0.240095198569,0.958178123895]},{"children_left":[1,2,-1,-1,5,-1,-1],"children_right":[4,3,-1,-1,6,-1,-1],"feature":[111,115,-2,-2,75,-2,-2],"threshold":[3.5,12.5,-2.0,-2.0,3.5,-2.0,-2.0],"value":[0.000465412133,-0.002945869627,-0.047642355649,0.60401344086,0.098589207547,0.033316073547,1.003600344108]},{"children_left":[1,2,-1,-1,5,-1,-1],"children_right":[4,3,-1,-1,6,-1,-1],"feature":[132,10,-2,-2,9,-2,-2],"threshold":[2.5,0.5,-2.0,-2.0,0.5,-2.0,-2.0],"value":[0.000616698033,0.00481328,-0.105133424327,0.10539003661,-0.069328050689,-0.174621003306,-0.778169767544]},{"children_left":[1,2,-1,-1,5,-1,-1],"children_right":[4,3,-1,-1,6,-1,-1],"feature":[129,65,-2,-2,10,-2,-2],"threshold":[0.5,0.5,-2.0,-2.0,0.5,-2.0,-2.0],"value":[-0.001587470339,-0.00674031738,0.081550956013,-0.113294634316,0.063684691418,0.01248679176,0.498132907939]},{"children_left":[1,2,-1,-1,5,-1,-1],"children_right":[4,3,-1,-1,6,-1,-1],"feature":[117,11,-2,-2,111,-2,-2],"threshold":[-1.5,2.5,-2.0,-2.0,3.5,-2.0,-2.0],"value":[0.001183543677,-0.030349737713,-0.517179606303,-0.012565410646,0.011337688567,0.040456515044,0.554611623326]},{"children_left":[1,2,-1,-1,5,-1,-1],"children_right":[4,3,-1,-1,6,-1,-1],"feature":[129,65,-2,-2,10,-2,-2],"threshold":[0.5,0.5,-2.0,-2.0,0.5,-2.0,-2.0],"value":[0.000158555467,-0.004614326496,0.092543282661,-0.100868876454,0.060158268398,-0.008973004044,0.476863491773]},{"children_left":[1,2,-1,-1,5,-1,-1],"children_right":[4,3,-1,-1,6,-1,-1],"feature":[115,132,-2,-2,9,-2,-2],"threshold":[-12.5,-1.5,-2.0,-2.0,0.5,-2.0,-2.0],"value":[0.000628651481,-0.048439484179,0.012892922546,-0.663357971064,0.006467274952,0.163125336115,-0.060675353303]},{"children_left":[1,2,-1,-1,5,-1,-1],"children_right":[4,3,-1,-1,6,-1,-1],"feature":[129,65,-2,-2,10,-2,-2],"threshold":[-0.5,0.5,-2.0,-2.0,0.5,-2.0,-2.0],"value":[0.000643646487,-0.077792228824,-0.073305867028,-0.589907775466,0.00556552643,-0.086176619893,0.107325545014]},{"children_left":[1,2,-1,-1,5,-1,-1],"children_right":[4,3,-1,-1,6,-1,-1],"feature":[132,73,-2,-2,132,-2,-2],"threshold":[-2.5,137.5,-2.0,-2.0,2.5,-2.0,-2.0],"value":[-0.000321515961,0.067625873733,0.284665460362,0.96111835282,-0.004948041235,-0.003840243171,-0.4753193371]},{"children_left":[1,2,-1,-1,5,-1,-1],"children_right":[4,3,-1,-1,6,-1,-1],"feature":[112,10,-2,-2,102,-2,-2],"threshold":[3.5,0.5,-2.0,-2.0,3.5,-2.0,-2.0],"value":[-0.000810859333,-0.006025790474,-0.165739965469,0.041054403957,0.049982284111,0.241254021691,0.826696735723]},{"children_left":[1,2,-1,-1,5,-1,-1],"children_right":[4,3,-1,-1,6,-1,-1],"feature":[117,56,-2,-2,79,-2,-2],"threshold":[1.5,3.5,-2.0,-2.0,68.5,-2.0,-2.0],"value":[-0.000406402444,-0.009163983782,-0.02781940978,-0.586489672549,0.030787946619,0.284986929123,-0.204962053491]},{"children_left":[1,2,-1,-1,5,-1,-1],"children_right":[4,3,-1,-1,6,-1,-1],"feature":[64,65,-2,-2,132,-2,-2],"threshold":[0.5,0.5,-2.0,-2.0,-2.5,-2.0,-2.0],"value":[-0.000315660887,-0.016106690765,0.040978529879,-0.413936495288,0.017356807703,0.688773790077,0.053252868072]},{"children_left":[1,2,-1,-1,5,-1,-1],"children_right":[4,3,-1,-1,6,-1,-1],"feature":[129,65,-2,-2,10,-2,-2],"threshold":[-0.5,0.5,-2.0,-2.0,0.5,-2.0,-2.0],"value":[-0.000121201294,-0.065742230234,-0.030225921675,-0.518556095837,0.003997021004,-0.091311986394,0.096914759972]},{"children_left":[1,2,-1,-1,5,-1,-1],"children_right":[4,3,-1,-1,6,-1,-1],"feature":[117,58,-2,-2,56,-2,-2],"threshold":[-2.5,3.941534638405,-2.0,-2.0,3.5,-2.0,-2.0],"value":[9.1338792e-05,-0.041297732758,-0.488716685062,0.044097658594,0.007020082061,0.055734934563,-0.447680858623]},{"children_left":[1,2,-1,-1,5,-1,-1],"children_right":[4,3,-1,-1,6,-1,-1],"feature":[127,115,-2,-2,44,-2,-2],"threshold":[0.5,12.5,-2.0,-2.0,5.5,-2.0,-2.0],"value":[0.000865913229,-0.003064631213,-0.04241663512,0.5674556363,0.065299353916,0.303778939866,1.259902295668]},{"children_left":[1,2,-1,-1,5,-1,-1],"children_right":[4,3,-1,-1,6,-1,-1],"feature":[44,129,-2,-2,44,-2,-2],"threshold":[0.5,-0.5,-2.0,-2.0,4.5,-2.0,-2.0],"value":[0.000506143379,-0.004323140515,-0.344913531128,-0.00155143565,0.055911304497,0.240198428164,0.788512610271]},{"children_left":[1,2,-1,-1,5,-1,-1],"children_right":[4,3,-1,-1,6,-1,-1],"feature":[129,65,-2,-2,76,-2,-2],"threshold":[0.5,0.5,-2.0,-2.0,8.5,-2.0,-2.0],"value":[-0.00041786439,-0.004874741098,0.084682343566,-0.097334024754,0.055956562632,0.468879729947,-0.037586612933]},{"children_left":[1,2,-1,-1,5,-1,-1],"children_right":[4,3,-1,-1,6,-1,-1],"feature":[115,64,-2,-2,21,-2,-2],"threshold":[12.5,0.5,-2.0,-2.0,5.5,-2.0,-2.0],"value":[-0.000672809208,-0.005891750941,-0.164696091645,0.059997517832,0.043801091634,-0.016698247868,0.664531087311]},{"children_left":[1,2,-1,-1,5,-1,-1],"children_right":[4,3,-1,-1,6,-1,-1],"feature":[133,2,-2,-2,9,-2,-2],"threshold":[-0.655166387558,0.28846155107,-2.0,-2.0,0.5,-2.0,-2.0],"value":[-0.00042273843,-0.043550615518,-1.230432208642,-0.441849498992,0.005159130542,0.164968538574,-0.070175394932]},{"children_left":[1,2,-1,-1,5,-1,-1],"children_right":[4,3,-1,-1,6,-1,-1],"feature":[127,115,-2,-2,111,-2,-2],"threshold":[-11.5,-2.5,-2.0,-2.0,3.5,-2.0,-2.0],"value":[0.000221237801,-0.092298884552,-0.525945540747,-0.864403793738,0.003082470877,0.000649663739,0.441954442262]}],"metadata":{"target":"expected eventual score for the perspective player (win=1, draw=0.5, loss=0)","eligible_outcomes":["hq-capture","repetition"],"split":"source-stratified chronological 70/15/15 by whole game","hyperparameters":{"n_estimators":120,"max_depth":2,"learning_rate":0.05,"min_samples_leaf":30},"self_play_train_share":0.5,"metrics":{"train":{"log_loss":0.492949,"brier":0.142965,"decisive_accuracy":0.75971,"decisive_roc_auc":0.866275,"draw_samples":5182,"latest_position":{"log_loss":0.246822,"brier":0.044809,"decisive_accuracy":0.961806,"decisive_roc_auc":0.992133,"draw_samples":108},"games":630,"samples":50994,"by_source":{"vercel_self_play_2a":{"log_loss":0.492949,"brier":0.142965,"decisive_accuracy":0.75971,"decisive_roc_auc":0.866275,"draw_samples":5182,"games":630,"samples":50994}}},"validation":{"log_loss":0.518943,"brier":0.127326,"decisive_accuracy":0.783922,"decisive_roc_auc":0.880634,"draw_samples":3054,"latest_position":{"log_loss":0.314589,"brier":0.043444,"decisive_accuracy":0.977273,"decisive_roc_auc":0.997107,"draw_samples":50},"games":135,"samples":16225,"by_source":{"vercel_self_play_2a":{"log_loss":0.518943,"brier":0.127326,"decisive_accuracy":0.783922,"decisive_roc_auc":0.880634,"draw_samples":3054,"games":135,"samples":16225}}},"test":{"log_loss":0.544055,"brier":0.126307,"decisive_accuracy":0.769666,"decisive_roc_auc":0.873088,"draw_samples":4368,"latest_position":{"log_loss":0.343798,"brier":0.042508,"decisive_accuracy":0.985714,"decisive_roc_auc":0.999637,"draw_samples":62},"games":136,"samples":18811,"by_source":{"vercel_self_play_2a":{"log_loss":0.544055,"brier":0.126307,"decisive_accuracy":0.769666,"decisive_roc_auc":0.873088,"draw_samples":4368,"games":136,"samples":18811}}}},"feature_importance":[{"feature":"diff_material_total","importance":0.73078581},{"feature":"diff_pseudo_mobility","importance":0.05100316},{"feature":"own_board_heavy_artillery","importance":0.03190854},{"feature":"diff_pieces_board","importance":0.02849779},{"feature":"diff_paratrooper_ready","importance":0.02724228},{"feature":"opp_board_heavy_artillery","importance":0.02711187},{"feature":"diff_hq_escape_squares","importance":0.01251539},{"feature":"own_hq_adjacent_friendly","importance":0.01220783},{"feature":"diff_infantry_board","importance":0.01164725},{"feature":"opp_hq_adjacent_friendly","importance":0.01116373},{"feature":"own_material_board","importance":0.00694266},{"feature":"opp_material_total","importance":0.00602891},{"feature":"diff_bombarded_enemy_value","importance":0.00581012},{"feature":"own_material_total","importance":0.0056421},{"feature":"diff_relocation_options","importance":0.00504736},{"feature":"own_bombarded_enemy_value","importance":0.00385483},{"feature":"opp_board_armored_artillery","importance":0.00377531},{"feature":"own_bombarded_enemy_count","importance":0.0035196},{"feature":"own_board_armored_artillery","importance":0.00233708},{"feature":"opp_paratrooper_ready","importance":0.00168028},{"feature":"own_pieces_reserve","importance":0.00160599},{"feature":"opp_hq_escape_squares","importance":0.00147653},{"feature":"opp_pieces_reserve","importance":0.00132143},{"feature":"own_artillery_protected_count","importance":0.00094663},{"feature":"opp_material_board","importance":0.00092629}],"dataset_sha256":"1574c8f9def3525320057b31db20453236d71a4f54f868a9ccd6fcbabf1be420","data_start":"2026-07-15T18:52:06.000Z","data_end":"2026-07-15T20:47:30.000Z"}}