{"format":"ghq-gradient-boosted-value-v1","generated_at":"2026-07-17T20:14:36.120727+00:00","feature_names":["turn_progress","board_fill","surviving_unit_fraction","own_to_move","own_board_hq","own_board_infantry","own_board_armored_infantry","own_board_airborne_infantry","own_board_artillery","own_board_armored_artillery","own_board_heavy_artillery","own_reserve_infantry","own_reserve_armored_infantry","own_reserve_airborne_infantry","own_reserve_artillery","own_reserve_armored_artillery","own_reserve_heavy_artillery","own_material_board","own_material_total","own_pieces_board","own_pieces_reserve","own_infantry_board","own_artillery_board","own_home_rank_occupancy","own_relocation_options","own_mean_relocation_options","own_immobile_count","own_home_rank_immobile_count","own_connected_components","own_largest_component_ratio","own_max_rank_occupancy","own_advancement_mean","own_advancement_max","own_unsupported_count","own_unsupported_value","own_support_distance_mean","own_overextended_count","own_overextended_value","own_artillery_adjacent_pairs","own_heavy_artillery_centered","own_artillery_diagonal_count","own_artillery_cardinal_count","own_bombarded_squares","own_bombarded_enemy_count","own_bombarded_enemy_value","own_artillery_protected_count","own_artillery_diagonal_infantry_cover","own_artillery_cardinal_infantry_cover","own_infantry_engagements","own_paratrooper_ready","own_paratrooper_deployed","own_paratrooper_distance_home","own_paratrooper_supported","own_paratrooper_engaged","own_hq_bombarded","own_hq_adjacent_enemy_infantry","own_hq_adjacent_friendly","own_hq_escape_squares","own_pseudo_mobility","opp_board_hq","opp_board_infantry","opp_board_armored_infantry","opp_board_airborne_infantry","opp_board_artillery","opp_board_armored_artillery","opp_board_heavy_artillery","opp_reserve_infantry","opp_reserve_armored_infantry","opp_reserve_airborne_infantry","opp_reserve_artillery","opp_reserve_armored_artillery","opp_reserve_heavy_artillery","opp_material_board","opp_material_total","opp_pieces_board","opp_pieces_reserve","opp_infantry_board","opp_artillery_board","opp_home_rank_occupancy","opp_relocation_options","opp_mean_relocation_options","opp_immobile_count","opp_home_rank_immobile_count","opp_connected_components","opp_largest_component_ratio","opp_max_rank_occupancy","opp_advancement_mean","opp_advancement_max","opp_unsupported_count","opp_unsupported_value","opp_support_distance_mean","opp_overextended_count","opp_overextended_value","opp_artillery_adjacent_pairs","opp_heavy_artillery_centered","opp_artillery_diagonal_count","opp_artillery_cardinal_count","opp_bombarded_squares","opp_bombarded_enemy_count","opp_bombarded_enemy_value","opp_artillery_protected_count","opp_artillery_diagonal_infantry_cover","opp_artillery_cardinal_infantry_cover","opp_infantry_engagements","opp_paratrooper_ready","opp_paratrooper_deployed","opp_paratrooper_distance_home","opp_paratrooper_supported","opp_paratrooper_engaged","opp_hq_bombarded","opp_hq_adjacent_enemy_infantry","opp_hq_adjacent_friendly","opp_hq_escape_squares","opp_pseudo_mobility","diff_material_board","diff_material_total","diff_pieces_board","diff_infantry_board","diff_artillery_board","diff_home_rank_occupancy","diff_relocation_options","diff_immobile_count","diff_home_rank_immobile_count","diff_connected_components","diff_largest_component_ratio","diff_unsupported_value","diff_overextended_value","diff_bombarded_enemy_value","diff_artillery_protected_count","diff_paratrooper_ready","diff_paratrooper_deployed","diff_hq_bombarded","diff_hq_escape_squares","diff_pseudo_mobility"],"base_raw_score":0.004308351890780767,"learning_rate":0.05,"calibration":{"kind":"platt","scale":1.2495821444283206,"intercept":0.007058338284221023},"trees":[{"children_left":[1,2,3,-1,-1,6,-1,-1,9,10,-1,-1,13,-1,-1],"children_right":[8,5,4,-1,-1,7,-1,-1,12,11,-1,-1,14,-1,-1],"feature":[115,18,117,-2,-2,9,-2,-2,115,62,-2,-2,73,-2,-2],"threshold":[-2.5,127.5,3.5,-2.0,-2.0,0.5,-2.0,-2.0,2.5,0.5,-2.0,-2.0,127.5,-2.0,-2.0],"value":[0.000460593682,-0.342573567926,-0.432714819055,-1.770565614641,0.608968225219,-0.182530705095,-0.056491498771,-1.169639573907,0.129153472663,0.00158950852,0.28030730686,-0.136346291181,0.345868036671,1.741006636148,0.743839235342]},{"children_left":[1,2,3,-1,-1,6,-1,-1,9,10,-1,-1,13,-1,-1],"children_right":[8,5,4,-1,-1,7,-1,-1,12,11,-1,-1,14,-1,-1],"feature":[115,115,18,-2,-2,76,-2,-2,72,133,-2,-2,64,-2,-2],"threshold":[2.5,-2.5,127.5,-2.0,-2.0,2.5,-2.0,-2.0,127.5,-0.017099430785,-2.0,-2.0,0.5,-2.0,-2.0],"value":[-0.004255048256,-0.125910285903,-0.330160612146,-1.663688783305,-0.727109822954,-0.003596779854,1.864477241645,-0.038756045669,0.326406846162,0.385166878087,0.795411851287,1.672038720081,0.092654509195,-0.869708035484,0.969414840874]},{"children_left":[1,2,3,-1,-1,6,-1,-1,9,10,-1,-1,13,-1,-1],"children_right":[8,5,4,-1,-1,7,-1,-1,12,11,-1,-1,14,-1,-1],"feature":[115,17,133,-2,-2,9,-2,-2,115,133,-2,-2,73,-2,-2],"threshold":[-2.5,127.5,0.016394911334,-2.0,-2.0,0.5,-2.0,-2.0,2.5,-0.120386149734,-2.0,-2.0,127.5,-2.0,-2.0],"value":[-0.003307048145,-0.312982922087,-0.369425732165,-1.596708560114,-0.808296299113,-0.098317001222,0.773078380349,-0.950815674685,0.114121008788,-0.002064290252,-0.315428995933,0.143968684407,0.309098606078,1.593544257403,0.642683767861]},{"children_left":[1,2,3,-1,-1,6,-1,-1,9,10,-1,-1,13,-1,-1],"children_right":[8,5,4,-1,-1,7,-1,-1,12,11,-1,-1,14,-1,-1],"feature":[115,18,117,-2,-2,9,-2,-2,115,62,-2,-2,12,-2,-2],"threshold":[-2.5,127.5,3.5,-2.0,-2.0,0.5,-2.0,-2.0,5.5,0.5,-2.0,-2.0,6.5,-2.0,-2.0],"value":[-0.000754532749,-0.297683900067,-0.379082894252,-1.575290216723,0.744282153625,-0.157902727694,-0.09559076263,-1.002378095726,0.111855031903,0.031070457665,0.510068844606,-0.110260808301,0.359688544914,1.528474125291,-1.231864405224]},{"children_left":[1,2,3,-1,-1,6,-1,-1,9,10,-1,-1,13,-1,-1],"children_right":[8,5,4,-1,-1,7,-1,-1,12,11,-1,-1,14,-1,-1],"feature":[115,115,67,-2,-2,7,-2,-2,73,117,-2,-2,64,-2,-2],"threshold":[2.5,-5.5,6.5,-2.0,-2.0,0.5,-2.0,-2.0,127.5,-3.5,-2.0,-2.0,0.5,-2.0,-2.0],"value":[0.001343009178,-0.104675936894,-0.343994717615,-1.48567553012,1.411614929394,-0.025574725649,-0.48716812841,0.128134064434,0.28660341275,0.36139175854,-0.845791753571,1.519712255958,0.155010751505,0.011232296126,1.00371017776]},{"children_left":[1,2,3,-1,-1,6,-1,-1,9,10,-1,-1,13,-1,-1],"children_right":[8,5,4,-1,-1,7,-1,-1,12,11,-1,-1,14,-1,-1],"feature":[115,115,67,-2,-2,7,-2,-2,73,116,-2,-2,64,-2,-2],"threshold":[2.5,-5.5,6.5,-2.0,-2.0,0.5,-2.0,-2.0,127.5,0.5,-2.0,-2.0,0.5,-2.0,-2.0],"value":[-0.001326097126,-0.100747787052,-0.324043295888,-1.411957566932,1.20117171743,-0.027776396251,-0.48907860228,0.11598844953,0.266530887539,0.339147653933,0.715627946852,1.535996037124,0.13590372101,-0.076036276706,0.948778310118]},{"children_left":[1,2,3,-1,-1,6,-1,-1,9,10,-1,-1,13,-1,-1],"children_right":[8,5,4,-1,-1,7,-1,-1,12,11,-1,-1,14,-1,-1],"feature":[115,17,133,-2,-2,9,-2,-2,115,62,-2,-2,12,-2,-2],"threshold":[-2.5,127.5,0.044127192348,-2.0,-2.0,0.5,-2.0,-2.0,5.5,0.5,-2.0,-2.0,6.5,-2.0,-2.0],"value":[0.000449860637,-0.256072611044,-0.302011212467,-1.370534366729,-0.555707843846,-0.081468858768,0.777062621748,-0.876207683447,0.095912308992,0.025152747163,0.471355401587,-0.12145039059,0.31118536616,1.376272483286,-1.224076969938]},{"children_left":[1,2,3,-1,-1,6,-1,-1,9,10,-1,-1,13,-1,-1],"children_right":[8,5,4,-1,-1,7,-1,-1,12,11,-1,-1,14,-1,-1],"feature":[115,115,18,-2,-2,7,-2,-2,72,133,-2,-2,64,-2,-2],"threshold":[2.5,-2.5,127.5,-2.0,-2.0,0.5,-2.0,-2.0,127.5,-0.044127192348,-2.0,-2.0,0.5,-2.0,-2.0],"value":[-0.000364079486,-0.09006626524,-0.242106287972,-1.33290618693,-0.491311571908,0.000352501396,-0.273978716525,0.147574808925,0.244824019334,0.289244810477,0.50782072224,1.341738069708,0.069036605442,-0.860419402604,0.809230129875]},{"children_left":[1,2,3,-1,-1,6,-1,-1,9,10,-1,-1,13,-1,-1],"children_right":[8,5,4,-1,-1,7,-1,-1,12,11,-1,-1,14,-1,-1],"feature":[115,17,19,-2,-2,9,-2,-2,115,133,-2,-2,62,-2,-2],"threshold":[-2.5,127.5,12.5,-2.0,-2.0,0.5,-2.0,-2.0,2.5,0.120790299028,-2.0,-2.0,0.5,-2.0,-2.0],"value":[0.001571192801,-0.229580206366,-0.273757166577,-1.229371006771,0.721471291446,-0.058444041999,0.744148678207,-0.74666313097,0.087155880111,0.002835870306,-0.123656675883,0.294861967458,0.230499359645,1.232855585855,0.422853296429]},{"children_left":[1,2,3,-1,-1,6,-1,-1,9,10,-1,-1,13,-1,-1],"children_right":[8,5,4,-1,-1,7,-1,-1,12,11,-1,-1,14,-1,-1],"feature":[115,115,67,-2,-2,7,-2,-2,73,117,-2,-2,64,-2,-2],"threshold":[2.5,-5.5,6.5,-2.0,-2.0,0.5,-2.0,-2.0,127.5,-3.5,-2.0,-2.0,0.5,-2.0,-2.0],"value":[0.001098029369,-0.081076746266,-0.268850891794,-1.246610149422,1.105554154256,-0.019783342131,-0.40320099464,0.11389936566,0.223173304996,0.288182991483,-1.067250058903,1.313593783749,0.109458920295,-0.005761602376,0.759816402691]},{"children_left":[1,2,3,-1,-1,6,-1,-1,9,10,-1,-1,13,-1,-1],"children_right":[8,5,4,-1,-1,7,-1,-1,12,11,-1,-1,14,-1,-1],"feature":[115,7,21,-2,-2,8,-2,-2,115,62,-2,-2,12,-2,-2],"threshold":[-2.5,0.5,8.5,-2.0,-2.0,2.5,-2.0,-2.0,5.5,0.5,-2.0,-2.0,6.5,-2.0,-2.0],"value":[0.002451648694,-0.210967054006,-0.263237818052,-1.276867051442,0.270971423339,-0.095185033632,-0.784461477555,0.399162363821,0.08195421286,0.023860486203,0.445836070729,-0.111997624218,0.260200411801,1.2257413746,-1.108564607826]},{"children_left":[1,2,3,-1,-1,6,-1,-1,9,10,-1,-1,13,-1,-1],"children_right":[8,5,4,-1,-1,7,-1,-1,12,11,-1,-1,14,-1,-1],"feature":[115,18,117,-2,-2,9,-2,-2,73,116,-2,-2,62,-2,-2],"threshold":[-0.5,127.5,3.5,-2.0,-2.0,0.5,-2.0,-2.0,127.5,0.5,-2.0,-2.0,0.5,-2.0,-2.0],"value":[0.001782651867,-0.168687797044,-0.253335758748,-1.186849600043,0.8751603743,-0.062338562249,0.35110338088,-0.553311164983,0.094345636826,0.232217082231,0.353453195079,1.309062577395,0.024847443142,0.473050176,-0.033923180446]},{"children_left":[1,2,3,-1,-1,6,-1,-1,9,10,-1,-1,13,-1,-1],"children_right":[8,5,4,-1,-1,7,-1,-1,12,11,-1,-1,14,-1,-1],"feature":[115,115,67,-2,-2,7,-2,-2,72,76,-2,-2,64,-2,-2],"threshold":[2.5,-5.5,6.5,-2.0,-2.0,0.5,-2.0,-2.0,127.5,8.5,-2.0,-2.0,0.5,-2.0,-2.0],"value":[-0.000268780538,-0.071538165227,-0.235007795295,-1.150100557667,1.016014167541,-0.017939390538,-0.408732303187,0.128302710195,0.193018882693,0.231801880579,1.132933377282,-0.05105770616,0.040043747973,-0.792173588843,0.63970239697]},{"children_left":[1,2,3,-1,-1,6,-1,-1,9,10,-1,-1,13,-1,-1],"children_right":[8,5,4,-1,-1,7,-1,-1,12,11,-1,-1,14,-1,-1],"feature":[115,115,67,-2,-2,7,-2,-2,20,62,-2,-2,117,-2,-2],"threshold":[2.5,-5.5,6.5,-2.0,-2.0,0.5,-2.0,-2.0,12.5,0.5,-2.0,-2.0,1.5,-2.0,-2.0],"value":[-0.00059514464,-0.068829265262,-0.223343075878,-1.120116904756,0.989544291165,-0.018644325934,-0.361777266755,0.092321159283,0.183479828841,0.194250972212,1.153665677888,0.365161655709,-0.262188705576,-2.138269737052,0.407563665571]},{"children_left":[1,2,3,-1,-1,6,-1,-1,9,10,-1,-1,13,-1,-1],"children_right":[8,5,4,-1,-1,7,-1,-1,12,11,-1,-1,14,-1,-1],"feature":[115,7,21,-2,-2,114,-2,-2,115,62,-2,-2,12,-2,-2],"threshold":[-2.5,0.5,8.5,-2.0,-2.0,-8.5,-2.0,-2.0,5.5,0.5,-2.0,-2.0,6.5,-2.0,-2.0],"value":[-0.001728331233,-0.173498778683,-0.219799806239,-1.174211430221,0.404279342482,-0.067075916741,-1.102273299167,0.084708015514,0.063689553283,0.015545747527,0.39198406,-0.130642755615,0.212606299448,1.098188216155,-1.034890469842]},{"children_left":[1,2,3,-1,-1,6,-1,-1,9,10,-1,-1,13,-1,-1],"children_right":[8,5,4,-1,-1,7,-1,-1,12,11,-1,-1,14,-1,-1],"feature":[115,7,87,-2,-2,115,-2,-2,72,133,-2,-2,64,-2,-2],"threshold":[0.5,0.5,3.5,-2.0,-2.0,-6.5,-2.0,-2.0,126.5,-0.109449103475,-2.0,-2.0,0.5,-2.0,-2.0],"value":[-0.001140168224,-0.077173277107,-0.162628113219,-0.324636923768,-1.117016876989,-0.002045957015,-0.940412455087,0.076985241236,0.140719976878,0.194038646141,0.131482805771,1.052900632534,0.013930477406,-0.975076673081,0.415451447117]},{"children_left":[1,2,3,-1,-1,6,-1,-1,9,10,-1,-1,13,-1,-1],"children_right":[8,5,4,-1,-1,7,-1,-1,12,11,-1,-1,14,-1,-1],"feature":[115,7,2,-2,-2,16,-2,-2,62,76,-2,-2,115,-2,-2],"threshold":[0.5,0.5,1.211538493633,-2.0,-2.0,0.5,-2.0,-2.0,0.5,8.5,-2.0,-2.0,7.5,-2.0,-2.0],"value":[-0.000365906458,-0.073250848952,-0.15535408668,-0.920827999572,-0.091092015948,-0.001276541177,0.045935537862,-1.369154239071,0.137293805152,0.194671752514,1.085785136142,-0.466305917325,0.035785706151,-0.075536038378,1.07760226374]},{"children_left":[1,2,3,-1,-1,6,-1,-1,9,10,-1,-1,13,-1,-1],"children_right":[8,5,4,-1,-1,7,-1,-1,12,11,-1,-1,14,-1,-1],"feature":[114,7,21,-2,-2,10,-2,-2,62,76,-2,-2,71,-2,-2],"threshold":[-0.5,0.5,8.5,-2.0,-2.0,0.5,-2.0,-2.0,0.5,8.5,-2.0,-2.0,0.5,-2.0,-2.0],"value":[0.000954874419,-0.103595879651,-0.173085605753,-0.927331803234,0.4802017617,-0.020520838706,-0.615566999959,0.159996990276,0.086187949254,0.160301092335,0.839016442352,-0.352161459433,0.005551737928,-0.03721206054,1.804401573803]},{"children_left":[1,2,3,-1,-1,6,-1,-1,9,10,-1,-1,13,-1,-1],"children_right":[8,5,4,-1,-1,7,-1,-1,12,11,-1,-1,14,-1,-1],"feature":[115,86,60,-2,-2,8,-2,-2,62,76,-2,-2,114,-2,-2],"threshold":[0.5,1.630681812763,3.5,-2.0,-2.0,1.5,-2.0,-2.0,0.5,8.5,-2.0,-2.0,8.5,-2.0,-2.0],"value":[-0.000213982452,-0.066813993284,-0.010230832107,-0.252284812643,0.154841759447,-0.159022729568,-1.118981107779,-0.453706038829,0.123974032365,0.180074480355,1.038339979213,-0.405866899783,0.026409378472,-0.123358175435,1.04561094067]},{"children_left":[1,2,3,-1,-1,6,-1,-1,9,10,-1,-1,13,-1,-1],"children_right":[8,5,4,-1,-1,7,-1,-1,12,11,-1,-1,14,-1,-1],"feature":[114,7,21,-2,-2,16,-2,-2,62,76,-2,-2,71,-2,-2],"threshold":[0.5,0.5,8.5,-2.0,-2.0,0.5,-2.0,-2.0,0.5,8.5,-2.0,-2.0,0.5,-2.0,-2.0],"value":[-0.000788525014,-0.081145833022,-0.147571136459,-0.800654157354,0.488821368355,-0.009647153303,0.020579390635,-1.748928082055,0.099410940565,0.164121325935,0.91125317847,-0.328726545386,0.021337945213,0.016898798941,1.738197817448]},{"children_left":[1,2,3,-1,-1,6,-1,-1,9,10,-1,-1,13,-1,-1],"children_right":[8,5,4,-1,-1,7,-1,-1,12,11,-1,-1,14,-1,-1],"feature":[115,115,67,-2,-2,129,-2,-2,20,62,-2,-2,117,-2,-2],"threshold":[2.5,-5.5,6.5,-2.0,-2.0,-0.5,-2.0,-2.0,12.5,0.5,-2.0,-2.0,2.5,-2.0,-2.0],"value":[-0.003259299657,-0.056045941347,-0.170286282364,-0.979154716024,0.976822491555,-0.0176738469,-0.640785977114,-0.005761148432,0.137770330211,0.146539240354,1.013387492956,0.264698945842,-0.21942036908,-2.039307489365,0.897701373026]},{"children_left":[1,2,3,-1,-1,6,-1,-1,9,10,-1,-1,13,-1,-1],"children_right":[8,5,4,-1,-1,7,-1,-1,12,11,-1,-1,14,-1,-1],"feature":[114,7,70,-2,-2,16,-2,-2,62,76,-2,-2,71,-2,-2],"threshold":[-0.5,0.5,0.5,-2.0,-2.0,0.5,-2.0,-2.0,0.5,8.5,-2.0,-2.0,0.5,-2.0,-2.0],"value":[0.000713105143,-0.088589569676,-0.150284605134,-0.824824570454,0.788256216783,-0.013729707554,0.007734179222,-1.683866670812,0.074176871545,0.13853111996,0.772645043208,-0.404080360929,0.004250219955,-0.038703739942,1.613904806766]},{"children_left":[1,2,3,-1,-1,6,-1,-1,9,10,-1,-1,13,-1,-1],"children_right":[8,5,4,-1,-1,7,-1,-1,12,11,-1,-1,14,-1,-1],"feature":[133,115,129,-2,-2,86,-2,-2,66,12,-2,-2,114,-2,-2],"threshold":[0.053227903321,-2.5,0.5,-2.0,-2.0,3.126984119415,-2.0,-2.0,1.5,4.0,-2.0,-2.0,6.5,-2.0,-2.0],"value":[0.001463764958,-0.066485858989,-0.146119353768,-0.940573385654,-0.106004371219,-0.009627362911,0.002002306446,-1.770759734591,0.088597315127,0.183893318314,1.03192297934,-1.584397126826,0.040383933,-0.044925998506,0.727563543551]},{"children_left":[1,2,3,-1,-1,6,-1,-1,9,10,-1,-1,13,-1,-1],"children_right":[8,5,4,-1,-1,7,-1,-1,12,11,-1,-1,14,-1,-1],"feature":[133,18,14,-2,-2,62,-2,-2,115,31,-2,-2,12,-2,-2],"threshold":[-0.088423002511,122.5,0.5,-2.0,-2.0,0.5,-2.0,-2.0,5.5,2.577380895615,-2.0,-2.0,6.5,-2.0,-2.0],"value":[0.001368398949,-0.091964403313,-0.17854847197,-1.051327178946,1.225433553346,-0.046145270338,0.288752099847,-0.414830053251,0.066233904246,0.029498095589,0.063219525159,1.03357426554,0.163238599335,1.015893153801,-0.983759234519]},{"children_left":[1,2,3,-1,-1,6,-1,-1,9,10,-1,-1,13,-1,-1],"children_right":[8,5,4,-1,-1,7,-1,-1,12,11,-1,-1,14,-1,-1],"feature":[115,75,129,-2,-2,117,-2,-2,115,129,-2,-2,12,-2,-2],"threshold":[-2.5,12.5,0.5,-2.0,-2.0,-2.5,-2.0,-2.0,5.5,0.5,-2.0,-2.0,6.5,-2.0,-2.0],"value":[-0.000120962186,-0.117343920392,-0.126431845173,-0.835272932853,-0.017864437093,0.228398413181,-1.018846606226,2.120749340696,0.044257570177,0.009677586702,-0.028775645088,0.644900956848,0.147421993714,0.929411994955,-0.959288552368]},{"children_left":[1,2,3,-1,-1,6,-1,-1,9,10,-1,-1,13,-1,-1],"children_right":[8,5,4,-1,-1,7,-1,-1,12,11,-1,-1,14,-1,-1],"feature":[133,115,67,-2,-2,9,-2,-2,75,20,-2,-2,7,-2,-2],"threshold":[0.093923851848,-5.5,6.5,-2.0,-2.0,0.5,-2.0,-2.0,3.5,13.0,-2.0,-2.0,0.5,-2.0,-2.0],"value":[0.000984323924,-0.056745638208,-0.149341377395,-0.969016060309,1.021478282643,-0.02098552012,0.243588424742,-0.232330772242,0.08887515623,0.147680612208,0.838009703622,-1.356603155346,0.025339349996,-0.347358615599,0.330424107303]},{"children_left":[1,2,3,-1,-1,6,-1,-1,9,10,-1,-1,13,-1,-1],"children_right":[8,5,4,-1,-1,7,-1,-1,12,11,-1,-1,14,-1,-1],"feature":[133,11,67,-2,-2,62,-2,-2,115,66,-2,-2,12,-2,-2],"threshold":[-0.053227903321,1.5,4.0,-2.0,-2.0,0.5,-2.0,-2.0,5.5,0.5,-2.0,-2.0,6.5,-2.0,-2.0],"value":[0.000618197092,-0.074086375902,-0.156053089947,-0.924721293521,1.5086817848,-0.032971285783,0.256070548193,-0.352705009801,0.060704452858,0.024403185834,0.78568409246,0.017933817989,0.147068967791,0.985836939115,-0.827583688287]},{"children_left":[1,2,3,-1,-1,6,-1,-1,9,10,-1,-1,13,-1,-1],"children_right":[8,5,4,-1,-1,7,-1,-1,12,11,-1,-1,14,-1,-1],"feature":[133,7,116,-2,-2,16,-2,-2,66,20,-2,-2,7,-2,-2],"threshold":[0.120386149734,0.5,-0.5,-2.0,-2.0,0.5,-2.0,-2.0,1.5,13.0,-2.0,-2.0,0.5,-2.0,-2.0],"value":[-0.000384949778,-0.050287427427,-0.108645062659,-0.924005998837,-0.079222600356,-0.000540005348,0.04024426659,-1.647636988041,0.083636567867,0.160235084578,1.00672986625,-1.389281753874,0.040809906495,-0.220531393914,0.394046712444]},{"children_left":[1,2,3,-1,-1,6,-1,-1,9,10,-1,-1,13,-1,-1],"children_right":[8,5,4,-1,-1,7,-1,-1,12,11,-1,-1,14,-1,-1],"feature":[133,7,116,-2,-2,16,-2,-2,73,18,-2,-2,7,-2,-2],"threshold":[0.120386149734,0.5,0.5,-2.0,-2.0,0.5,-2.0,-2.0,122.5,108.5,-2.0,-2.0,0.5,-2.0,-2.0],"value":[0.000174074244,-0.047422950352,-0.103550079789,-0.727441291678,0.135262334832,0.001450200077,0.04517923223,-1.608016153602,0.079573984578,0.152485892678,1.497727770177,0.945392977883,0.038355267844,-0.26802972857,0.371818821731]},{"children_left":[1,2,3,-1,-1,6,-1,-1,9,10,-1,-1,13,-1,-1],"children_right":[8,5,4,-1,-1,7,-1,-1,12,11,-1,-1,14,-1,-1],"feature":[115,21,49,-2,-2,97,-2,-2,31,60,-2,-2,116,-2,-2],"threshold":[-2.5,8.5,0.5,-2.0,-2.0,9.5,-2.0,-2.0,1.630681812763,3.5,-2.0,-2.0,0.5,-2.0,-2.0],"value":[0.00032872169,-0.096919087613,-0.113320076359,-0.882586182262,-0.087618069451,0.036855258777,0.695180685711,-0.567545741198,0.037272784389,0.000387040799,-0.209486662687,0.187546206908,0.099696373877,0.174930066507,0.790474738275]},{"children_left":[1,2,3,-1,-1,6,-1,-1,9,10,-1,-1,13,-1,-1],"children_right":[8,5,4,-1,-1,7,-1,-1,12,11,-1,-1,14,-1,-1],"feature":[115,17,117,-2,-2,9,-2,-2,62,76,-2,-2,11,-2,-2],"threshold":[-0.5,126.5,3.5,-2.0,-2.0,0.5,-2.0,-2.0,0.5,9.5,-2.0,-2.0,4.5,-2.0,-2.0],"value":[0.001327262521,-0.077798318577,-0.112597807567,-0.699036635927,1.078581065595,0.003324296708,0.925197247796,-0.315612390153,0.044588690648,0.100508474086,0.579384844938,-1.135816949965,-0.003842471454,-0.222405255944,0.285271352091]},{"children_left":[1,2,3,-1,-1,6,-1,-1,9,10,-1,-1,13,-1,-1],"children_right":[8,5,4,-1,-1,7,-1,-1,12,11,-1,-1,14,-1,-1],"feature":[115,75,115,-2,-2,117,-2,-2,62,15,-2,-2,29,-2,-2],"threshold":[-2.5,12.5,-9.5,-2.0,-2.0,-1.5,-2.0,-2.0,0.5,0.5,-2.0,-2.0,0.881944447756,-2.0,-2.0],"value":[0.00043754924,-0.088498396267,-0.095455830596,-1.088556098672,-0.312039858838,0.214061461438,-0.574411116199,2.049169051052,0.033939151913,0.079217913797,0.495484807678,-0.461344379135,-0.006603351874,-0.34024461835,0.164455198204]},{"children_left":[1,2,3,-1,-1,6,-1,-1,9,10,-1,-1,13,-1,-1],"children_right":[8,5,4,-1,-1,7,-1,-1,12,11,-1,-1,14,-1,-1],"feature":[133,86,62,-2,-2,116,-2,-2,66,12,-2,-2,115,-2,-2],"threshold":[0.093923851848,2.320512771606,0.5,-2.0,-2.0,0.5,-2.0,-2.0,1.5,4.0,-2.0,-2.0,4.5,-2.0,-2.0],"value":[-0.000143735034,-0.044372110991,-0.022016221588,0.209753127219,-0.257740716845,-0.138839005016,-1.034178419907,0.099535993115,0.067156914805,0.132834154855,0.89303756173,-1.331517928057,0.031136621466,-0.028900553009,0.802759261518]},{"children_left":[1,2,3,-1,-1,6,-1,-1,9,10,-1,-1,13,-1,-1],"children_right":[8,5,4,-1,-1,7,-1,-1,12,11,-1,-1,14,-1,-1],"feature":[133,11,9,-2,-2,62,-2,-2,62,116,-2,-2,71,-2,-2],"threshold":[-0.120386149734,1.5,0.5,-2.0,-2.0,0.5,-2.0,-2.0,0.5,0.5,-2.0,-2.0,0.5,-2.0,-2.0],"value":[-0.000395536924,-0.067130494807,-0.136615817455,-0.601270539874,-1.277247413383,-0.028584883933,0.235449786602,-0.32495639443,0.040427781339,0.089437955471,0.043521568277,0.883439558547,-0.001174590272,-0.04556258317,1.522932902882]},{"children_left":[1,2,3,-1,-1,6,-1,-1,9,10,-1,-1,13,-1,-1],"children_right":[8,5,4,-1,-1,7,-1,-1,12,11,-1,-1,14,-1,-1],"feature":[115,86,60,-2,-2,106,-2,-2,62,1,-2,-2,114,-2,-2],"threshold":[0.5,1.630681812763,3.5,-2.0,-2.0,5.5,-2.0,-2.0,0.5,0.4296875,-2.0,-2.0,8.5,-2.0,-2.0],"value":[-0.001184963448,-0.040073328988,-0.007007841048,-0.240938688328,0.16641895034,-0.094232306222,-0.601218400056,0.529293008649,0.07073630056,0.108199624686,0.785376672558,-0.740697625618,0.005878916046,-0.154162221473,0.847122372656]},{"children_left":[1,2,3,-1,-1,6,-1,-1,9,10,-1,-1,13,-1,-1],"children_right":[8,5,4,-1,-1,7,-1,-1,12,11,-1,-1,14,-1,-1],"feature":[133,11,75,-2,-2,114,-2,-2,66,64,-2,-2,7,-2,-2],"threshold":[-0.09588522464,1.5,13.0,-2.0,-2.0,-6.5,-2.0,-2.0,1.5,0.5,-2.0,-2.0,0.5,-2.0,-2.0],"value":[0.000480284507,-0.05832209268,-0.120696733451,-0.839791973233,1.459259423477,-0.024571161381,-0.548015682564,0.072964775678,0.039808014941,0.102648332387,0.37672276344,0.910402666658,0.012293914233,-0.298661034774,0.227416910077]},{"children_left":[1,2,3,-1,-1,6,-1,-1,9,10,-1,-1,13,-1,-1],"children_right":[8,5,4,-1,-1,7,-1,-1,12,11,-1,-1,14,-1,-1],"feature":[133,11,75,-2,-2,114,-2,-2,115,64,-2,-2,73,-2,-2],"threshold":[-0.120386149734,1.5,13.0,-2.0,-2.0,-6.5,-2.0,-2.0,6.5,0.5,-2.0,-2.0,134.5,-2.0,-2.0],"value":[0.00254584446,-0.057565258688,-0.121008718922,-0.870090356253,1.518587552254,-0.022783912527,-0.521137110231,0.080718383702,0.039111502473,0.017664484476,-0.255713455751,0.216995070368,0.108154985947,0.910122464345,-1.142060759221]},{"children_left":[1,2,3,-1,-1,6,-1,-1,9,10,-1,-1,13,-1,-1],"children_right":[8,5,4,-1,-1,7,-1,-1,12,11,-1,-1,14,-1,-1],"feature":[133,11,75,-2,-2,62,-2,-2,66,64,-2,-2,129,-2,-2],"threshold":[-0.053227903321,1.5,13.0,-2.0,-2.0,0.5,-2.0,-2.0,1.5,0.5,-2.0,-2.0,0.5,-2.0,-2.0],"value":[0.001602009248,-0.0489942791,-0.114695644687,-0.801459610148,1.42923461851,-0.016737708969,0.244281027493,-0.244828259746,0.042598295879,0.101773333065,0.399867218274,0.926310390705,0.016153417477,-0.005375321355,0.83268126319]},{"children_left":[1,2,3,-1,-1,6,-1,-1,9,10,-1,-1,13,-1,-1],"children_right":[8,5,4,-1,-1,7,-1,-1,12,11,-1,-1,14,-1,-1],"feature":[115,75,78,-2,-2,117,-2,-2,31,60,-2,-2,95,-2,-2],"threshold":[-2.5,12.5,6.5,-2.0,-2.0,-3.5,-2.0,-2.0,1.639610409737,3.5,-2.0,-2.0,2.5,-2.0,-2.0],"value":[-0.000820288943,-0.071415127695,-0.078019958189,-0.515201164157,1.495274125163,0.175560436545,-1.50439981746,1.821048594796,0.025944483022,-0.002767498743,-0.192888651134,0.15083451132,0.076381095448,0.495361443532,-0.600185547304]},{"children_left":[1,2,3,-1,-1,6,-1,-1,9,10,-1,-1,13,-1,-1],"children_right":[8,5,4,-1,-1,7,-1,-1,12,11,-1,-1,14,-1,-1],"feature":[133,11,117,-2,-2,62,-2,-2,66,20,-2,-2,7,-2,-2],"threshold":[0.120386149734,0.5,3.5,-2.0,-2.0,0.5,-2.0,-2.0,1.5,13.0,-2.0,-2.0,0.5,-2.0,-2.0],"value":[-0.002696050232,-0.037492113366,-0.111036739517,-0.758089739304,1.909466018322,-0.018564657945,0.217883843283,-0.238319766534,0.05633106913,0.112880793895,0.859664931854,-1.280754251391,0.023999302046,-0.237782634277,0.297872514573]},{"children_left":[1,2,3,-1,-1,6,-1,-1,9,10,-1,-1,13,-1,-1],"children_right":[8,5,4,-1,-1,7,-1,-1,12,11,-1,-1,14,-1,-1],"feature":[115,7,21,-2,-2,97,-2,-2,121,31,-2,-2,38,-2,-2],"threshold":[-0.5,0.5,8.5,-2.0,-2.0,6.5,-2.0,-2.0,0.5,2.17424249649,-2.0,-2.0,0.5,-2.0,-2.0],"value":[0.000185281512,-0.057336842357,-0.09440283575,-0.783536894342,0.533846770529,0.006623349906,1.371424481036,-0.062995726242,0.031545392159,0.040542043957,0.10738885103,0.7455925946,-0.128356620966,-1.622088294788,-0.299290648559]},{"children_left":[1,2,3,-1,-1,6,-1,-1,9,10,-1,-1,13,-1,-1],"children_right":[8,5,4,-1,-1,7,-1,-1,12,11,-1,-1,14,-1,-1],"feature":[133,86,71,-2,-2,19,-2,-2,66,7,-2,-2,80,-2,-2],"threshold":[0.088423002511,2.320512771606,0.5,-2.0,-2.0,9.5,-2.0,-2.0,4.5,0.5,-2.0,-2.0,5.881944417953,-2.0,-2.0],"value":[0.001126142359,-0.031155381142,-0.011614233414,-0.087602249265,0.967105884383,-0.112833895699,-1.08759011863,-0.001050345872,0.049879853478,0.069490981766,0.107858712321,0.591333581072,-0.023044089,-0.437858710878,0.429824916806]},{"children_left":[1,2,3,-1,-1,6,-1,-1,9,10,-1,-1,13,-1,-1],"children_right":[8,5,4,-1,-1,7,-1,-1,12,11,-1,-1,14,-1,-1],"feature":[115,19,7,-2,-2,100,-2,-2,23,51,-2,-2,16,-2,-2],"threshold":[-0.5,15.5,0.5,-2.0,-2.0,4.5,-2.0,-2.0,3.5,5.5,-2.0,-2.0,0.5,-2.0,-2.0],"value":[-0.001653757816,-0.054775155539,-0.06071025729,-0.623458632605,-0.026755140781,0.224046718603,1.753138306515,-0.865602991128,0.027291562621,0.06743081586,0.413278922943,-1.062577889979,-0.007246405086,0.010062951631,-1.098989490686]},{"children_left":[1,2,3,-1,-1,6,-1,-1,9,10,-1,-1,13,-1,-1],"children_right":[8,5,4,-1,-1,7,-1,-1,12,11,-1,-1,14,-1,-1],"feature":[115,7,107,-2,-2,84,-2,-2,74,67,-2,-2,114,-2,-2],"threshold":[5.5,0.5,0.5,-2.0,-2.0,0.881944447756,-2.0,-2.0,12.5,1.5,-2.0,-2.0,7.5,-2.0,-2.0],"value":[0.001887434859,-0.015177174062,-0.055005252717,-0.179700991623,-0.969124390101,0.019112123961,0.348192458641,-0.093809344311,0.080578509455,0.096018875182,0.862896523399,-1.249669953243,-0.114641837568,0.530345840798,-1.736690471092]},{"children_left":[1,2,3,-1,-1,6,-1,-1,9,10,-1,-1,13,-1,-1],"children_right":[8,5,4,-1,-1,7,-1,-1,12,11,-1,-1,14,-1,-1],"feature":[115,17,5,-2,-2,9,-2,-2,5,82,-2,-2,115,-2,-2],"threshold":[-0.5,126.5,4.5,-2.0,-2.0,0.5,-2.0,-2.0,3.5,0.5,-2.0,-2.0,3.5,-2.0,-2.0],"value":[0.000328448259,-0.049987719411,-0.075546981021,-0.720061343569,-0.094522921277,0.010717991134,0.842716447268,-0.248157834541,0.027964727684,0.068933921728,0.264287161871,0.841852362295,-0.003554376627,-0.227674202155,0.437983241366]},{"children_left":[1,2,3,-1,-1,6,-1,-1,9,10,-1,-1,13,-1,-1],"children_right":[8,5,4,-1,-1,7,-1,-1,12,11,-1,-1,14,-1,-1],"feature":[114,7,21,-2,-2,16,-2,-2,62,76,-2,-2,65,-2,-2],"threshold":[0.5,0.5,8.5,-2.0,-2.0,0.5,-2.0,-2.0,0.5,8.5,-2.0,-2.0,0.5,-2.0,-2.0],"value":[-0.000351946082,-0.03428623643,-0.068146463407,-0.510345876275,0.605819011852,0.002806823484,0.062000352138,-1.444959618892,0.04145599138,0.079009906353,0.633012363,-0.560654176416,-0.003851446941,0.472797998308,-0.228808236519]},{"children_left":[1,2,3,-1,-1,-1,7,8,-1,-1,11,-1,-1],"children_right":[6,5,4,-1,-1,-1,10,9,-1,-1,12,-1,-1],"feature":[115,12,1,-2,-2,-2,9,95,-2,-2,115,-2,-2],"threshold":[-5.5,1.5,0.4296875,-2.0,-2.0,-2.0,0.5,0.5,-2.0,-2.0,7.5,-2.0,-2.0],"value":[4.990072e-06,-0.071404052999,-0.078951162003,-0.746366487286,0.766453882552,1.459714262163,0.015960422824,0.074924739114,0.212017381191,0.783297278383,-0.008941668587,-0.114038591871,0.694375984246]},{"children_left":[1,2,3,-1,-1,6,-1,-1,9,10,-1,-1,13,-1,-1],"children_right":[8,5,4,-1,-1,7,-1,-1,12,11,-1,-1,14,-1,-1],"feature":[133,86,72,-2,-2,68,-2,-2,106,31,-2,-2,124,-2,-2],"threshold":[-0.092936076224,2.240384578705,125.5,-2.0,-2.0,0.5,-2.0,-2.0,5.5,2.320512771606,-2.0,-2.0,0.007692307699,-2.0,-2.0],"value":[0.001451606672,-0.039038261437,-0.015980958724,0.272629118563,-0.224925366514,-0.099192335761,-0.74984137573,-1.855493608995,0.028870472699,0.024860134773,0.034018207836,0.745050884192,0.362404504964,2.273412743733,0.38179310079]},{"children_left":[1,2,3,-1,-1,6,-1,-1,9,10,-1,-1,-1],"children_right":[8,5,4,-1,-1,7,-1,-1,12,11,-1,-1,-1],"feature":[115,64,22,-2,-2,115,-2,-2,12,67,-2,-2,-2],"threshold":[5.5,0.5,4.5,-2.0,-2.0,0.5,-2.0,-2.0,6.5,1.5,-2.0,-2.0,-2.0],"value":[-0.00011719867,-0.015869042477,-0.07066004918,-0.284614597183,-0.965478387697,0.007187468676,-0.057632400755,0.432067571332,0.071753032666,0.079583529164,0.75002615071,-1.548064679744,-1.090618487573]},{"children_left":[1,2,3,-1,-1,6,-1,-1,9,10,-1,-1,13,-1,-1],"children_right":[8,5,4,-1,-1,7,-1,-1,12,11,-1,-1,14,-1,-1],"feature":[62,116,118,-2,-2,114,-2,-2,11,71,-2,-2,92,-2,-2],"threshold":[0.5,-0.5,1.5,-2.0,-2.0,-2.5,-2.0,-2.0,4.5,0.5,-2.0,-2.0,0.5,-2.0,-2.0],"value":[-0.0020383676,0.034114334744,-0.041824186338,-0.170500536389,-2.453249945651,0.080905510437,1.573048102065,0.426235808978,-0.030757338287,-0.059241593144,-0.332728050994,1.306985146511,0.039763410147,-0.059329578643,0.610743239172]},{"children_left":[1,2,3,-1,-1,6,-1,-1,9,10,-1,-1,13,-1,-1],"children_right":[8,5,4,-1,-1,7,-1,-1,12,11,-1,-1,14,-1,-1],"feature":[133,51,7,-2,-2,124,-2,-2,66,129,-2,-2,80,-2,-2],"threshold":[0.123423296958,5.5,0.5,-2.0,-2.0,-0.006410256494,-2.0,-2.0,4.5,-0.5,-2.0,-2.0,5.881944417953,-2.0,-2.0],"value":[-0.000669997659,-0.023767065106,-0.020047978512,-0.341247796367,0.047797067911,-0.32431458282,-0.344212362612,-2.218304527821,0.039293311136,0.058745828784,-0.214521276625,0.501051702331,-0.034175670625,-0.436753816984,0.424332260338]},{"children_left":[1,2,3,-1,-1,-1,7,8,-1,-1,11,-1,-1],"children_right":[6,5,4,-1,-1,-1,10,9,-1,-1,12,-1,-1],"feature":[115,67,12,-2,-2,-2,9,18,-2,-2,115,-2,-2],"threshold":[-5.5,6.5,1.5,-2.0,-2.0,-2.0,0.5,137.5,-2.0,-2.0,-0.5,-2.0,-2.0],"value":[-0.001342260887,-0.068787071193,-0.076438009405,-0.728839421734,1.214046364752,0.993153984597,0.013607579024,0.068166677272,0.559732631202,-0.215780881492,-0.009259584209,-0.407171186778,0.039522437381]},{"children_left":[1,2,3,-1,-1,6,-1,-1,9,10,-1,-1,13,-1,-1],"children_right":[8,5,4,-1,-1,7,-1,-1,12,11,-1,-1,14,-1,-1],"feature":[133,11,72,-2,-2,129,-2,-2,31,17,-2,-2,73,-2,-2],"threshold":[0.120386149734,0.5,180.5,-2.0,-2.0,-0.5,-2.0,-2.0,2.541957974434,125.5,-2.0,-2.0,131.5,-2.0,-2.0],"value":[-0.001040311651,-0.023755152292,-0.085720640681,-0.690285228323,1.380990860393,-0.007959062445,-0.550773074873,0.024904479034,0.037240384575,0.019643757596,-0.201486323288,0.243130108993,0.106494880989,0.91436343382,1.730403540983]},{"children_left":[1,2,3,-1,-1,6,-1,-1,9,10,-1,-1,13,-1,-1],"children_right":[8,5,4,-1,-1,7,-1,-1,12,11,-1,-1,14,-1,-1],"feature":[133,11,104,-2,-2,78,-2,-2,106,62,-2,-2,73,-2,-2],"threshold":[-0.123423296958,4.5,0.5,-2.0,-2.0,5.5,-2.0,-2.0,4.5,0.5,-2.0,-2.0,137.5,-2.0,-2.0],"value":[-0.001353904275,-0.038713442681,-0.05724761257,-0.202956278806,-0.550259627026,0.032190138135,0.002039757735,1.137076532133,0.021096766692,0.016598942225,0.31218048953,-0.054978337872,0.219969302618,0.739146869699,1.982330054017]},{"children_left":[1,2,3,-1,-1,6,-1,-1,9,10,-1,-1,13,-1,-1],"children_right":[8,5,4,-1,-1,7,-1,-1,12,11,-1,-1,14,-1,-1],"feature":[115,1,12,-2,-2,133,-2,-2,9,68,-2,-2,115,-2,-2],"threshold":[-5.5,0.4296875,1.5,-2.0,-2.0,0.06737241894,-2.0,-2.0,0.5,0.5,-2.0,-2.0,-0.5,-2.0,-2.0],"value":[0.00097154546,-0.060394099728,-0.070413320631,-0.693957522034,0.972010557194,0.146005009982,0.271523265899,3.022621529528,0.014596356793,0.064489314173,0.44023466611,-0.519138037023,-0.006559959281,-0.374783068867,0.047543651252]},{"children_left":[1,2,3,-1,-1,6,-1,-1,9,10,-1,-1,13,-1,-1],"children_right":[8,5,4,-1,-1,7,-1,-1,12,11,-1,-1,14,-1,-1],"feature":[133,86,51,-2,-2,117,-2,-2,63,67,-2,-2,60,-2,-2],"threshold":[0.120386149734,2.577380895615,5.5,-2.0,-2.0,2.5,-2.0,-2.0,2.5,2.5,-2.0,-2.0,5.5,-2.0,-2.0],"value":[-0.000483479323,-0.022583576132,-0.010599122743,-0.032133862578,-1.48736871028,-0.101501360949,-0.987125340594,2.071093894149,0.036657068925,0.062143381403,0.568782164853,-0.207708076556,-0.01518508064,-0.255640095343,0.510513578525]},{"children_left":[1,2,3,-1,-1,-1,7,8,-1,-1,11,-1,-1],"children_right":[6,5,4,-1,-1,-1,10,9,-1,-1,12,-1,-1],"feature":[115,38,27,-2,-2,-2,129,65,-2,-2,95,-2,-2],"threshold":[-9.5,3.5,0.5,-2.0,-2.0,-2.0,-0.5,0.5,-2.0,-2.0,0.5,-2.0,-2.0],"value":[0.002451606295,-0.078384648338,-0.087057108774,-0.960787721256,0.743823598741,1.383557228129,0.012509200661,-0.061504664669,0.161984266729,-0.645734643045,0.023660450578,-0.003521674962,0.383919485567]},{"children_left":[1,2,3,-1,-1,6,-1,-1,9,10,-1,-1,13,-1,-1],"children_right":[8,5,4,-1,-1,7,-1,-1,12,11,-1,-1,14,-1,-1],"feature":[114,78,106,-2,-2,121,-2,-2,23,40,-2,-2,129,-2,-2],"threshold":[0.5,3.5,5.5,-2.0,-2.0,0.5,-2.0,-2.0,3.5,0.5,-2.0,-2.0,-0.5,-2.0,-2.0],"value":[-0.000305189125,-0.024138238976,-0.055894907003,-0.401987172566,1.152156578976,0.005121808014,0.074688398145,-0.699768237301,0.029382986749,0.064594008851,0.757382437626,0.082961708378,-0.004818635246,-0.488183344546,0.06846533375]},{"children_left":[1,2,3,-1,-1,6,-1,-1,9,10,-1,-1,13,-1,-1],"children_right":[8,5,4,-1,-1,7,-1,-1,12,11,-1,-1,14,-1,-1],"feature":[62,116,118,-2,-2,114,-2,-2,29,106,-2,-2,20,-2,-2],"threshold":[0.5,-0.5,1.5,-2.0,-2.0,-2.5,-2.0,-2.0,0.894444435835,5.5,-2.0,-2.0,4.5,-2.0,-2.0],"value":[0.001337441188,0.030498709564,-0.032807172379,-0.120055657237,-2.315504801325,0.069123194173,1.48081755713,0.375962039831,-0.021718812657,-0.066426671281,-0.408971949618,0.937916367935,0.019657460147,-0.157095500731,0.299805963367]},{"children_left":[1,2,3,-1,-1,6,-1,-1,9,10,-1,-1,13,-1,-1],"children_right":[8,5,4,-1,-1,7,-1,-1,12,11,-1,-1,14,-1,-1],"feature":[115,64,22,-2,-2,115,-2,-2,74,117,-2,-2,114,-2,-2],"threshold":[5.5,0.5,4.5,-2.0,-2.0,0.5,-2.0,-2.0,12.5,-3.5,-2.0,-2.0,7.5,-2.0,-2.0],"value":[0.000116180795,-0.011560982506,-0.060934269422,-0.250290719676,-0.857605747539,0.008838704848,-0.033317048212,0.378270096023,0.053966008725,0.067816118166,-2.312585541418,0.71953469957,-0.121421947313,0.50129004067,-1.652223019702]},{"children_left":[1,2,3,-1,-1,6,-1,-1,9,10,-1,-1,13,-1,-1],"children_right":[8,5,4,-1,-1,7,-1,-1,12,11,-1,-1,14,-1,-1],"feature":[7,116,114,-2,-2,118,-2,-2,66,118,-2,-2,38,-2,-2],"threshold":[0.5,0.5,2.5,-2.0,-2.0,-1.5,-2.0,-2.0,4.5,-2.5,-2.0,-2.0,0.5,-2.0,-2.0],"value":[-0.000444851047,-0.029567378125,-0.065265801867,-0.351860540026,-1.362689131672,0.03049866114,2.310174683404,0.121115909221,0.023047717182,0.051319983601,-0.851176700017,0.322774522502,-0.044943432619,-1.030565976781,-0.071948999835]},{"children_left":[1,2,3,-1,-1,6,-1,-1,9,10,-1,-1,13,-1,-1],"children_right":[8,5,4,-1,-1,7,-1,-1,12,11,-1,-1,14,-1,-1],"feature":[62,116,78,-2,-2,114,-2,-2,71,11,-2,-2,41,-2,-2],"threshold":[0.5,-0.5,3.5,-2.0,-2.0,-2.5,-2.0,-2.0,0.5,4.5,-2.0,-2.0,2.5,-2.0,-2.0],"value":[0.001783207374,0.03166397914,-0.025618252174,-0.551854601095,0.344445337309,0.066379948778,1.346542343359,0.372198072112,-0.021994418291,-0.027902653257,-0.282124856634,0.155313199423,0.270879485674,0.6220700637,1.577397672366]},{"children_left":[1,2,3,-1,-1,6,-1,-1,9,10,-1,-1,13,-1,-1],"children_right":[8,5,4,-1,-1,7,-1,-1,12,11,-1,-1,14,-1,-1],"feature":[114,127,106,-2,-2,62,-2,-2,72,64,-2,-2,63,-2,-2],"threshold":[0.5,12.5,5.5,-2.0,-2.0,0.5,-2.0,-2.0,133.5,0.5,-2.0,-2.0,2.5,-2.0,-2.0],"value":[-0.001942347412,-0.025543212637,-0.02798214452,-0.171252411586,0.766147176985,0.241294677664,1.84134602351,0.548124571588,0.027469999057,0.037627717307,0.029885988095,0.400346715393,-0.066782679458,0.704606095223,-0.474028969519]},{"children_left":[1,2,3,-1,-1,6,-1,-1,9,10,-1,-1,13,-1,-1],"children_right":[8,5,4,-1,-1,7,-1,-1,12,11,-1,-1,14,-1,-1],"feature":[7,116,114,-2,-2,118,-2,-2,84,51,-2,-2,75,-2,-2],"threshold":[0.5,0.5,2.5,-2.0,-2.0,-1.5,-2.0,-2.0,0.881944447756,5.5,-2.0,-2.0,4.5,-2.0,-2.0],"value":[0.002717849903,-0.024155519218,-0.057992250204,-0.311858286243,-1.333428085724,0.032762118278,2.023470148075,0.135398393533,0.02404340473,0.070929559848,0.448768253746,-1.141518980087,-0.017698526649,0.14495826866,-0.278325236115]},{"children_left":[1,2,3,-1,-1,6,-1,-1,9,10,-1,-1,-1],"children_right":[8,5,4,-1,-1,7,-1,-1,12,11,-1,-1,-1],"feature":[115,51,64,-2,-2,124,-2,-2,12,23,-2,-2,-2],"threshold":[9.5,5.5,0.5,-2.0,-2.0,-0.040313852951,-2.0,-2.0,6.5,5.5,-2.0,-2.0,-2.0],"value":[-8.5010001e-05,-0.008296890275,-0.005213113704,-0.254919597535,0.060982342581,-0.236678519602,-0.122308380675,-2.11118633168,0.067512927143,0.080000783994,1.014938284741,-1.354413388113,-1.035012309173]},{"children_left":[1,2,3,-1,-1,6,-1,-1,9,10,-1,-1,13,-1,-1],"children_right":[8,5,4,-1,-1,7,-1,-1,12,11,-1,-1,14,-1,-1],"feature":[133,86,9,-2,-2,115,-2,-2,66,112,-2,-2,56,-2,-2],"threshold":[0.123423296958,2.577380895615,0.5,-2.0,-2.0,-2.5,-2.0,-2.0,4.5,0.5,-2.0,-2.0,0.5,-2.0,-2.0],"value":[-0.001373415912,-0.019115994649,-0.007487404479,0.223122286833,-0.16057632748,-0.097678877158,-0.810443177507,-1.075716350802,0.028755473599,0.045739841095,0.68142193183,0.18942024379,-0.037838490225,1.251814385184,-0.286293788876]},{"children_left":[1,2,3,-1,-1,6,-1,-1,9,10,-1,-1,13,-1,-1],"children_right":[8,5,4,-1,-1,7,-1,-1,12,11,-1,-1,14,-1,-1],"feature":[11,62,116,-2,-2,76,-2,-2,92,25,-2,-2,42,-2,-2],"threshold":[4.5,0.5,-0.5,-2.0,-2.0,7.5,-2.0,-2.0,0.5,4.154761791229,-2.0,-2.0,7.5,-2.0,-2.0],"value":[0.003089373087,-0.011367232424,0.027253101457,-0.247554317478,0.493632244969,-0.044490172874,-0.427195294836,0.028712481809,0.043187809834,0.008557328435,0.68969920425,-0.069285194959,0.114486707253,0.098015029348,0.795370719893]},{"children_left":[1,2,3,-1,-1,6,-1,-1,9,10,-1,-1,13,-1,-1],"children_right":[8,5,4,-1,-1,7,-1,-1,12,11,-1,-1,14,-1,-1],"feature":[7,116,114,-2,-2,118,-2,-2,66,118,-2,-2,38,-2,-2],"threshold":[0.5,0.5,2.5,-2.0,-2.0,-1.5,-2.0,-2.0,4.5,-2.5,-2.0,-2.0,0.5,-2.0,-2.0],"value":[0.001332992854,-0.026906108817,-0.058026362231,-0.316267267683,-1.281515281727,0.025307203331,1.998940716193,0.095193024126,0.023710995566,0.048674367535,-0.818677636343,0.309049004366,-0.037240874995,-0.918754880204,-0.047557384511]},{"children_left":[1,2,3,-1,-1,6,-1,-1,9,10,-1,-1,13,-1,-1],"children_right":[8,5,4,-1,-1,7,-1,-1,12,11,-1,-1,14,-1,-1],"feature":[52,51,129,-2,-2,124,-2,-2,62,115,-2,-2,63,-2,-2],"threshold":[0.5,5.5,0.5,-2.0,-2.0,-0.006410256494,-2.0,-2.0,0.5,-5.5,-2.0,-2.0,2.5,-2.0,-2.0],"value":[-0.002870858513,-0.011310046789,-0.008301368706,-0.099980999955,0.251252416683,-0.222512365797,-0.42398132796,-1.839112751875,0.061869838493,0.098280705371,-1.042606090774,0.885530534255,-0.0067983491,0.472231452655,-0.551664802079]},{"children_left":[1,2,3,-1,-1,-1,7,8,-1,-1,11,-1,-1],"children_right":[6,5,4,-1,-1,-1,10,9,-1,-1,12,-1,-1],"feature":[115,67,78,-2,-2,-2,95,121,-2,-2,129,-2,-2],"threshold":[-9.5,6.5,5.5,-2.0,-2.0,-2.0,0.5,0.5,-2.0,-2.0,-0.5,-2.0,-2.0],"value":[0.00119806213,-0.062486584146,-0.073449739402,-0.964901388679,1.140155912147,0.904770798093,0.008956560171,-0.008610624949,-0.007856647508,-0.537888940201,0.042945483914,-0.319674726182,0.349056664067]},{"children_left":[1,2,3,-1,-1,6,-1,-1,9,10,-1,-1,13,-1,-1],"children_right":[8,5,4,-1,-1,7,-1,-1,12,11,-1,-1,14,-1,-1],"feature":[11,62,116,-2,-2,76,-2,-2,82,126,-2,-2,80,-2,-2],"threshold":[4.5,0.5,-0.5,-2.0,-2.0,8.5,-2.0,-2.0,0.5,-0.5,-2.0,-2.0,3.696153879166,-2.0,-2.0],"value":[-0.000302345685,-0.013229996459,0.021980465222,-0.255316447585,0.455917978332,-0.043403212764,-0.364284066548,0.17910771696,0.035690876781,0.019180837961,0.468351974275,-0.037590369695,0.185906834853,-0.188370174693,1.048326186383]},{"children_left":[1,2,3,-1,-1,6,-1,-1,9,10,-1,-1,13,-1,-1],"children_right":[8,5,4,-1,-1,7,-1,-1,12,11,-1,-1,14,-1,-1],"feature":[113,129,40,-2,-2,118,-2,-2,57,18,-2,-2,8,-2,-2],"threshold":[4.297262430191,0.5,0.5,-2.0,-2.0,-2.5,-2.0,-2.0,0.5,128.5,-2.0,-2.0,2.5,-2.0,-2.0],"value":[-0.001033530802,0.011964723336,0.002445209249,0.129009274414,-0.26021196912,0.083529365891,-0.777807878098,0.661437861025,-0.037319851277,-0.144857993485,0.496133330044,-0.943083391786,-0.015148557647,-0.460540533902,0.176163829191]},{"children_left":[1,2,3,-1,-1,6,-1,-1,9,10,-1,-1,-1],"children_right":[8,5,4,-1,-1,7,-1,-1,12,11,-1,-1,-1],"feature":[115,40,121,-2,-2,129,-2,-2,12,23,-2,-2,-2],"threshold":[9.5,0.5,-0.5,-2.0,-2.0,0.5,-2.0,-2.0,6.5,5.5,-2.0,-2.0,-2.0],"value":[-0.002191934021,-0.009669903103,0.007541735895,0.541852282283,0.000944354845,-0.043286275753,-0.349800849719,0.30200732358,0.058620343628,0.070680458472,0.984371600666,-1.39406863544,-0.97412644983]},{"children_left":[1,2,3,-1,-1,6,-1,-1,9,10,-1,-1,13,-1,-1],"children_right":[8,5,4,-1,-1,7,-1,-1,12,11,-1,-1,14,-1,-1],"feature":[51,7,116,-2,-2,84,-2,-2,115,124,-2,-2,120,-2,-2],"threshold":[5.5,0.5,0.5,-2.0,-2.0,0.881944447756,-2.0,-2.0,10.5,-0.099242426455,-2.0,-2.0,32.5,-2.0,-2.0],"value":[-0.000462209665,0.00263405538,-0.02166891061,-0.343079100181,0.16695210266,0.022529196303,0.36916270471,-0.073105295991,-0.159570647121,-0.262248522341,-0.532076112795,-1.750009713838,0.047551610259,-0.483504833092,1.08715563303]},{"children_left":[1,2,3,-1,-1,6,-1,-1,9,10,-1,-1,-1],"children_right":[8,5,4,-1,-1,7,-1,-1,12,11,-1,-1,-1],"feature":[52,51,11,-2,-2,115,-2,-2,74,62,-2,-2,-2],"threshold":[0.5,5.5,4.5,-2.0,-2.0,10.5,-2.0,-2.0,15.5,0.5,-2.0,-2.0,-2.0],"value":[-0.000357556959,-0.007956670999,-0.005141032794,-0.108448024044,0.135121465217,-0.217067673363,-1.36152624077,1.097249815824,0.056482505971,0.062975196151,0.790048232291,-0.003146663413,-1.75212647928]},{"children_left":[1,2,3,-1,-1,6,-1,-1,9,10,-1,-1,-1],"children_right":[8,5,4,-1,-1,7,-1,-1,12,11,-1,-1,-1],"feature":[107,106,40,-2,-2,124,-2,-2,21,11,-2,-2,-2],"threshold":[0.5,5.5,0.5,-2.0,-2.0,0.007692307699,-2.0,-2.0,10.5,2.5,-2.0,-2.0,-2.0],"value":[0.000298610585,0.007986671598,0.005162012073,0.110416517839,-0.135344939839,0.201204071484,1.753630722595,0.199276195576,-0.057281297012,-0.061935436953,-0.920192024407,-0.115200257748,1.874177537122]},{"children_left":[1,2,3,-1,-1,6,-1,-1,9,10,-1,-1,13,-1,-1],"children_right":[8,5,4,-1,-1,7,-1,-1,12,11,-1,-1,14,-1,-1],"feature":[62,116,78,-2,-2,114,-2,-2,121,132,-2,-2,28,-2,-2],"threshold":[0.5,-0.5,3.5,-2.0,-2.0,-2.5,-2.0,-2.0,-0.5,1.5,-2.0,-2.0,2.5,-2.0,-2.0],"value":[0.000178549583,0.023646417284,-0.027222959099,-0.533244743392,0.282520080281,0.054566363661,1.169272338282,0.321356816353,-0.018348973827,0.123643597349,0.730047931942,-0.63525948073,-0.027842720495,-0.030261977661,-0.478548456764]},{"children_left":[1,2,3,-1,-1,6,-1,-1,9,10,-1,-1,13,-1,-1],"children_right":[8,5,4,-1,-1,7,-1,-1,12,11,-1,-1,14,-1,-1],"feature":[133,11,95,-2,-2,113,-2,-2,106,31,-2,-2,93,-2,-2],"threshold":[-0.123423296958,4.5,1.5,-2.0,-2.0,4.283562898636,-2.0,-2.0,5.5,2.577380895615,-2.0,-2.0,0.5,-2.0,-2.0],"value":[0.001256360716,-0.025659145366,-0.0419876477,-0.373884775739,0.290350888879,0.036323935159,0.381437545524,-0.415134029788,0.017655429738,0.014617589449,0.024664130699,0.817596245327,0.273384368979,0.322795654218,1.727305293243]},{"children_left":[1,2,3,-1,-1,6,-1,-1,9,10,-1,-1,13,-1,-1],"children_right":[8,5,4,-1,-1,7,-1,-1,12,11,-1,-1,14,-1,-1],"feature":[71,16,115,-2,-2,25,-2,-2,75,63,-2,-2,56,-2,-2],"threshold":[0.5,0.5,2.5,-2.0,-2.0,3.58333337307,-2.0,-2.0,11.5,2.5,-2.0,-2.0,0.5,-2.0,-2.0],"value":[0.000186203754,-0.003780260956,-0.000348255388,-0.066316274002,0.251495044924,-0.143156474235,0.346413547189,-1.299002699025,0.105840084086,0.245215108001,1.352144854522,0.1959950362,-0.029424769855,1.170728153876,-0.511173582196]},{"children_left":[1,2,3,-1,-1,6,-1,-1,9,10,-1,-1,13,-1,-1],"children_right":[8,5,4,-1,-1,7,-1,-1,12,11,-1,-1,14,-1,-1],"feature":[71,66,7,-2,-2,37,-2,-2,72,58,-2,-2,132,-2,-2],"threshold":[0.5,4.5,0.5,-2.0,-2.0,0.5,-2.0,-2.0,108.5,3.449861526489,-2.0,-2.0,0.5,-2.0,-2.0],"value":[0.001172404979,-0.002793017489,0.008882849804,-0.185795970749,0.210623521903,-0.037507402262,0.020233110715,-0.563212443433,0.106230990091,-0.096164129776,-0.830276332024,0.07489493445,0.190282247483,1.198011485958,0.010738201863]},{"children_left":[1,2,3,-1,-1,-1,7,8,-1,-1,11,-1,-1],"children_right":[6,5,4,-1,-1,-1,10,9,-1,-1,12,-1,-1],"feature":[115,38,27,-2,-2,-2,9,95,-2,-2,106,-2,-2],"threshold":[-9.5,3.5,0.5,-2.0,-2.0,-2.0,0.5,0.5,-2.0,-2.0,6.5,-2.0,-2.0],"value":[-0.00031625013,-0.054883156167,-0.063238680091,-0.888700134521,0.993258253219,1.356100007748,0.006367156833,0.041402828547,0.08528615606,0.570607492775,-0.010050153644,-0.063409670933,1.480192228032]},{"children_left":[1,2,3,-1,-1,6,-1,-1,9,10,-1,-1,13,-1,-1],"children_right":[8,5,4,-1,-1,7,-1,-1,12,11,-1,-1,14,-1,-1],"feature":[122,7,116,-2,-2,84,-2,-2,73,31,-2,-2,38,-2,-2],"threshold":[0.5,0.5,0.5,-2.0,-2.0,0.881944447756,-2.0,-2.0,136.5,0.966666668653,-2.0,-2.0,0.5,-2.0,-2.0],"value":[-0.001857473979,0.002561328696,-0.020966645861,-0.315847195764,0.131725316474,0.021758662867,0.335447353584,-0.055026338286,-0.096551645756,0.137553487286,-0.414809381008,1.358549164701,-0.138550420801,-1.405000692561,-0.404205138463]},{"children_left":[1,2,3,-1,-1,6,-1,-1,9,10,-1,-1,-1],"children_right":[8,5,4,-1,-1,7,-1,-1,12,11,-1,-1,-1],"feature":[115,64,24,-2,-2,51,-2,-2,12,82,-2,-2,-2],"threshold":[9.5,0.5,63.5,-2.0,-2.0,5.5,-2.0,-2.0,6.5,0.5,-2.0,-2.0,-2.0],"value":[4.5151523e-05,-0.006225609817,-0.043025073606,-0.129348750629,-0.654778937419,0.010986655281,0.073887828597,-1.167123853679,0.051567792781,0.064329583618,0.971129955349,-1.30625326353,-1.021912277651]},{"children_left":[1,2,3,-1,-1,6,-1,-1,9,10,-1,-1,13,-1,-1],"children_right":[8,5,4,-1,-1,7,-1,-1,12,11,-1,-1,14,-1,-1],"feature":[3,99,16,-2,-2,47,-2,-2,43,71,-2,-2,102,-2,-2],"threshold":[0.5,0.5,0.5,-2.0,-2.0,3.5,-2.0,-2.0,0.5,0.5,-2.0,-2.0,3.5,-2.0,-2.0],"value":[0.001487424437,-0.018613066522,-0.010381628506,-0.030839013073,-0.769557814997,-0.126350921204,-0.594030173132,-1.091084314113,0.020253608723,0.012327137341,0.047802755607,0.66135276848,0.117448366946,0.580201318683,0.94759213839]},{"children_left":[1,2,3,-1,-1,6,-1,-1,9,10,-1,-1,13,-1,-1],"children_right":[8,5,4,-1,-1,7,-1,-1,12,11,-1,-1,14,-1,-1],"feature":[133,122,86,-2,-2,66,-2,-2,106,66,-2,-2,124,-2,-2],"threshold":[-0.120386149734,0.5,1.630681812763,-2.0,-2.0,3.5,-2.0,-2.0,5.5,0.5,-2.0,-2.0,0.007692307699,-2.0,-2.0],"value":[-0.000746761763,-0.024606444421,-0.017208020831,0.104265964986,-0.359583024025,-0.134452367419,0.020612332507,-1.060522573859,0.013857904536,0.011095719257,0.495831352374,-0.005744916614,0.244828102836,1.749455809879,-0.008535825939]},{"children_left":[1,2,3,-1,-1,6,-1,-1,9,10,-1,-1,13,-1,-1],"children_right":[8,5,4,-1,-1,7,-1,-1,12,11,-1,-1,14,-1,-1],"feature":[95,52,122,-2,-2,118,-2,-2,75,115,-2,-2,112,-2,-2],"threshold":[0.5,0.5,-0.5,-2.0,-2.0,-2.5,-2.0,-2.0,8.5,-8.5,-2.0,-2.0,1.5,-2.0,-2.0],"value":[-0.000495738366,-0.014832933019,-0.023695891893,0.398629561671,-0.167700024561,0.057915260182,-1.046397265297,0.540562278936,0.026392302811,0.02080401011,-0.78039057108,0.187259436108,0.229121232023,1.751441735611,0.184981548225]},{"children_left":[1,2,3,-1,-1,6,-1,-1,9,10,-1,-1,13,-1,-1],"children_right":[8,5,4,-1,-1,7,-1,-1,12,11,-1,-1,14,-1,-1],"feature":[16,71,62,-2,-2,80,-2,-2,20,62,-2,-2,111,-2,-2],"threshold":[0.5,0.5,0.5,-2.0,-2.0,3.58333337307,-2.0,-2.0,11.5,0.5,-2.0,-2.0,0.5,-2.0,-2.0],"value":[-6.8787767e-05,0.003683351044,0.000451392825,0.151269823602,-0.078220666096,0.14225533324,-0.159277582316,1.153332817015,-0.098263148227,-0.221984779026,-1.555882028356,-0.833946986715,0.022436650454,-1.096845156409,0.421603128592]},{"children_left":[1,2,3,-1,-1,6,-1,-1,9,10,-1,-1,13,-1,-1],"children_right":[8,5,4,-1,-1,7,-1,-1,12,11,-1,-1,14,-1,-1],"feature":[16,7,116,-2,-2,84,-2,-2,20,62,-2,-2,111,-2,-2],"threshold":[0.5,0.5,0.5,-2.0,-2.0,0.881944447756,-2.0,-2.0,11.5,0.5,-2.0,-2.0,0.5,-2.0,-2.0],"value":[0.00074322654,0.004459997106,-0.01888224947,-0.351163423142,0.176337058864,0.022257879429,0.312869429218,-0.033244062902,-0.097009032537,-0.227993393807,-1.617745753882,-0.865831806096,0.028957899182,-1.01583614983,0.412294782468]},{"children_left":[1,2,3,-1,-1,6,-1,-1,9,10,-1,-1,13,-1,-1],"children_right":[8,5,4,-1,-1,7,-1,-1,12,11,-1,-1,14,-1,-1],"feature":[106,62,74,-2,-2,29,-2,-2,124,30,-2,-2,92,-2,-2],"threshold":[5.5,0.5,15.5,-2.0,-2.0,0.881944447756,-2.0,-2.0,-0.026388889179,3.5,-2.0,-2.0,10.5,-2.0,-2.0],"value":[-0.000591408655,-0.003133155174,0.019229830004,0.173648325061,-1.153724521343,-0.021305262004,-0.370303048326,0.080045573518,0.126858928031,0.302186535447,0.322214621325,1.865025914079,0.008188555278,0.624551163617,-1.353979961081]},{"children_left":[1,2,3,-1,-1,6,-1,-1,9,10,-1,-1,13,-1,-1],"children_right":[8,5,4,-1,-1,7,-1,-1,12,11,-1,-1,14,-1,-1],"feature":[40,115,19,-2,-2,30,-2,-2,129,15,-2,-2,10,-2,-2],"threshold":[0.5,-5.5,12.5,-2.0,-2.0,5.5,-2.0,-2.0,0.5,0.5,-2.0,-2.0,0.5,-2.0,-2.0],"value":[-0.001032894815,0.012148598608,-0.033084061149,-0.554847994441,0.951726655692,0.022950197652,0.202575534357,-0.149559412959,-0.025757376132,-0.043024689868,-0.214739009115,-1.209701093124,0.056217823567,-0.356581271958,0.883391547713]},{"children_left":[1,2,3,-1,-1,6,-1,-1,9,10,-1,-1,13,-1,-1],"children_right":[8,5,4,-1,-1,7,-1,-1,12,11,-1,-1,14,-1,-1],"feature":[95,115,122,-2,-2,74,-2,-2,70,64,-2,-2,111,-2,-2],"threshold":[0.5,5.5,-0.5,-2.0,-2.0,12.5,-2.0,-2.0,0.5,0.5,-2.0,-2.0,1.5,-2.0,-2.0],"value":[0.003049093435,-0.009855932642,-0.021269088082,0.400696907642,-0.145535313642,0.036691208565,0.587130824366,-0.796955084126,0.026837428421,0.020556512316,-0.219793625895,0.232042482692,0.220549947069,0.007490096036,1.569906578518]},{"children_left":[1,2,3,-1,-1,6,-1,-1,9,10,-1,-1,13,-1,-1],"children_right":[8,5,4,-1,-1,7,-1,-1,12,11,-1,-1,14,-1,-1],"feature":[107,106,129,-2,-2,124,-2,-2,17,22,-2,-2,51,-2,-2],"threshold":[0.5,5.5,-0.5,-2.0,-2.0,0.007692307699,-2.0,-2.0,133.5,4.5,-2.0,-2.0,3.5,-2.0,-2.0],"value":[0.000545335895,0.007193476363,0.004459238943,-0.240267782907,0.073242127642,0.1942065036,1.498770027124,0.429660096839,-0.049753926214,-0.064055949865,-0.390660858619,-0.964382018393,0.096800815056,0.654968791283,-1.676359531355]},{"children_left":[1,2,3,-1,-1,6,-1,-1,9,10,-1,-1,13,-1,-1],"children_right":[8,5,4,-1,-1,7,-1,-1,12,11,-1,-1,14,-1,-1],"feature":[95,58,40,-2,-2,112,-2,-2,129,65,-2,-2,115,-2,-2],"threshold":[0.5,4.269673109055,0.5,-2.0,-2.0,0.5,-2.0,-2.0,-0.5,0.5,-2.0,-2.0,-9.5,-2.0,-2.0],"value":[-0.00193928043,-0.014750379527,-0.028430919565,-0.046127481767,-0.512130508104,0.023083579649,0.638593514647,0.017170471908,0.021968978239,-0.055365024549,0.339656781747,-0.855372039202,0.037368288369,-0.738271739615,0.281949490131]},{"children_left":[1,2,3,-1,-1,6,-1,-1,9,10,-1,-1,13,-1,-1],"children_right":[8,5,4,-1,-1,7,-1,-1,12,11,-1,-1,14,-1,-1],"feature":[95,115,51,-2,-2,74,-2,-2,70,64,-2,-2,111,-2,-2],"threshold":[0.5,7.5,5.5,-2.0,-2.0,11.5,-2.0,-2.0,0.5,0.5,-2.0,-2.0,1.5,-2.0,-2.0],"value":[-0.000857290815,-0.013602210954,-0.022843932169,-0.102149416291,-1.241123531734,0.03654812297,0.789211445619,-0.875708605643,0.022693371817,0.016283344298,-0.241145548576,0.20416081566,0.214266372048,0.132547906193,1.460067715695]},{"children_left":[1,2,3,-1,-1,6,-1,-1,9,10,-1,-1,13,-1,-1],"children_right":[8,5,4,-1,-1,7,-1,-1,12,11,-1,-1,14,-1,-1],"feature":[51,133,114,-2,-2,64,-2,-2,124,76,-2,-2,85,-2,-2],"threshold":[5.5,-0.09596850723,7.5,-2.0,-2.0,0.5,-2.0,-2.0,0.069978635758,7.5,-2.0,-2.0,3.5,-2.0,-2.0],"value":[-0.000348242049,0.002162542734,-0.019477802436,-0.096778495921,-1.409989966088,0.016778193974,-0.118724254289,0.204150508277,-0.129749225917,-0.032611877986,0.132541526792,-1.764774893665,-0.298483467689,-0.143325159525,-1.885114772863]},{"children_left":[1,2,3,-1,-1,6,-1,-1,9,10,-1,-1,13,-1,-1],"children_right":[8,5,4,-1,-1,7,-1,-1,12,11,-1,-1,14,-1,-1],"feature":[66,7,69,-2,-2,21,-2,-2,37,42,-2,-2,97,-2,-2],"threshold":[4.5,0.5,0.5,-2.0,-2.0,8.5,-2.0,-2.0,0.5,10.5,-2.0,-2.0,7.5,-2.0,-2.0],"value":[0.000334148885,0.011412499667,-0.015973799807,-0.019447377945,-0.971420607138,0.035266410187,0.318363825307,-0.179711483024,-0.030205972019,0.004923545256,-0.083011163335,0.485920456123,-0.102283019796,-0.01583939115,-0.76194308023]},{"children_left":[1,2,3,-1,-1,6,-1,-1,9,10,-1,-1,13,-1,-1],"children_right":[8,5,4,-1,-1,7,-1,-1,12,11,-1,-1,14,-1,-1],"feature":[51,7,19,-2,-2,84,-2,-2,120,124,-2,-2,111,-2,-2],"threshold":[5.5,0.5,15.5,-2.0,-2.0,0.881944447756,-2.0,-2.0,7.5,-0.007692307699,-2.0,-2.0,1.5,-2.0,-2.0],"value":[0.001212650648,0.003675775811,-0.015646361488,-0.144102404038,1.167436326395,0.019546963698,0.305745534174,-0.044883659233,-0.126485610821,-0.267917010785,-0.478525697585,-1.822429912262,-0.028271850837,0.71292827312,-0.882608411639]},{"children_left":[1,2,3,-1,-1,6,-1,-1,9,10,-1,-1,13,-1,-1],"children_right":[8,5,4,-1,-1,7,-1,-1,12,11,-1,-1,14,-1,-1],"feature":[9,115,116,-2,-2,77,-2,-2,115,106,-2,-2,63,-2,-2],"threshold":[0.5,-5.5,-0.5,-2.0,-2.0,4.5,-2.0,-2.0,-0.5,5.5,-2.0,-2.0,2.5,-2.0,-2.0],"value":[0.00110109322,0.025906302801,-0.025555386039,-0.600124002066,0.669340291026,0.053698071954,0.239340948545,0.792544254969,-0.013576326285,-0.060298366135,-0.424992208892,1.021598908531,0.002063389442,0.148226220759,-0.150748328806]},{"children_left":[1,2,3,-1,-1,6,-1,-1,9,10,-1,-1,13,-1,-1],"children_right":[8,5,4,-1,-1,7,-1,-1,12,11,-1,-1,14,-1,-1],"feature":[16,71,66,-2,-2,80,-2,-2,20,132,-2,-2,22,-2,-2],"threshold":[0.5,0.5,4.5,-2.0,-2.0,3.58333337307,-2.0,-2.0,11.5,-0.5,-2.0,-2.0,1.5,-2.0,-2.0],"value":[0.000185195728,0.003458755345,-0.0001328139,0.064235033102,-0.146853701477,0.15290861268,0.098116546433,1.096399138369,-0.084065003737,-0.200153528072,-0.110216017597,-1.256520427441,0.033967688866,0.488788975012,-0.560573342145]},{"children_left":[1,2,3,-1,-1,6,-1,-1,9,10,-1,-1,13,-1,-1],"children_right":[8,5,4,-1,-1,7,-1,-1,12,11,-1,-1,14,-1,-1],"feature":[62,74,58,-2,-2,21,-2,-2,71,29,-2,-2,57,-2,-2],"threshold":[0.5,15.5,3.597218394279,-2.0,-2.0,8.5,-2.0,-2.0,0.5,0.881944447756,-2.0,-2.0,0.5,-2.0,-2.0],"value":[-0.001287545161,0.01738372423,0.022002613846,-0.233352087707,0.259682962053,-0.190416962142,0.310741458841,-1.717364277857,-0.016017914755,-0.020722906764,-0.309596431484,0.03669377261,0.206437533101,1.429261651105,0.593600660443]},{"children_left":[1,2,3,-1,-1,6,-1,-1,9,10,-1,-1,13,-1,-1],"children_right":[8,5,4,-1,-1,7,-1,-1,12,11,-1,-1,14,-1,-1],"feature":[40,116,8,-2,-2,84,-2,-2,20,129,-2,-2,57,-2,-2],"threshold":[0.5,-3.5,2.5,-2.0,-2.0,0.894444435835,-2.0,-2.0,8.5,0.5,-2.0,-2.0,1.5,-2.0,-2.0],"value":[0.000202287558,0.012148121182,-0.050356741543,-0.87488642722,1.357857102587,0.018896067741,0.248040341485,-0.028530723842,-0.021990949408,-0.016274626713,-0.195087470254,0.308245511644,-0.230903772493,-1.673307435826,-0.35747860358]},{"children_left":[1,2,3,-1,-1,6,-1,-1,9,10,-1,-1,13,-1,-1],"children_right":[8,5,4,-1,-1,7,-1,-1,12,11,-1,-1,14,-1,-1],"feature":[3,99,16,-2,-2,133,-2,-2,43,71,-2,-2,133,-2,-2],"threshold":[0.5,0.5,0.5,-2.0,-2.0,-0.237499922514,-2.0,-2.0,0.5,0.5,-2.0,-2.0,0.237499922514,-2.0,-2.0],"value":[-0.001700685903,-0.019779419181,-0.012611566896,-0.047788480266,-0.759083516047,-0.11199564695,-0.409553819144,-0.809452071464,0.014888895269,0.007554946501,0.022407649579,0.621607876143,0.10371493681,0.760639959673,0.361673565895]},{"children_left":[1,2,3,-1,-1,6,-1,-1,9,10,-1,-1,13,-1,-1],"children_right":[8,5,4,-1,-1,7,-1,-1,12,11,-1,-1,14,-1,-1],"feature":[71,16,42,-2,-2,25,-2,-2,72,10,-2,-2,132,-2,-2],"threshold":[0.5,0.5,10.5,-2.0,-2.0,3.58333337307,-2.0,-2.0,108.5,0.5,-2.0,-2.0,0.5,-2.0,-2.0],"value":[0.001025095982,-0.002495640372,0.000382731836,-0.046605085796,0.170441241718,-0.114594173033,0.338760436644,-1.121072174363,0.094300278437,-0.075664017973,-1.066102739424,-0.024885946645,0.162092827001,1.05348536215,-0.009114122666]},{"children_left":[1,2,3,-1,-1,6,-1,-1,9,10,-1,-1,13,-1,-1],"children_right":[8,5,4,-1,-1,7,-1,-1,12,11,-1,-1,14,-1,-1],"feature":[3,98,17,-2,-2,127,-2,-2,44,71,-2,-2,133,-2,-2],"threshold":[0.5,0.5,122.5,-2.0,-2.0,10.5,-2.0,-2.0,0.5,0.5,-2.0,-2.0,0.237499922514,-2.0,-2.0],"value":[0.000282439796,-0.016499758673,-0.008969094354,-0.291969761329,0.039459293805,-0.113342687944,-0.807868806499,0.610808105204,0.015729855361,0.008574737558,0.026510553224,0.673037947334,0.103235360807,0.756700189866,0.321444501261]},{"children_left":[1,2,3,-1,-1,6,-1,-1,9,10,-1,-1,13,-1,-1],"children_right":[8,5,4,-1,-1,7,-1,-1,12,11,-1,-1,14,-1,-1],"feature":[11,75,117,-2,-2,97,-2,-2,10,112,-2,-2,124,-2,-2],"threshold":[4.5,4.5,-0.5,-2.0,-2.0,6.5,-2.0,-2.0,0.5,3.5,-2.0,-2.0,-0.12264957279,-2.0,-2.0],"value":[0.000854936057,-0.008939430904,0.00532896731,-0.166939251514,0.174422822424,-0.050914367776,0.267628161899,-0.441726370861,0.028510995316,-0.056513414128,-0.437009063646,1.774477026836,0.05374994866,-0.113733004521,0.340925481671]},{"children_left":[1,2,3,-1,-1,6,-1,-1,9,10,-1,-1,13,-1,-1],"children_right":[8,5,4,-1,-1,7,-1,-1,12,11,-1,-1,14,-1,-1],"feature":[40,113,95,-2,-2,102,-2,-2,129,115,-2,-2,10,-2,-2],"threshold":[0.5,4.269673109055,0.5,-2.0,-2.0,4.5,-2.0,-2.0,0.5,9.5,-2.0,-2.0,0.5,-2.0,-2.0],"value":[0.001160760753,0.013163118803,0.025979331928,0.046772691452,0.475279232203,-0.021603348596,-0.008894096491,-0.511572222905,-0.02109070362,-0.035606226742,-0.275429434396,0.740232126726,0.048124213858,-0.336636672152,0.79330756527]},{"children_left":[1,2,3,-1,-1,6,-1,-1,9,10,-1,-1,13,-1,-1],"children_right":[8,5,4,-1,-1,7,-1,-1,12,11,-1,-1,14,-1,-1],"feature":[9,115,19,-2,-2,68,-2,-2,106,115,-2,-2,74,-2,-2],"threshold":[0.5,-5.5,13.5,-2.0,-2.0,0.5,-2.0,-2.0,5.5,-0.5,-2.0,-2.0,11.5,-2.0,-2.0],"value":[-0.002149760765,0.020797240287,-0.02530615845,-0.407420404387,1.364914156355,0.04561597602,0.358758589023,-0.426078351139,-0.015722866257,-0.019316501455,-0.420694860452,-0.015677686926,0.183783516397,0.387578018424,1.591380874654]},{"children_left":[1,2,3,-1,-1,6,-1,-1,9,10,-1,-1,13,-1,-1],"children_right":[8,5,4,-1,-1,7,-1,-1,12,11,-1,-1,14,-1,-1],"feature":[11,75,117,-2,-2,97,-2,-2,92,25,-2,-2,42,-2,-2],"threshold":[4.5,4.5,0.5,-2.0,-2.0,6.5,-2.0,-2.0,0.5,4.154761791229,-2.0,-2.0,7.5,-2.0,-2.0],"value":[0.000476077248,-0.009540366943,0.004428317319,-0.089040717012,0.259709327948,-0.050325571112,0.263373718501,-0.440249866701,0.028702168858,-0.002078015727,0.497016161471,-0.0981096563,0.091906870178,0.011989798333,0.714882197665]},{"children_left":[1,2,3,-1,-1,6,-1,-1,9,10,-1,-1,13,-1,-1],"children_right":[8,5,4,-1,-1,7,-1,-1,12,11,-1,-1,14,-1,-1],"feature":[16,52,122,-2,-2,9,-2,-2,20,132,-2,-2,111,-2,-2],"threshold":[0.5,0.5,-0.5,-2.0,-2.0,0.5,-2.0,-2.0,11.5,0.5,-2.0,-2.0,0.5,-2.0,-2.0],"value":[-0.000981146195,0.002201045766,-0.003815394402,0.354402552292,-0.045476146646,0.046953362005,0.862188525,0.065297314181,-0.085643395375,-0.178870235696,-0.639566766383,-1.59919426693,0.006430270169,-1.151386023775,0.333893456637]},{"children_left":[1,2,3,-1,-1,6,-1,-1,9,10,-1,-1,13,-1,-1],"children_right":[8,5,4,-1,-1,7,-1,-1,12,11,-1,-1,14,-1,-1],"feature":[66,7,21,-2,-2,21,-2,-2,27,126,-2,-2,29,-2,-2],"threshold":[4.5,0.5,9.5,-2.0,-2.0,7.5,-2.0,-2.0,0.5,0.5,-2.0,-2.0,0.919871807098,-2.0,-2.0],"value":[-0.000278114855,0.009698225773,-0.016626493522,-0.197689622887,1.000029485568,0.032548356246,0.361388241574,-0.061209259614,-0.027747835536,-0.013677949683,0.054452637629,-0.430605814877,-0.165909072904,-1.208713864248,-0.247326428776]},{"children_left":[1,2,3,-1,-1,6,-1,-1,9,10,-1,-1,13,-1,-1],"children_right":[8,5,4,-1,-1,7,-1,-1,12,11,-1,-1,14,-1,-1],"feature":[107,106,9,-2,-2,124,-2,-2,1,18,-2,-2,8,-2,-2],"threshold":[0.5,5.5,0.5,-2.0,-2.0,-0.067002445459,-2.0,-2.0,0.4296875,140.5,-2.0,-2.0,2.5,-2.0,-2.0],"value":[0.001321397398,0.007140608807,0.004754122144,0.206916548489,-0.044879448631,0.171752885287,1.565734967233,0.340095772262,-0.042618453539,-0.054061812596,-0.496956908023,0.904549459446,0.13574631968,-0.92033339733,0.989575420957]},{"children_left":[1,2,3,-1,-1,6,-1,-1,9,10,-1,-1,13,-1,-1],"children_right":[8,5,4,-1,-1,7,-1,-1,12,11,-1,-1,14,-1,-1],"feature":[51,63,1,-2,-2,5,-2,-2,124,37,-2,-2,85,-2,-2],"threshold":[5.5,2.5,0.4453125,-2.0,-2.0,6.5,-2.0,-2.0,0.026388889179,10.5,-2.0,-2.0,3.5,-2.0,-2.0],"value":[0.000802104862,0.00312572026,0.01635377396,0.074996009939,1.019677833892,-0.017629337583,-0.028463678114,-0.764686442848,-0.112518833405,-0.013974322287,-0.670474096277,1.355022914832,-0.27291680329,-0.334040083893,-1.752152544971]},{"children_left":[1,2,3,-1,-1,6,-1,-1,9,10,-1,-1,13,-1,-1],"children_right":[8,5,4,-1,-1,7,-1,-1,12,11,-1,-1,14,-1,-1],"feature":[64,115,22,-2,-2,74,-2,-2,115,116,-2,-2,51,-2,-2],"threshold":[0.5,5.5,4.5,-2.0,-2.0,13.5,-2.0,-2.0,0.5,1.5,-2.0,-2.0,5.5,-2.0,-2.0],"value":[-0.000780719534,-0.020667258877,-0.047472988548,-0.201015670881,-0.819606166726,0.029358507804,0.4636008386,-1.338841696225,0.010931753899,-0.003398227837,0.030041815906,-0.397049506476,0.054414502778,0.406949380936,-1.010473525463]},{"children_left":[1,2,3,-1,-1,6,-1,-1,9,10,-1,-1,13,-1,-1],"children_right":[8,5,4,-1,-1,7,-1,-1,12,11,-1,-1,14,-1,-1],"feature":[133,38,46,-2,-2,2,-2,-2,64,63,-2,-2,66,-2,-2],"threshold":[-0.123423296958,3.5,5.5,-2.0,-2.0,1.173076927662,-2.0,-2.0,0.5,1.5,-2.0,-2.0,1.5,-2.0,-2.0],"value":[0.000151587162,-0.019480599606,-0.027608463855,-0.138981334864,-0.682011914563,0.067802511812,-0.541889906661,0.533511866869,0.011997543799,-0.015393316683,0.306925834679,-0.330955761495,0.031401762465,0.656459361416,0.069891579176]},{"children_left":[1,2,3,-1,-1,6,-1,-1,9,10,-1,-1,13,-1,-1],"children_right":[8,5,4,-1,-1,7,-1,-1,12,11,-1,-1,14,-1,-1],"feature":[113,76,129,-2,-2,104,-2,-2,57,42,-2,-2,8,-2,-2],"threshold":[4.269673109055,8.5,0.5,-2.0,-2.0,0.5,-2.0,-2.0,0.5,6.5,-2.0,-2.0,2.5,-2.0,-2.0],"value":[0.001615346908,0.011744087744,0.006006593246,-0.018300048671,0.604936401568,0.081546069036,-0.196683320081,0.74888865861,-0.021663878292,-0.116780663676,0.318546447457,-0.843415554054,-0.002338495638,-0.310988001887,0.181642849163]},{"children_left":[1,2,3,-1,-1,6,-1,-1,9,10,-1,-1,13,-1,-1],"children_right":[8,5,4,-1,-1,7,-1,-1,12,11,-1,-1,14,-1,-1],"feature":[113,11,126,-2,-2,42,-2,-2,57,18,-2,-2,25,-2,-2],"threshold":[4.297262430191,4.5,-22.5,-2.0,-2.0,6.5,-2.0,-2.0,0.5,128.5,-2.0,-2.0,6.035714387894,-2.0,-2.0],"value":[-7.6849484e-05,0.008896054395,-0.004921476379,-1.625370035654,-0.014702304967,0.040339898488,-0.195758987146,0.286612321039,-0.025358227724,-0.106167356757,0.578123499086,-0.754879145853,-0.009175438583,0.215271529671,-0.34946629723]},{"children_left":[1,2,3,-1,-1,6,-1,-1,9,10,-1,-1,13,-1,-1],"children_right":[8,5,4,-1,-1,7,-1,-1,12,11,-1,-1,14,-1,-1],"feature":[3,98,16,-2,-2,133,-2,-2,44,99,-2,-2,17,-2,-2],"threshold":[0.5,0.5,0.5,-2.0,-2.0,-0.237499922514,-2.0,-2.0,0.5,12.5,-2.0,-2.0,137.5,-2.0,-2.0],"value":[-0.001808848483,-0.018931324017,-0.012726980491,-0.052970386487,-0.64205458414,-0.09987155778,-0.319062547037,-0.727639394535,0.013977934417,0.007931933938,0.067157731349,-0.805553228756,0.087851964668,0.682725660879,-0.554032289557]},{"children_left":[1,2,3,-1,-1,6,-1,-1,9,10,-1,-1,13,-1,-1],"children_right":[8,5,4,-1,-1,7,-1,-1,12,11,-1,-1,14,-1,-1],"feature":[11,62,14,-2,-2,1,-2,-2,10,77,-2,-2,91,-2,-2],"threshold":[4.5,0.5,0.5,-2.0,-2.0,0.3828125,-2.0,-2.0,0.5,3.5,-2.0,-2.0,0.5,-2.0,-2.0],"value":[0.000872555709,-0.008129718115,0.014181862843,0.025769264269,0.864505697004,-0.027346604426,-0.418358846237,0.050527053033,0.025863966951,-0.050403844384,0.159988553154,-0.834063754161,0.049142208775,0.085475232568,0.522560827679]},{"children_left":[1,2,3,-1,-1,6,-1,-1,9,10,-1,-1,13,-1,-1],"children_right":[8,5,4,-1,-1,7,-1,-1,12,11,-1,-1,14,-1,-1],"feature":[114,86,9,-2,-2,115,-2,-2,65,80,-2,-2,129,-2,-2],"threshold":[0.5,2.218253970146,0.5,-2.0,-2.0,-2.5,-2.0,-2.0,0.5,6.738636255264,-2.0,-2.0,-0.5,-2.0,-2.0],"value":[-0.000593697654,-0.014237771124,-0.003184076699,0.187027505264,-0.120971693412,-0.056811953732,-0.524460820213,-0.803275795139,0.016330779109,0.04422799648,0.071393250575,0.720499071612,-0.011104210267,-0.572463682225,0.042487810551]},{"children_left":[1,2,3,-1,-1,6,-1,-1,9,10,-1,-1,13,-1,-1],"children_right":[8,5,4,-1,-1,7,-1,-1,12,11,-1,-1,14,-1,-1],"feature":[11,62,14,-2,-2,118,-2,-2,82,65,-2,-2,72,-2,-2],"threshold":[4.5,0.5,0.5,-2.0,-2.0,2.5,-2.0,-2.0,0.5,0.5,-2.0,-2.0,133.5,-2.0,-2.0],"value":[0.001566034339,-0.007239130782,0.015560035711,0.035435721106,0.920429056624,-0.026908749888,-0.199216075501,0.878221160049,0.026665767512,0.013805029743,0.478553574311,-0.028939190804,0.142719219873,0.897119194138,-0.267436443876]},{"children_left":[1,2,3,-1,-1,6,-1,-1,9,10,-1,-1,13,-1,-1],"children_right":[8,5,4,-1,-1,7,-1,-1,12,11,-1,-1,14,-1,-1],"feature":[66,20,133,-2,-2,112,-2,-2,37,45,-2,-2,77,-2,-2],"threshold":[4.5,4.5,0.186731666327,-2.0,-2.0,2.5,-2.0,-2.0,0.5,4.5,-2.0,-2.0,3.5,-2.0,-2.0],"value":[-0.001068889949,0.008222071638,-0.00540623127,-0.135555068839,0.216237836849,0.048684063179,0.342697214778,-0.800211610732,-0.026992610058,0.005289907024,-0.04501843217,0.659609494225,-0.09288633547,-0.00444703062,-0.702991786022]},{"children_left":[1,2,3,-1,-1,-1,7,8,-1,-1,11,-1,-1],"children_right":[6,5,4,-1,-1,-1,10,9,-1,-1,12,-1,-1],"feature":[21,133,115,-2,-2,-2,31,51,-2,-2,116,-2,-2],"threshold":[2.5,0.399547889829,-2.5,-2.0,-2.0,-2.0,2.577380895615,5.5,-2.0,-2.0,-0.5,-2.0,-2.0],"value":[0.000466076404,-0.081189699498,-0.098303552062,-0.931680889909,-1.357765059889,1.078865097005,0.003425911027,-0.0017713078,0.002431007702,-0.856551616491,0.052995547966,-0.489754933414,0.907772750877]},{"children_left":[1,2,3,-1,-1,6,-1,-1,9,10,-1,-1,13,-1,-1],"children_right":[8,5,4,-1,-1,7,-1,-1,12,11,-1,-1,14,-1,-1],"feature":[51,64,114,-2,-2,115,-2,-2,124,76,-2,-2,85,-2,-2],"threshold":[5.5,0.5,7.5,-2.0,-2.0,0.5,-2.0,-2.0,0.026388889179,7.5,-2.0,-2.0,3.5,-2.0,-2.0],"value":[-0.001881398733,0.000189436099,-0.020516398848,-0.281320292145,0.288578597002,0.012135833237,-0.01652095488,0.380538242535,-0.106005445852,-0.012352203009,0.254440327617,-1.684627331374,-0.251199800538,-0.412342343855,-1.640391029695]},{"children_left":[1,2,3,-1,-1,6,-1,-1,9,10,-1,-1,13,-1,-1],"children_right":[8,5,4,-1,-1,7,-1,-1,12,11,-1,-1,14,-1,-1],"feature":[71,3,133,-2,-2,44,-2,-2,72,97,-2,-2,132,-2,-2],"threshold":[0.5,0.5,0.120386149734,-2.0,-2.0,0.5,-2.0,-2.0,113.5,3.0,-2.0,-2.0,0.5,-2.0,-2.0],"value":[0.000411385049,-0.002633830509,-0.018300400971,-0.217648721524,0.055144898406,0.011586090612,0.032367792557,0.568799272131,0.08056157019,-0.03634354748,-0.37465929923,0.795244079371,0.170562808238,1.290224584287,-0.051457724692]},{"children_left":[1,2,3,-1,-1,6,-1,-1,9,10,-1,-1,13,-1,-1],"children_right":[8,5,4,-1,-1,7,-1,-1,12,11,-1,-1,14,-1,-1],"feature":[9,38,52,-2,-2,79,-2,-2,106,42,-2,-2,74,-2,-2],"threshold":[0.5,2.5,0.5,-2.0,-2.0,51.5,-2.0,-2.0,5.5,10.5,-2.0,-2.0,11.5,-2.0,-2.0],"value":[-0.002629447388,0.016747770141,0.010097884444,-0.002024069473,0.730040234263,0.141774909506,-0.649216519391,1.256101260024,-0.01421842293,-0.017347026221,-0.184657367831,0.117033226223,0.160748206122,0.361612464509,1.49457149815]},{"children_left":[1,2,3,-1,-1,6,-1,-1,9,10,-1,-1,13,-1,-1],"children_right":[8,5,4,-1,-1,7,-1,-1,12,11,-1,-1,14,-1,-1],"feature":[95,39,115,-2,-2,60,-2,-2,129,65,-2,-2,115,-2,-2],"threshold":[0.5,0.5,5.5,-2.0,-2.0,5.5,-2.0,-2.0,-0.5,0.5,-2.0,-2.0,-8.5,-2.0,-2.0],"value":[-0.002449454075,-0.013066265122,-0.020120610956,-0.165330346956,0.276097474378,0.041346518903,0.027490860518,0.828718526076,0.017166670732,-0.052280247306,0.282493270004,-0.807292616886,0.031186502364,-0.577772957027,0.250761373867]},{"children_left":[1,2,3,-1,-1,6,-1,-1,9,10,-1,-1,13,-1,-1],"children_right":[8,5,4,-1,-1,7,-1,-1,12,11,-1,-1,14,-1,-1],"feature":[42,74,66,-2,-2,73,-2,-2,60,20,-2,-2,21,-2,-2],"threshold":[10.5,15.5,4.5,-2.0,-2.0,137.5,-2.0,-2.0,6.5,5.5,-2.0,-2.0,9.5,-2.0,-2.0],"value":[-0.000178958255,-0.00704363235,-0.00371215788,0.053945285748,-0.168147873756,-0.145017385204,-1.324589973767,-0.179211952772,0.032529830685,0.015603716814,-0.046442172001,0.535323829185,0.237900888474,1.626587215005,-0.203958881711]},{"children_left":[1,2,3,-1,-1,6,-1,-1,9,10,-1,-1,13,-1,-1],"children_right":[8,5,4,-1,-1,7,-1,-1,12,11,-1,-1,14,-1,-1],"feature":[127,40,107,-2,-2,85,-2,-2,114,90,-2,-2,0,-2,-2],"threshold":[12.5,0.5,0.5,-2.0,-2.0,6.5,-2.0,-2.0,1.5,1.080128252506,-2.0,-2.0,0.244999997318,-2.0,-2.0],"value":[0.00026593035,-0.001647569923,0.009076891705,0.093334919236,-0.426021693325,-0.021938513206,-0.171194651303,0.613532106954,0.109817018384,0.211492824258,1.683589030214,0.635417532794,0.060900254859,1.231892073425,0.427415245096]},{"children_left":[1,2,3,-1,-1,6,-1,-1,9,10,-1,-1,13,-1,-1],"children_right":[8,5,4,-1,-1,7,-1,-1,12,11,-1,-1,14,-1,-1],"feature":[97,19,11,-2,-2,64,-2,-2,5,75,-2,-2,74,-2,-2],"threshold":[10.5,15.5,4.5,-2.0,-2.0,0.5,-2.0,-2.0,6.5,5.5,-2.0,-2.0,15.5,-2.0,-2.0],"value":[-0.001539174594,0.005074707819,0.001574463673,-0.064354599727,0.149942836223,0.147844885407,-0.162170298878,0.977511155854,-0.03262081095,-0.015938449216,0.067846476096,-0.617057378625,-0.241714802933,-1.621614966033,0.070646168378]},{"children_left":[1,2,3,-1,-1,6,-1,-1,9,10,-1,-1,13,-1,-1],"children_right":[8,5,4,-1,-1,7,-1,-1,12,11,-1,-1,14,-1,-1],"feature":[16,115,18,-2,-2,127,-2,-2,13,132,-2,-2,84,-2,-2],"threshold":[0.5,-2.5,138.5,-2.0,-2.0,-12.5,-2.0,-2.0,0.5,0.5,-2.0,-2.0,0.585714310408,-2.0,-2.0],"value":[0.000736147018,0.003600821281,-0.019820761847,-0.128303415221,-0.796778546682,0.012591468118,-1.001099509149,0.079513504424,-0.073371300211,-0.189133008581,-0.750960712139,-1.539826620724,-0.001017105876,-0.915670375365,0.214021764585]},{"children_left":[1,2,3,-1,-1,6,-1,-1,9,10,-1,-1,13,-1,-1],"children_right":[8,5,4,-1,-1,7,-1,-1,12,11,-1,-1,14,-1,-1],"feature":[106,127,123,-2,-2,101,-2,-2,115,1,-2,-2,124,-2,-2],"threshold":[4.5,10.5,0.5,-2.0,-2.0,2.5,-2.0,-2.0,-10.5,0.3984375,-2.0,-2.0,0.105623543262,-2.0,-2.0],"value":[0.001254160822,-0.001684711771,-0.004030721802,0.037574837452,-0.157785665238,0.090820320745,0.459788295122,0.872493373188,0.071749600246,-0.029831392174,-0.920078810257,1.625411302411,0.132577145085,1.028781804599,0.185590386641]},{"children_left":[1,2,3,-1,-1,6,-1,-1,9,10,-1,-1,13,-1,-1],"children_right":[8,5,4,-1,-1,7,-1,-1,12,11,-1,-1,14,-1,-1],"feature":[40,93,11,-2,-2,106,-2,-2,20,85,-2,-2,57,-2,-2],"threshold":[0.5,0.5,3.5,-2.0,-2.0,5.5,-2.0,-2.0,8.5,6.5,-2.0,-2.0,1.5,-2.0,-2.0],"value":[-0.000316002407,0.010566201881,0.037202091226,0.002096629478,0.634373991399,-0.001995364884,-0.028242587857,1.061482218833,-0.020535976648,-0.015231556718,-0.128841520025,0.660605606323,-0.223514345767,-1.593483679098,-0.418278565458]},{"children_left":[1,2,-1,4,-1,-1,7,8,-1,-1,11,-1,-1],"children_right":[6,3,-1,5,-1,-1,10,9,-1,-1,12,-1,-1],"feature":[76,133,-2,114,-2,-2,8,1,-2,-2,66,-2,-2],"threshold":[2.5,-0.399547889829,-2.0,0.5,-2.0,-2.0,2.5,0.4609375,-2.0,-2.0,0.5,-2.0,-2.0],"value":[-0.00063512208,0.071967672517,-1.072273978888,0.092246100755,1.461161435479,0.979340027361,-0.003268011284,-0.015549994972,-0.073392144596,-1.135277293462,0.015621967598,0.923100844606,0.022887959185]},{"children_left":[1,2,3,-1,-1,6,-1,-1,9,10,-1,-1,-1],"children_right":[8,5,4,-1,-1,7,-1,-1,12,11,-1,-1,-1],"feature":[115,64,58,-2,-2,51,-2,-2,12,23,-2,-2,-2],"threshold":[9.5,0.5,4.102609157562,-2.0,-2.0,5.5,-2.0,-2.0,6.5,5.5,-2.0,-2.0,-2.0],"value":[-0.001028860129,-0.005728877052,-0.034226995528,-0.092673814453,-0.464101164445,0.007628198626,0.055443925067,-0.862929654676,0.037354531597,0.044882300083,0.913499774399,-1.711909865605,-0.720444230485]},{"children_left":[1,2,3,-1,-1,6,-1,-1,9,10,-1,-1,13,-1,-1],"children_right":[8,5,4,-1,-1,7,-1,-1,12,11,-1,-1,14,-1,-1],"feature":[95,58,40,-2,-2,114,-2,-2,75,129,-2,-2,112,-2,-2],"threshold":[0.5,4.269673109055,0.5,-2.0,-2.0,-8.5,-2.0,-2.0,8.5,-0.5,-2.0,-2.0,1.5,-2.0,-2.0],"value":[0.000597181473,-0.010345863411,-0.021460097713,-0.028931284397,-0.440756787314,0.020834575521,2.313487961928,0.092787749299,0.021094835042,0.016259460306,-0.266872807401,0.187057781164,0.203250554724,1.50858957009,0.453800569725]},{"children_left":[1,2,3,-1,-1,6,-1,-1,9,10,-1,-1,13,-1,-1],"children_right":[8,5,4,-1,-1,7,-1,-1,12,11,-1,-1,14,-1,-1],"feature":[64,93,115,-2,-2,58,-2,-2,51,115,-2,-2,19,-2,-2],"threshold":[0.5,2.5,5.5,-2.0,-2.0,4.102609157562,-2.0,-2.0,5.5,0.5,-2.0,-2.0,11.5,-2.0,-2.0],"value":[0.001224886172,-0.017399732089,-0.010102572477,-0.184026162885,0.356867898157,-0.152001670725,0.218783660533,-1.374749478522,0.012025698148,0.014875460892,0.014948943928,0.338543440833,-0.151166567266,-0.257768525553,-1.445441307432]},{"children_left":[1,2,3,-1,-1,6,-1,-1,9,10,-1,-1,13,-1,-1],"children_right":[8,5,4,-1,-1,7,-1,-1,12,11,-1,-1,14,-1,-1],"feature":[95,26,47,-2,-2,38,-2,-2,70,129,-2,-2,102,-2,-2],"threshold":[0.5,0.5,4.5,-2.0,-2.0,0.5,-2.0,-2.0,0.5,-0.5,-2.0,-2.0,2.5,-2.0,-2.0],"value":[-0.000881569216,-0.011701441875,-0.005876349637,-0.092704800774,0.277308656231,-0.073277757556,-1.338911235597,-0.097844964073,0.019260883544,0.014071864385,-0.272993005796,0.173909810853,0.181295352783,0.540045944123,1.710357944324]},{"children_left":[1,2,3,-1,-1,6,-1,-1,9,10,-1,-1,13,-1,-1],"children_right":[8,5,4,-1,-1,7,-1,-1,12,11,-1,-1,14,-1,-1],"feature":[106,9,17,-2,-2,11,-2,-2,124,115,-2,-2,36,-2,-2],"threshold":[5.5,0.5,121.5,-2.0,-2.0,1.5,-2.0,-2.0,-0.026388889179,-7.5,-2.0,-2.0,2.5,-2.0,-2.0],"value":[-0.000611247812,-0.002609631213,0.015936424548,-0.04511122548,0.366381658113,-0.013536946262,-0.461150026853,-0.012726971859,0.096614597644,0.223506659645,0.16313971178,1.495815638582,0.016493163562,0.345926366458,-1.238457642487]},{"children_left":[1,2,3,-1,-1,6,-1,-1,9,10,-1,-1,13,-1,-1],"children_right":[8,5,4,-1,-1,7,-1,-1,12,11,-1,-1,14,-1,-1],"feature":[11,75,117,-2,-2,97,-2,-2,10,77,-2,-2,82,-2,-2],"threshold":[4.5,4.5,0.5,-2.0,-2.0,5.5,-2.0,-2.0,0.5,3.5,-2.0,-2.0,0.5,-2.0,-2.0],"value":[0.003387469164,-0.004978200647,0.005943668691,-0.066068160004,0.253584018964,-0.036920741512,0.385522427378,-0.317721710733,0.026658010464,-0.050298173732,0.139498137343,-0.838410382653,0.049097238989,0.160280405176,0.6789763666]},{"children_left":[1,2,3,-1,-1,6,-1,-1,9,10,-1,-1,13,-1,-1],"children_right":[8,5,4,-1,-1,7,-1,-1,12,11,-1,-1,14,-1,-1],"feature":[66,115,117,-2,-2,64,-2,-2,119,27,-2,-2,95,-2,-2],"threshold":[4.5,-4.5,2.5,-2.0,-2.0,0.5,-2.0,-2.0,2.5,0.5,-2.0,-2.0,0.5,-2.0,-2.0],"value":[0.001748736605,0.010264977712,-0.022517908377,-0.345245938533,1.192861884475,0.020420104871,-0.064549153287,0.225899655285,-0.021788171842,-0.005218129234,0.034245845429,-0.629836536552,-0.141058964784,-0.487676977894,-1.287283637652]},{"children_left":[1,2,3,-1,-1,6,-1,-1,9,10,-1,-1,13,-1,-1],"children_right":[8,5,4,-1,-1,7,-1,-1,12,11,-1,-1,14,-1,-1],"feature":[17,19,5,-2,-2,100,-2,-2,81,97,-2,-2,42,-2,-2],"threshold":[137.5,15.5,6.5,-2.0,-2.0,4.5,-2.0,-2.0,0.5,10.5,-2.0,-2.0,10.5,-2.0,-2.0],"value":[-0.000227642917,0.00326989917,0.001343577448,0.033877456294,-0.462281662781,0.145883536962,1.241030767475,-1.097490558055,-0.062210554933,-0.100403971926,-0.197997876024,-0.774538317724,0.174466542778,-0.576937536875,1.160464245076]},{"children_left":[1,2,3,-1,-1,6,-1,-1,9,10,-1,-1,13,-1,-1],"children_right":[8,5,4,-1,-1,7,-1,-1,12,11,-1,-1,14,-1,-1],"feature":[40,93,86,-2,-2,39,-2,-2,15,9,-2,-2,56,-2,-2],"threshold":[0.5,2.5,1.630681812763,-2.0,-2.0,0.5,-2.0,-2.0,0.5,0.5,-2.0,-2.0,1.5,-2.0,-2.0],"value":[0.00046198461,0.010816802022,0.019358604471,0.189372603107,-0.078682850078,-0.02858570011,-0.256033039891,0.485542143018,-0.019092246541,-0.013818047874,0.246634598322,-0.190091336874,-0.17659084882,0.066561683726,-1.357956453602]},{"children_left":[1,2,3,-1,-1,6,-1,-1,9,10,-1,-1,13,-1,-1],"children_right":[8,5,4,-1,-1,7,-1,-1,12,11,-1,-1,14,-1,-1],"feature":[95,95,114,-2,-2,70,-2,-2,0,18,-2,-2,18,-2,-2],"threshold":[3.5,0.5,-0.5,-2.0,-2.0,0.5,-2.0,-2.0,0.42499999702,132.5,-2.0,-2.0,125.5,-2.0,-2.0],"value":[0.000612203567,0.002048636058,-0.008085228649,-0.179567617556,0.04538497156,0.021561897227,0.102565506443,1.02699469145,-0.131698042385,-0.254084615743,-0.621785407818,-1.423701710957,0.066306722529,-1.238953913213,1.342669591837]},{"children_left":[1,2,3,-1,-1,6,-1,-1,9,10,-1,-1,13,-1,-1],"children_right":[8,5,4,-1,-1,7,-1,-1,12,11,-1,-1,14,-1,-1],"feature":[72,74,60,-2,-2,45,-2,-2,26,12,-2,-2,97,-2,-2],"threshold":[137.5,15.5,6.5,-2.0,-2.0,4.5,-2.0,-2.0,0.5,1.5,-2.0,-2.0,10.5,-2.0,-2.0],"value":[-0.000134491722,-0.00361095296,-0.001296794743,-0.031008121057,0.429836720528,-0.156379230644,-1.24811348321,1.103240083567,0.060057888267,0.093107993721,0.349757344025,1.152507564259,-0.144734416031,0.544826403318,-1.091483098703]},{"children_left":[1,2,3,-1,-1,6,-1,-1,9,10,-1,-1,13,-1,-1],"children_right":[8,5,4,-1,-1,7,-1,-1,12,11,-1,-1,14,-1,-1],"feature":[40,72,74,-2,-2,26,-2,-2,0,73,-2,-2,73,-2,-2],"threshold":[3.5,137.5,15.5,-2.0,-2.0,0.5,-2.0,-2.0,0.42499999702,132.5,-2.0,-2.0,125.5,-2.0,-2.0],"value":[-0.000246484745,-0.001746834921,-0.00502140225,-0.01763476717,-0.887242319266,0.053893436625,0.402938397106,-0.624364844161,0.137468946295,0.279308314652,0.655236861023,1.517367778263,-0.05826865715,1.180283396011,-1.251376925823]},{"children_left":[1,2,3,-1,-1,6,-1,-1,9,10,-1,-1,13,-1,-1],"children_right":[8,5,4,-1,-1,7,-1,-1,12,11,-1,-1,14,-1,-1],"feature":[95,29,114,-2,-2,121,-2,-2,75,66,-2,-2,112,-2,-2],"threshold":[0.5,0.894444435835,6.5,-2.0,-2.0,0.5,-2.0,-2.0,8.5,4.5,-2.0,-2.0,1.5,-2.0,-2.0],"value":[-1.9258432e-05,-0.009711240258,-0.025510370928,-0.2539038409,0.212322403821,0.009769957199,0.094193674187,-0.428579204112,0.018221656117,0.013840860675,0.18064296194,-0.176229459922,0.178589675889,1.523464648174,0.184861752088]},{"children_left":[1,2,3,-1,-1,6,-1,-1,9,10,-1,-1,13,-1,-1],"children_right":[8,5,4,-1,-1,7,-1,-1,12,11,-1,-1,14,-1,-1],"feature":[3,133,127,-2,-2,82,-2,-2,43,71,-2,-2,73,-2,-2],"threshold":[0.5,0.140830270946,1.5,-2.0,-2.0,0.5,-2.0,-2.0,0.5,0.5,-2.0,-2.0,128.5,-2.0,-2.0],"value":[0.001650764997,-0.01251883651,-0.028199024989,-0.295540997889,0.060221095886,0.010827222946,0.010683132939,0.552512838642,0.014682944216,0.009592372153,0.041632212081,0.536534547487,0.076778086983,0.4062625488,0.580832437577]},{"children_left":[1,2,3,-1,-1,6,-1,-1,9,10,-1,-1,13,-1,-1],"children_right":[8,5,4,-1,-1,7,-1,-1,12,11,-1,-1,14,-1,-1],"feature":[9,115,5,-2,-2,77,-2,-2,11,75,-2,-2,66,-2,-2],"threshold":[0.5,-5.5,4.5,-2.0,-2.0,4.5,-2.0,-2.0,1.5,2.5,-2.0,-2.0,4.5,-2.0,-2.0],"value":[0.001467077107,0.020912975367,-0.019808353024,-0.762182841359,0.403882714331,0.042697357356,0.184408962565,0.757945494691,-0.009976952248,-0.054310260777,-0.090444663523,-0.872584127683,5.3946083e-05,0.098034536497,-0.136467727857]},{"children_left":[1,2,3,-1,-1,6,-1,-1,9,10,-1,-1,13,-1,-1],"children_right":[8,5,4,-1,-1,7,-1,-1,12,11,-1,-1,14,-1,-1],"feature":[16,17,19,-2,-2,81,-2,-2,17,22,-2,-2,132,-2,-2],"threshold":[0.5,137.5,15.5,-2.0,-2.0,0.5,-2.0,-2.0,113.5,1.5,-2.0,-2.0,-0.5,-2.0,-2.0],"value":[-0.000449465133,0.002183891152,0.00553598167,0.022059539733,0.884985310297,-0.053375218661,-0.421159273438,0.803958234873,-0.071136636345,0.037171476729,0.370409842567,-0.635071056605,-0.165751283635,0.013344292387,-1.225681098626]},{"children_left":[1,2,3,-1,-1,6,-1,-1,9,10,-1,-1,13,-1,-1],"children_right":[8,5,4,-1,-1,7,-1,-1,12,11,-1,-1,14,-1,-1],"feature":[21,133,115,-2,-2,32,-2,-2,106,62,-2,-2,124,-2,-2],"threshold":[2.5,0.399547889829,-2.5,-2.0,-2.0,3.5,-2.0,-2.0,5.5,0.5,-2.0,-2.0,-0.026388889179,-2.0,-2.0],"value":[-0.001080344758,-0.065874005073,-0.085766393728,-0.876981478603,-1.261949021584,0.060856598745,1.080324209653,1.060247332143,0.001437983044,-0.000426789955,0.122199820578,-0.07339509001,0.102280064852,1.210279940397,0.078207667802]},{"children_left":[1,2,3,-1,-1,6,-1,-1,9,10,-1,-1,13,-1,-1],"children_right":[8,5,4,-1,-1,7,-1,-1,12,11,-1,-1,14,-1,-1],"feature":[95,58,37,-2,-2,47,-2,-2,129,65,-2,-2,115,-2,-2],"threshold":[0.5,4.119004011154,20.5,-2.0,-2.0,4.5,-2.0,-2.0,-0.5,0.5,-2.0,-2.0,-9.5,-2.0,-2.0],"value":[0.000481721767,-0.009135947046,-0.024550626816,-0.164311053424,1.690686170992,0.009455968988,-0.059176658766,0.425027906713,0.018277595766,-0.038526710807,0.353501943456,-0.726376917717,0.029831072776,-0.661357316398,0.237572900118]},{"children_left":[1,2,3,-1,-1,6,-1,-1,9,10,-1,-1,13,-1,-1],"children_right":[8,5,4,-1,-1,7,-1,-1,12,11,-1,-1,14,-1,-1],"feature":[16,63,19,-2,-2,11,-2,-2,17,97,-2,-2,132,-2,-2],"threshold":[0.5,2.5,15.5,-2.0,-2.0,0.5,-2.0,-2.0,113.5,2.5,-2.0,-2.0,-0.5,-2.0,-2.0],"value":[-0.001393504822,0.001160633109,0.012266298924,0.058812233354,1.229260314711,-0.015826351725,-0.953476007965,-0.027084154339,-0.068429727768,0.026897134856,-0.530486947271,0.33321875181,-0.144454160934,0.041067889927,-1.176279435981]},{"children_left":[1,2,3,-1,-1,6,-1,-1,9,10,-1,-1,13,-1,-1],"children_right":[8,5,4,-1,-1,7,-1,-1,12,11,-1,-1,14,-1,-1],"feature":[40,107,102,-2,-2,118,-2,-2,15,9,-2,-2,47,-2,-2],"threshold":[0.5,0.5,6.5,-2.0,-2.0,2.5,-2.0,-2.0,0.5,0.5,-2.0,-2.0,2.5,-2.0,-2.0],"value":[0.001171699395,0.010855911526,0.016584094245,0.121068822098,-0.371347705988,-0.037149150888,-0.414850476963,1.27642401863,-0.016957810955,-0.011848485433,0.22126334953,-0.168438835558,-0.175700388313,-0.481671399342,-1.60343903045]},{"children_left":[1,2,3,-1,-1,6,-1,-1,9,10,-1,-1,13,-1,-1],"children_right":[8,5,4,-1,-1,7,-1,-1,12,11,-1,-1,14,-1,-1],"feature":[127,114,12,-2,-2,115,-2,-2,95,3,-2,-2,0,-2,-2],"threshold":[-12.5,-1.5,0.5,-2.0,-2.0,5.5,-2.0,-2.0,3.5,0.5,-2.0,-2.0,0.414999991655,-2.0,-2.0],"value":[-0.000685390386,-0.094537366997,-0.042982301569,-0.114999740815,-1.104618122212,-0.206756803879,-1.349336171142,0.460513676841,0.001158229257,0.002444188871,-0.066520916121,0.092963491898,-0.125004873386,-1.350370170637,0.529303198426]},{"children_left":[1,2,-1,4,-1,-1,7,8,-1,-1,11,-1,-1],"children_right":[6,3,-1,5,-1,-1,10,9,-1,-1,12,-1,-1],"feature":[76,133,-2,114,-2,-2,86,62,-2,-2,116,-2,-2],"threshold":[2.5,-0.399547889829,-2.0,2.5,-2.0,-2.0,2.577380895615,0.5,-2.0,-2.0,0.5,-2.0,-2.0],"value":[-0.001197107652,0.066271789026,-1.066273133459,0.084801540323,1.286350454395,0.896786035718,-0.003695869614,0.001313102998,0.139008179638,-0.057222551539,-0.051781162427,-0.941544005013,0.38792022999]},{"children_left":[1,2,3,-1,-1,6,-1,-1,9,10,-1,-1,13,-1,-1],"children_right":[8,5,4,-1,-1,7,-1,-1,12,11,-1,-1,14,-1,-1],"feature":[72,74,129,-2,-2,42,-2,-2,26,38,-2,-2,17,-2,-2],"threshold":[137.5,15.5,0.5,-2.0,-2.0,9.5,-2.0,-2.0,0.5,0.5,-2.0,-2.0,132.5,-2.0,-2.0],"value":[0.001175835898,-0.002310144767,-0.000356150856,-0.039688312394,0.251081875712,-0.139653569998,-1.186031487309,1.135492931352,0.05992406135,0.088702095315,-0.531237297095,0.530122272468,-0.103683199276,-1.458438778008,0.023666447255]},{"children_left":[1,2,3,-1,-1,6,-1,-1,9,10,-1,-1,13,-1,-1],"children_right":[8,5,4,-1,-1,7,-1,-1,12,11,-1,-1,14,-1,-1],"feature":[84,101,117,-2,-2,115,-2,-2,127,63,-2,-2,101,-2,-2],"threshold":[0.303846165538,0.5,-1.5,-2.0,-2.0,-2.5,-2.0,-2.0,10.5,2.5,-2.0,-2.0,2.5,-2.0,-2.0],"value":[0.001622064147,-0.084517677299,0.002490603554,-0.685288856083,0.672989649934,-0.186117570777,-0.440407933579,-1.637294156331,0.003387791461,0.001476539591,0.079734142501,-0.082639534719,0.083265538866,0.423654669148,0.82672940109]},{"children_left":[1,2,3,-1,-1,6,-1,-1,9,10,-1,-1,13,-1,-1],"children_right":[8,5,4,-1,-1,7,-1,-1,12,11,-1,-1,14,-1,-1],"feature":[51,127,115,-2,-2,125,-2,-2,124,37,-2,-2,73,-2,-2],"threshold":[5.5,-12.5,-1.5,-2.0,-2.0,-2.5,-2.0,-2.0,0.029166667722,10.5,-2.0,-2.0,124.5,-2.0,-2.0],"value":[0.001839043372,0.003596201509,-0.088877307219,-0.515798081761,-1.04482507014,0.005397761375,0.209617863966,-0.003614957309,-0.088210680569,-0.005006237294,-0.546659314314,1.447883003538,-0.217877391697,-0.070318890349,-1.38271046346]},{"children_left":[1,2,3,-1,-1,6,-1,-1,9,10,-1,-1,13,-1,-1],"children_right":[8,5,4,-1,-1,7,-1,-1,12,11,-1,-1,14,-1,-1],"feature":[95,94,5,-2,-2,19,-2,-2,70,64,-2,-2,111,-2,-2],"threshold":[0.5,0.5,5.5,-2.0,-2.0,14.5,-2.0,-2.0,0.5,0.5,-2.0,-2.0,1.5,-2.0,-2.0],"value":[-0.000398068515,-0.010090672711,-0.004481267928,-0.086270407923,0.293413967007,-0.058851995629,-0.148684779533,-1.057923391494,0.017662831059,0.013263261328,-0.177716181606,0.165959512643,0.14844655231,-0.077507764432,1.293242937848]},{"children_left":[1,2,3,-1,-1,6,-1,-1,9,10,-1,-1,13,-1,-1],"children_right":[8,5,4,-1,-1,7,-1,-1,12,11,-1,-1,14,-1,-1],"feature":[51,7,116,-2,-2,84,-2,-2,124,37,-2,-2,120,-2,-2],"threshold":[5.5,0.5,0.5,-2.0,-2.0,0.881944447756,-2.0,-2.0,-0.006410256494,10.5,-2.0,-2.0,22.5,-2.0,-2.0],"value":[-0.00068560015,0.001011746689,-0.013028154484,-0.269798755956,0.16012281452,0.01240532152,0.267198017736,-0.066704848881,-0.086222077724,-0.0017067625,-0.549037788401,1.315938891167,-0.194421940147,-1.384323844259,0.060186424312]}],"metadata":{"target":"expected eventual score for the perspective player (win=1, draw=0.5, loss=0)","eligible_outcomes":["by HQ capture","by resignation","hq-capture"],"split":"source-stratified chronological 70/15/15 by whole game","hyperparameters":{"n_estimators":160,"max_depth":3,"learning_rate":0.05,"min_samples_leaf":30},"self_play_train_share":0.04,"metrics":{"train":{"log_loss":0.488475,"brier":0.160457,"decisive_accuracy":0.759642,"decisive_roc_auc":0.849677,"draw_samples":0,"latest_position":{"log_loss":0.198362,"brier":0.058615,"decisive_accuracy":0.919692,"decisive_roc_auc":0.977484,"draw_samples":0},"games":807,"samples":41778,"by_source":{"human":{"log_loss":0.363391,"brier":0.117503,"decisive_accuracy":0.823864,"decisive_roc_auc":0.921386,"draw_samples":0,"games":135,"samples":17326,"by_perspective":{"RED":{"log_loss":0.3631,"brier":0.117504,"decisive_accuracy":0.821981,"decisive_roc_auc":0.922143,"draw_samples":0},"BLUE":{"log_loss":0.363681,"brier":0.117502,"decisive_accuracy":0.825748,"decisive_roc_auc":0.921977,"draw_samples":0}}},"vercel_self_play":{"log_loss":0.613558,"brier":0.203411,"decisive_accuracy":0.69542,"decisive_roc_auc":0.791259,"draw_samples":0,"games":672,"samples":24452,"by_perspective":{"RED":{"log_loss":0.626747,"brier":0.207502,"decisive_accuracy":0.693682,"decisive_roc_auc":0.810275,"draw_samples":0},"BLUE":{"log_loss":0.595558,"brier":0.197601,"decisive_accuracy":0.698851,"decisive_roc_auc":0.804313,"draw_samples":0}}}}},"validation":{"log_loss":0.538704,"brier":0.177368,"decisive_accuracy":0.734717,"decisive_roc_auc":0.82253,"draw_samples":0,"latest_position":{"log_loss":0.208288,"brier":0.058615,"decisive_accuracy":0.935764,"decisive_roc_auc":0.976937,"draw_samples":0},"games":173,"samples":10983,"by_source":{"human":{"log_loss":0.466234,"brier":0.157654,"decisive_accuracy":0.755566,"decisive_roc_auc":0.850033,"draw_samples":0,"games":29,"samples":3528,"by_perspective":{"RED":{"log_loss":0.463799,"brier":0.156882,"decisive_accuracy":0.750547,"decisive_roc_auc":0.858216,"draw_samples":0},"BLUE":{"log_loss":0.46867,"brier":0.158427,"decisive_accuracy":0.760585,"decisive_roc_auc":0.856084,"draw_samples":0}}},"vercel_self_play":{"log_loss":0.611173,"brier":0.197081,"decisive_accuracy":0.713868,"decisive_roc_auc":0.810635,"draw_samples":0,"games":144,"samples":7455,"by_perspective":{"RED":{"log_loss":0.614042,"brier":0.197434,"decisive_accuracy":0.716414,"decisive_roc_auc":0.831757,"draw_samples":0},"BLUE":{"log_loss":0.605519,"brier":0.195877,"decisive_accuracy":0.711905,"decisive_roc_auc":0.816809,"draw_samples":0}}}}},"test":{"log_loss":0.557452,"brier":0.180456,"decisive_accuracy":0.733967,"decisive_roc_auc":0.814771,"draw_samples":0,"latest_position":{"log_loss":0.192909,"brier":0.051976,"decisive_accuracy":0.944828,"decisive_roc_auc":0.975824,"draw_samples":0},"games":175,"samples":12668,"by_source":{"human":{"log_loss":0.431685,"brier":0.143953,"decisive_accuracy":0.769766,"decisive_roc_auc":0.876457,"draw_samples":0,"games":30,"samples":3312,"by_perspective":{"RED":{"log_loss":0.430305,"brier":0.143375,"decisive_accuracy":0.774218,"decisive_roc_auc":0.879549,"draw_samples":0},"BLUE":{"log_loss":0.433065,"brier":0.144531,"decisive_accuracy":0.765313,"decisive_roc_auc":0.873046,"draw_samples":0}}},"vercel_self_play":{"log_loss":0.68322,"brier":0.21696,"decisive_accuracy":0.698168,"decisive_roc_auc":0.785645,"draw_samples":0,"games":145,"samples":9356,"by_perspective":{"RED":{"log_loss":0.69378,"brier":0.220276,"decisive_accuracy":0.694531,"decisive_roc_auc":0.784191,"draw_samples":0},"BLUE":{"log_loss":0.674364,"brier":0.214326,"decisive_accuracy":0.700434,"decisive_roc_auc":0.787309,"draw_samples":0}}}}}},"feature_importance":[{"feature":"diff_material_total","importance":0.47918481},{"feature":"diff_pseudo_mobility","importance":0.04662373},{"feature":"opp_board_airborne_infantry","importance":0.03795874},{"feature":"own_board_airborne_infantry","importance":0.03793487},{"feature":"diff_material_board","importance":0.03158091},{"feature":"opp_material_total","importance":0.0182491},{"feature":"own_board_armored_artillery","importance":0.01729433},{"feature":"opp_board_armored_artillery","importance":0.01598904},{"feature":"own_material_total","importance":0.01525851},{"feature":"diff_pieces_board","importance":0.01442343},{"feature":"own_reserve_infantry","importance":0.01204315},{"feature":"opp_reserve_infantry","importance":0.01168562},{"feature":"diff_paratrooper_ready","importance":0.01074419},{"feature":"opp_material_board","importance":0.01027775},{"feature":"opp_infantry_board","importance":0.01008774},{"feature":"own_reserve_armored_infantry","importance":0.0096143},{"feature":"opp_reserve_armored_infantry","importance":0.00933041},{"feature":"own_reserve_heavy_artillery","importance":0.00926016},{"feature":"opp_reserve_heavy_artillery","importance":0.00924129},{"feature":"own_material_board","importance":0.00888967},{"feature":"own_infantry_board","importance":0.00873492},{"feature":"opp_advancement_mean","importance":0.00836727},{"feature":"diff_infantry_board","importance":0.00832826},{"feature":"opp_pieces_reserve","importance":0.00730908},{"feature":"own_paratrooper_distance_home","importance":0.00675479}],"dataset_sha256":"c47f124021aa7c1b3832bbe47f8a7a3434629042d2984f338242b136223775fb","data_start":"2025-04-24 22:20:44.412+00","data_end":"2026-07-15T17:33:59.000Z"}}